-0.439229 0.179273 0.325423 -0.315296 -0.381508 -0.037060 -0.200454 -0.217425 -0.224123 0.117820 -0.318910 -0.422410 -0.077722 -0.315111 -0.237842 -0.015304 -0.025716 0.327119 -0.471568 -0.295668 0.458870 0.085385 -0.204429 -0.034002 -0.012162 0.308908 -0.412890 -0.271572 -0.305991 0.064167 -0.431667 0.445230 0.469515 0.323615 -0.441062 0.462433 -0.344044 -0.190089 0.040000 0.458638 -0.416190 0.036010 0.291766 -0.083928 -0.497481 -0.085256 -0.199945 -0.193366 0.339093 0.398885 -0.426186 -0.424139 -0.064016 -0.006508 -0.081365 -0.097538 -0.414604 0.205437 -0.098858 -0.023046 -0.243821 -0.216906 0.107379 -0.395678 0.423456 0.287703 -0.428921 -0.109216 0.314532 -0.004830 -0.329559 0.069045 0.101337 -0.119446 -0.440890 -0.055272 -0.231699 -0.097640 0.050874 -0.269859 0.209659 0.148249 0.474997 0.066385 0.315491 0.125723 0.324233 0.162150 0.333418 -0.400769 -0.173090 -0.473772 -0.123876 0.268542 0.031477 0.177219 0.227911 0.475523 -0.190701 -0.487704 0.060115 -0.248266 0.071788 0.109570 0.026548 0.047499 -0.411883 0.322714 0.158997 0.436609 0.397103 0.013751 0.173474 -0.102717 -0.460499 -0.497162 -0.237560 -0.495396 0.175154 0.225160 0.258844 -0.095676 0.130644 0.176599 0.101399 -0.172009 -0.387564 -0.073416 -0.139834 0.461051 0.291234 0.310087 -0.471912 -0.003733 -0.113546 -0.308113 0.276369 0.184890 0.148740 -0.364762 0.141779 -0.033327 0.416138 -0.406863 -0.216685 -0.037666 0.160236 -0.502421 0.227072 0.015187 -0.430361 -0.012525 -0.206057 -0.009113 -0.396462 0.285398 -0.305036 -0.356040 0.238419 0.267663 -0.035034 -0.193111 0.266161 -0.191539 0.182455 0.175523 -0.342004 -0.083144 -0.027911 -0.279224 0.092005 -0.072791 0.185719 0.234355 -0.106640 0.101488 0.235614 0.284915 -0.360723 -0.355817 0.217980 -0.499869 -0.352507 0.377380 -0.450208 -0.412918 0.384188 -0.211386 0.415134 0.378383 0.123751 0.340507 -0.078835 -0.297340 -0.121366 0.315478 -0.481579 0.066388 0.163576 -0.412144 0.158094 -0.504982 0.127516 0.381603 0.261632 -0.161334 -0.266458 0.192996 -0.041915 0.348518 -0.005633 0.290453 0.184288 -0.380977 0.170396 -0.051631 0.314770 -0.114540 -0.216482 -0.070955 0.172734 0.262155 0.068729 -0.414128 0.348521 -0.291697 0.245004 -0.281154 -0.280699 0.157698 0.473256 -0.256086 -0.420011 0.304160 0.119181 0.274258 0.011797 0.126025 -0.010544 -0.070759 -0.373603 -0.273012 0.130967 -0.145715 -0.410500 0.198024 -0.482589 0.052491 0.456599 -0.525101 0.345394 -0.069601 0.206907 0.305615 0.014801 -0.407542 -0.378476 -0.165017 -0.262471 -0.436383 -0.468336 -0.325286 -0.376435 0.321819 0.359682 -0.057939 -0.213082 0.151380 -0.098839 0.200121 -0.398455 0.043626 -0.408786 -0.150405 0.111091 -0.040803 0.326202 -0.279370 -0.289520 0.368154 -0.345891 -0.338715 -0.165512 -0.189026 0.427114 -0.538403 0.377120 0.024613 0.041179 -0.384092 -0.284642 0.316639 -0.505527 0.477945 0.200399 -0.467530 0.430882 -0.308667 0.300991 0.088861 0.164950 0.441516 0.197467 -0.155968 -0.058051 -0.470320 -0.509895 0.348609 -0.279568 -0.478266 -0.362709 -0.045770 -0.381335 -0.162214 0.339280 -0.272869 0.305669 -0.186405 0.164331 -0.402116 0.387542 0.248718 0.194137 0.269711 -0.381977 0.422660 -0.456668 -0.266954 0.160039 0.250052 -0.379134 0.117696 -0.240868 0.099759 -0.192652 -0.099333 0.436910 -0.420161 -0.428422 0.178994 -0.052447 -0.439067 -0.462864 0.152870 0.174617 -0.354346 -0.409606 0.058364 0.015943 -0.485481 0.263571 -0.191444 -0.472600 0.345726 -0.443302 -0.291483 0.379677 -0.387676 0.458843 0.426386 -0.251583 0.047354 0.241546 -0.105768 -0.086205 0.090819 0.098210 -0.262159 0.260843 -0.438977 -0.513686 -0.057479 -0.254441 0.125747 0.376059 -0.075684 0.359437 -0.508913 0.150602 0.381675 -0.382428 -0.144108 -0.165062 -0.465268 0.445873 0.016623 -0.447044 0.296724 -0.053081 -0.201995 0.142267 0.145253 0.111229 0.223833 0.131695 0.189876 0.089219 -0.073981 -0.372527 0.443678 -0.103739 -0.154239 0.322432 0.073221 0.030784 -0.206685 0.242000 -0.234351 0.239403 0.326356 -0.120400 -0.059397 0.292948 -0.121471 -0.223058 0.418047 -0.082024 0.197238 -0.345462 -0.489987 -0.357078 0.280041 0.197633 -0.224520 0.418259 -0.226028 -0.090647 0.177245 -0.509019 0.055077 0.236020 -0.515714 0.440704 0.080396 0.197097 -0.462356 -0.495081 0.414116 -0.527132 -0.208120 -0.346343 -0.372332 0.034974 0.190820 0.352605 0.080033 0.098037 0.065345 0.164449 0.204205 -0.204527 0.322963 -0.077963 0.252499 -0.027044 0.315662 0.151506 -0.077055 -0.170834 0.288218 0.345846 -0.121883 -0.206241 0.070450 -0.000956 -0.211943 0.005831 0.101691 -0.092172 0.060755 -0.324254 -0.069903 -0.019046 -0.468924 0.280848 -0.351421 -0.203819 -0.401282 -0.291277 -0.282936 -0.314532 0.409642 -0.283602 -0.313975 0.021649 -0.014305 0.396172 0.256847 -0.215318 0.374711 0.201644 0.290176 -0.528809 -0.421089 -0.497476 -0.544395 0.001567 -0.348989 0.148797 -0.506261 0.071589 0.007456 -0.174810 0.389130 0.357562 -0.226952 0.020217 -0.033220 -0.230353 -0.245765 0.182656 -0.106131 -0.471060 0.414155 0.438739 -0.465086 0.017548 -0.125336 -0.397954 0.240506 -0.376389 0.149097 0.349944 -0.314410 -0.372249 -0.292550 0.437836 0.060928 -0.106481 0.113254 0.004256 -0.024647 -0.000248 -0.109742 -0.486801 -0.187849 -0.490436 -0.220540 0.163162 -0.103606 0.252501 0.484522 -0.365174 -0.117762 -0.238247 -0.274601 -0.474686 0.437989 -0.494901 0.226414 0.017684 -0.100584 0.037650 -0.180855 -0.205888 0.239862 -0.449121 -0.230366 -0.254145 -0.193908 -0.166637 -0.007955 -0.185473 0.230203 -0.531777 -0.409255 -0.345206 0.062380 0.364006 0.011152 -0.446676 0.058277 -0.340477 0.269375 -0.399295 0.482998 -0.452552 -0.121678 -0.090524 0.371113 0.237088 0.239493 0.112826 -0.138877 -0.159537 0.166855 -0.120382 0.114929 -0.359381 0.081308 -0.085803 0.034285 0.041109 0.156884 -0.230668 -0.405575 -0.210657 -0.520732 0.223640 0.379692 -0.284628 -0.244346 0.092420 0.193143 -0.490581 -0.453885 -0.480566 -0.319508 0.011048 0.148308 -0.281184 0.040313 -0.321751 -0.371951 0.343158 -0.246065 -0.156749 -0.378230 -0.245906 -0.069015 -0.501299 0.431480 -0.374049 0.216250 0.214580 -0.320293 -0.480876 -0.067723 -0.013893 -0.172483 0.369163 -0.495373 0.313830 -0.219520 -0.110032 -0.017777 -0.053551 -0.465182 0.211694 -0.167639 0.070965 -0.219913 0.473349 -0.375418 -0.110276 -0.504945 0.013002 -0.198168 0.386149 -0.225399 0.007980 -0.190546 0.038987 -0.498400 -0.132557 0.214665 0.015432 0.219041 0.305787 0.134868 0.062572 -0.018990 0.426283 -0.118865 0.248389 -0.376108 0.137253 -0.164970 0.387440 0.310206 -0.148599 0.153961 -0.395970 0.381219 -0.073679 0.068049 0.302913 -0.027743 0.375588 -0.400093 0.283170 0.261195 -0.335544 0.435460 -0.228916 -0.406341 -0.264462 -0.051778 0.200846 0.147326 0.391557 -0.092180 -0.112001 0.074501 0.042761 -0.373866 -0.343209 -0.300304 -0.063939 -0.317865 0.061261 -0.108797 -0.368880 -0.090298 -0.127866 0.042676 0.190976 -0.368445 -0.408319 -0.466569 0.345060 -0.426209 -0.080256 0.025106 -0.294741 0.096028 -0.320612 -0.173017 0.241690 0.318048 0.424516 -0.467374 -0.365096 0.078705 0.246671 -0.238905 0.451839 0.019882 -0.004668 0.296536 0.279005 0.460626 0.223859 0.075056 0.286569 0.168255 0.483779 -0.434249 0.222961 0.209548 0.291495 0.053252 -0.220436 0.343774 -0.223938 0.231276 -0.062077 0.354873 -0.349838 0.270556 0.294383 -0.236004 0.123886 0.095992 -0.411108 -0.389712 0.189175 -0.385929 0.409554 -0.338886 0.243588 -0.228575 -0.277466 -0.449351 -0.360984 -0.080457 0.105337 0.337719 -0.492771 -0.272301 -0.040283 0.154108 -0.493265 -0.214437 -0.381289 -0.240809 -0.104496 -0.153920 0.216596 -0.302288 0.388284 -0.284307 -0.161480 -0.102734 0.435411 -0.405259 0.372124 -0.451982 -0.361543 -0.427047 0.321331 0.305812 -0.257853 0.209144 -0.272778 0.171946 0.342882 0.181483 0.188070 0.059166 0.498614 -0.313088 -0.433017 0.201830 0.039482 0.045769 0.275813 -0.481900 0.070908 0.436503 0.200621 -0.012760 0.422344 0.469001 0.371314 0.085678 -0.387856 0.269750 0.453398 0.099493 0.167983 -0.095576 0.076399 -0.161336 0.344959 0.232223 -0.098329 0.411610 0.390346 -0.474067 -0.406518 -0.358297 0.270985 -0.380022 0.022879 0.238796 0.427694 -0.393849 -0.373120 -0.415919 0.308420 0.102344 0.174284 0.279252 0.367817 0.296102 0.074853 0.253411 0.135048 0.097522 0.149153 -0.393095 0.067734 -0.170800 0.490559 -0.008735 0.482255 -0.190396 0.084850 -0.346720 0.250642 0.479098 0.255039 -0.131038 0.258850 -0.242792 -0.226387 0.078511 0.385272 -0.402557 -0.120635 0.256329 0.092230 -0.113769 0.400296 0.098216 0.247213 0.146721 0.203643 -0.349525 0.125386 0.058034 -0.222942 -0.292513 0.162496 -0.351955 0.058236 -0.113359 -0.243296 0.173035 -0.197299 -0.250045 -0.348159 -0.201529 0.167219 0.197519 -0.428949 0.175206 0.011111 0.131376 -0.494392 -0.211775 0.392456 -0.230406 0.056957 0.008092 -0.278160 -0.387151 -0.274214 -0.427825 0.303781 0.477437 0.337075 -0.364481 0.396321 0.138873 0.195581 0.096408 0.187262 0.320286 -0.088592 0.247323 0.186121 -0.075803 0.221653 -0.432157 -0.273387 0.422940 -0.151478 0.377292 0.404572 -0.226509 0.427544 -0.015293 0.348686 0.387436 0.325653 0.371504 -0.427972 0.142193 0.459524 0.376659 -0.407672 0.317677 0.320827 -0.210316 0.248125 -0.372347 -0.143154 -0.155458 0.189478 -0.243541 0.077139 -0.132592 0.043307 -0.463837 -0.481333 0.378095 0.180789 0.233407 0.026516 -0.363758 0.488869 -0.316832 -0.132987 0.015765 0.288143 -0.140479 -0.413537 -0.342423 -0.364670 0.173564 0.313722 0.338520 0.326889 -0.085358 -0.229092 -0.078704 -0.437702 0.007870 -0.439209 -0.328058 0.414946 0.149114 0.131661 0.323654 -0.283120 0.246893 -0.257546 -0.208466 -0.306358 0.419397 -0.041065 -0.243393 -0.403275 0.101554 -0.453269 -0.429643 0.332039 0.207507 -0.093869 -0.237639 -0.004536 -0.279784 0.017408 0.411694 -0.072944 -0.083227 -0.464641 -0.479672 0.060676 -0.455034 -0.093564 0.205467 0.283884 -0.472640 0.166638 0.071585 -0.163939 0.094597 -0.370871 0.022221 -0.166284 -0.093238 -0.276815
0.112305 0.432435 -0.310600 0.179423 0.410639 -0.365388 0.040361 0.187734 -0.312648 0.167514 0.005248 -0.220812 0.363320 0.140488 -0.001471 0.060520 0.360059 -0.178070 -0.274812 0.013136 0.483149 -0.441932 0.445582 -0.417416 -0.202826 0.494797 -0.321679 0.117526 0.192239 0.046596 0.145540 -0.272984 0.389708 -0.322629 -0.398061 -0.182789 -0.340868 -0.470406 0.320053 0.081662 -0.488555 0.446089 0.193329 0.410453 -0.129222 -0.179025 0.449540 -0.020681 -0.016377 -0.445503 -0.042601 -0.474940 0.267796 0.276079 -0.099269 -0.018784 0.113895 -0.227227 -0.147392 -0.090772 -0.310984 -0.163121 -0.355411 0.468672 0.010479 -0.121911 0.004190 -0.156516 -0.156472 -0.323087 0.383901 0.139546 0.119251 -0.159895 -0.140835 0.355855 -0.303166 0.465796 -0.159067 -0.447993 -0.045059 0.388077 0.077480 0.310434 0.078878 0.149842 0.296573 -0.235488 -0.411377 -0.029108 -0.188505 -0.232782 0.236110 0.205450 -0.161067 0.137402 0.260452 -0.146992 -0.414419 -0.346597 -0.006802 -0.230522 -0.196997 0.050037 -0.274060 -0.031741 -0.106343 -0.084368 -0.127643 -0.502574 0.222412 0.425214 -0.120061 0.390847 -0.406327 0.403894 0.101339 -0.246280 -0.370944 -0.507190 0.167367 0.275676 0.188130 -0.140133 0.020730 -0.010543 -0.356567 0.109456 -0.391877 0.282732 -0.467893 -0.054191 0.417217 -0.000359 0.420499 -0.309292 -0.447698 0.194424 0.138589 0.086293 -0.479301 0.069416 0.194300 0.145463 -0.239945 -0.563759 -0.274840 -0.034866 -0.493064 0.324111 -0.395810 0.323499 0.219032 0.229698 -0.304839 -0.035399 0.134669 0.056641 -0.121528 -0.267906 -0.035901 0.039456 0.333809 -0.157935 -0.030315 -0.231089 -0.034851 -0.391523 -0.067805 -0.187203 -0.458080 -0.155399 -0.153530 -0.090784 -0.233992 -0.355066 0.318498 -0.145160 0.216345 0.122120 0.200773 0.206339 -0.482167 -0.218025 0.308739 -0.348325 0.171296 0.328703 -0.022098 0.249051 -0.448216 -0.358679 0.422174 -0.370561 -0.456649 -0.166686 -0.415346 0.119121 -0.354779 0.235721 0.037133 0.118156 -0.288910 -0.481406 -0.204135 -0.009176 0.418694 -0.224586 0.064753 0.124165 0.091044 -0.297177 -0.229515 -0.338810 -0.036863 0.170972 -0.338824 0.348701 -0.277562 0.381364 0.334326 -0.302827 -0.381496 0.322655 0.365511 0.124437 -0.459822 0.361842 0.253977 0.339336 0.234983 -0.194723 -0.370489 0.132890 0.025814 0.359774 -0.200377 -0.389442 -0.026331 0.376874 0.062247 -0.509548 0.339429 -0.266883 -0.104403 -0.362327 -0.539171 0.275026 -0.158947 -0.478010 0.418955 0.403600 -0.186030 0.397586 0.022790 0.211645 0.484627 -0.215894 0.407099 0.013851 0.124046 -0.287642 -0.400948 -0.443173 -0.363041 -0.146972 -0.147783 -0.423940 -0.479481 -0.471404 0.001504 0.033265 0.046821 0.198165 -0.493918 -0.338798 0.022791 -0.251391 0.301135 -0.429948 -0.046993 0.257447 0.192628 0.262852 0.378248 0.421580 -0.470037 0.294433 0.068126 -0.193831 -0.059751 -0.207261 -0.022320 -0.188764 0.289823 -0.406663 -0.322348 0.098428 -0.426554 -0.493610 0.435100 0.276593 -0.126891 -0.439422 -0.009047 -0.420645 0.025998 -0.371508 0.299421 -0.495759 -0.068241 -0.231468 0.233548 0.063976 -0.324488 -0.009970 -0.295773 -0.402423 0.181444 -0.194742 -0.489899 0.432668 0.263082 0.275762 -0.036835 0.185099 -0.367159 0.163604 -0.247173 0.329895 -0.406239 -0.494742 0.288539 0.157212 0.388908 0.123745 0.276055 -0.473688 -0.258363 -0.518461 0.248752 0.276666 -0.078093 -0.547763 0.267730 -0.454214 0.284784 -0.260524 -0.213634 -0.020182 0.177538 0.179308 -0.133964 0.475396 0.162847 -0.408586 -0.008949 -0.083712 0.062867 -0.332983 0.343120 -0.063829 0.312280 -0.049315 -0.561922 0.290739 -0.412106 0.180158 0.405973 0.357398 -0.395264 0.421436 0.168377 0.095589 -0.439182 0.275620 -0.033803 -0.321249 -0.239038 0.436236 0.433701 0.060074 -0.253085 0.379155 0.349812 -0.158903 -0.370708 0.271794 0.112948 -0.533802 0.080332 -0.216754 0.097306 0.144458 -0.268746 -0.281796 -0.496933 0.257597 -0.126292 -0.186024 0.415943 0.384779 0.143566 -0.037994 -0.183840 -0.549961 0.401784 -0.078599 -0.541863 -0.182513 -0.146734 0.332694 0.050468 -0.471150 -0.063773 0.434381 0.109195 0.181344 -0.317127 -0.360381 0.129917 0.000337 0.159189 -0.101962 -0.174236 0.367020 -0.335159 0.080909 -0.381626 -0.431786 0.142023 0.032367 0.424434 0.067021 0.334503 -0.078062 -0.365695 0.234569 -0.357444 -0.159477 -0.400290 0.352339 0.064861 0.274973 -0.078223 -0.311749 0.459788 0.056696 -0.352588 -0.411711 0.463346 -0.241084 0.167796 -0.014548 -0.362050 -0.508845 -0.277518 0.096003 0.391621 0.395119 0.343301 0.097120 0.089669 0.105242 0.116754 0.010472 -0.474399 0.052508 -0.331034 -0.189002 0.159083 0.444311 -0.325647 -0.385963 -0.192348 0.335739 -0.097437 0.433415 -0.342193 0.225660 0.383366 -0.013801 -0.084750 -0.311604 -0.502397 -0.326865 -0.163574 -0.451712 -0.245637 0.208381 0.414691 0.105223 0.040169 0.073894 0.321719 0.147956 -0.377543 -0.411037 0.415793 -0.444346 -0.124872 -0.144194 0.305377 0.358279 -0.422128 -0.282852 -0.403640 0.041061 -0.519772 -0.121784 -0.324568 -0.223637 0.026416 0.254817 -0.179809 -0.353219 -0.026175 -0.074841 -0.264719 0.336496 -0.036599 0.238002 -0.506074 -0.301200 0.114476 -0.243535 0.402653 -0.560445 -0.085330 0.159501 0.029320 -0.102198 0.400094 0.091221 0.400733 -0.512726 -0.348625 0.298376 0.106394 -0.257596 0.194908 0.186380 0.213945 -0.494506 -0.194473 -0.221374 0.014895 0.321862 -0.468630 0.146930 -0.122130 -0.042558 0.404668 0.398886 0.277323 -0.043454 -0.035500 -0.053482 -0.209396 -0.355780 0.390541 -0.393511 0.376392 -0.379479 0.251572 -0.482320 0.170285 0.138693 0.008826 0.079148 -0.081500 -0.121373 0.398482 -0.295434 0.205457 -0.022028 0.193680 -0.292556 -0.009733 0.104650 0.409442 0.110691 -0.012858 0.120910 -0.364240 -0.408000 -0.106226 0.141752 0.028732 -0.567274 -0.285587 0.249358 -0.135636 0.406889 -0.312942 -0.030355 0.177420 0.222426 -0.027908 0.327451 0.381577 0.055554 -0.185849 -0.109231 0.288183 0.416486 0.311924 -0.422188 0.014812 -0.441844 -0.294291 -0.289995 0.413468 0.426385 -0.351355 0.035122 -0.072577 -0.107971 -0.557906 -0.540946 -0.249034 0.281532 0.175875 0.147084 0.316603 0.127316 -0.120849 -0.034517 -0.468584 -0.427250 0.415309 0.078688 0.009229 0.187136 0.038617 0.047225 -0.325116 0.010172 -0.170516 0.071319 -0.174596 -0.150142 -0.237169 0.150147 -0.286671 -0.517361 0.283960 -0.337809 0.113993 -0.525940 -0.443337 0.395154 0.007245 -0.258160 0.180983 0.113185 -0.457305 0.413229 -0.489191 0.132511 0.304655 -0.427921 -0.311950 -0.234102 0.035132 -0.245605 0.456281 0.225709 -0.383522 -0.152088 0.374202 0.482243 -0.462209 -0.340041 0.254078 -0.359984 -0.250367 0.080584 -0.197006 0.191858 0.333371 -0.311758 0.247717 -0.040525 0.348212 -0.210962 -0.461220 -0.002212 -0.497527 -0.303586 -0.165745 -0.296465 0.092179 -0.076175 -0.375033 -0.516445 -0.358314 0.268151 -0.387534 0.354954 0.061738 -0.138662 -0.252956 -0.275064 0.386694 0.081223 -0.101941 0.276736 -0.305442 0.414257 0.175081 0.201924 0.343789 -0.192895 -0.092826 -0.277548 -0.074721 -0.459541 0.103487 0.153967 0.251255 0.082947 -0.473346 -0.039589 -0.072710 -0.129396 -0.342864 0.308738 -0.144900 0.278836 -0.091147 -0.286173 -0.306959 0.414323 -0.108297 -0.036495 -0.296174 -0.442900 0.175255 0.035280 -0.177064 0.286136 0.418136 0.010963 -0.194636 0.227879 0.352097 -0.556287 0.374835 -0.261761 -0.120945 0.237124 0.005803 -0.260400 -0.309133 -0.501281 -0.268285 0.255011 -0.424039 -0.003053 0.140595 -0.195604 -0.288457 0.085445 0.424800 -0.053782 0.066050 0.483896 0.111757 -0.410078 -0.423444 0.421220 -0.105623 -0.433551 -0.107378 -0.497808 0.010498 0.393595 0.104691 0.286333 -0.312674 -0.221500 0.402111 0.049969 -0.355040 0.139286 0.114369 -0.375805 0.087290 -0.344121 -0.118678 0.131396 0.262733 -0.176565 0.290078 0.294317 0.369308 -0.091538 -0.345901 0.255823 0.348262 -0.331013 -0.344359 0.141666 -0.127504 0.253031 -0.024052 0.248511 -0.109573 -0.102449 -0.437568 -0.279767 -0.387038 -0.514444 -0.229230 -0.211177 -0.069596 -0.068162 -0.081935 -0.416370 -0.019085 0.309596 0.403917 -0.512475 -0.086566 0.352211 -0.437182 0.003002 -0.128191 -0.098165 0.334705 0.313459 0.132173 -0.176545 0.238932 0.007334 -0.526354 -0.276931 0.160127 0.010897 0.375647 0.401399 -0.330533 -0.300874 -0.393827 0.025421 -0.512475 -0.368608 -0.369205 0.222364 0.212540 -0.255731 0.331556 0.107612 -0.249774 0.238627 -0.494097 0.342815 0.056605 -0.346841 0.154952 -0.296107 0.435750 0.388391 0.135034 -0.100483 -0.282785 -0.129463 -0.197986 0.433851 -0.309987 -0.502134 -0.007849 -0.350030 0.126728 -0.023346 -0.281808 -0.243629 -0.108503 0.322993 -0.357567 0.157461 0.104339 0.245574 -0.318375 -0.330700 -0.197601 0.230629 0.299632 0.121075 -0.161565 0.276518 -0.349851 -0.415150 0.339166 -0.206696 0.402408 0.141643 -0.109865 -0.474127 -0.067514 -0.186459 0.108474 0.314339 -0.357975 0.384670 0.191217 -0.539352 0.220003 0.008211 -0.126475 0.110999 0.110009 -0.068639 -0.471040 -0.243962 -0.123617 0.329069 0.427149 -0.510773 0.293197 -0.185381 -0.130856 -0.452218 0.404739 0.376946 -0.397558 0.491043 -0.387170 -0.063170 -0.017552 -0.045324 0.125380 -0.012423 -0.111008 0.161882 0.316659 -0.142898 0.334380 -0.539833 0.038225 -0.391910 0.045261 -0.110029 0.023915 0.210314 -0.034101 0.268763 -0.452621 0.462695 0.292694 -0.472504 -0.501980 0.079952 -0.037827 -0.331249 -0.039998 -0.211222 0.368278 0.476473 0.184103 0.256991 -0.308606 0.444087 -0.396498 0.158817 0.471009 0.128608 0.458549 0.307968 -0.428334 0.434900 0.232428 0.306363 -0.326008 -0.169624 -0.066241 0.366652 -0.294020 0.121868 -0.310322 -0.267082 -0.005286 -0.362489 -0.249585 -0.288754 0.341033 -0.228081 -0.435223 -0.041780 0.256566 -0.487135 -0.453518 0.366165 0.129127 0.042195 -0.253674 0.196535 -0.279211 0.488744 0.279332 -0.482801 0.209288 0.032323 0.087134 0.262556 -0.112840 -0.078956 0.230688 -0.117881 0.087377 0.306276 0.325975 0.389052 0.013498 0.002563 0.049840 -0.037941 -0.105922 0.113042 -0.193586 0.194525 0.252005 0.466966 -0.064552
-0.159576 0.413002 0.155776 -0.343438 0.489840 -0.361182 -0.113764 0.147043 -0.470298 0.225830 -0.425724 0.432635 -0.149597 -0.276083 0.266275 0.049247 0.124896 -0.080344 -0.479476 -0.480391 0.366349 0.217515 0.203412 -0.397012 -0.336787 0.275767 -0.316048 0.081941 0.401918 0.260190 0.042857 0.225099 0.092355 -0.157098 -0.061504 -0.035624 0.359976 0.465398 -0.109865 0.115203 -0.359853 0.138965 -0.375832 0.224407 0.262404 -0.453237 0.264178 -0.128618 0.112330 -0.366559 -0.062853 -0.322456 0.408277 -0.327281 0.437249 0.281603 -0.378084 0.258629 -0.035648 -0.442212 0.339937 -0.248709 0.112134 0.354773 -0.076462 0.303205 0.481906 0.364155 0.007089 -0.168732 -0.446467 0.037297 -0.194307 0.402186 0.193349 0.072865 0.390883 -0.265305 0.342247 0.279794 -0.200008 -0.284313 -0.008268 -0.302570 -0.225941 -0.319753 -0.174302 0.292041 0.302145 0.054077 0.421714 -0.212198 -0.486787 -0.384917 0.012852 0.406937 -0.276654 -0.315144 -0.186241 -0.479360 0.270822 0.158525 0.447639 0.106763 -0.190231 -0.342402 0.210496 -0.270627 0.035960 -0.144128 -0.288490 0.187622 -0.321180 -0.075753 -0.132284 0.351903 -0.390327 -0.538322 -0.474401 0.016415 -0.324986 -0.282213 -0.366350 -0.215846 -0.153242 -0.442313 -0.120669 0.063024 0.091906 0.307157 -0.392699 -0.061190 -0.478743 -0.377738 -0.527374 0.349472 0.288669 -0.004905 0.306601 -0.133532 -0.374815 0.062183 0.369913 0.155701 0.088364 0.165468 -0.069681 0.044094 0.023299 -0.459650 0.278552 0.314412 0.056958 -0.547185 -0.006514 0.155865 -0.410147 0.383899 0.290884 -0.072931 -0.418824 0.001670 -0.342411 0.362089 0.433409 -0.530506 0.138847 -0.005190 -0.193188 -0.532169 -0.563589 -0.328123 -0.314317 0.143995 0.203157 -0.440133 -0.297371 0.224855 -0.245724 -0.110066 -0.182886 -0.386345 0.368227 0.075584 -0.454685 -0.021009 0.171352 0.345555 -0.205843 -0.470369 -0.180262 0.435984 0.359831 0.479499 0.358081 -0.504610 -0.282730 0.185486 0.302655 0.434925 0.262404 0.095763 -0.049855 -0.302030 -0.321419 0.375977 -0.087942 -0.054598 0.070689 -0.470210 -0.053871 0.279781 -0.000939 0.233241 0.055335 -0.500303 0.160716 0.261507 -0.494929 -0.472224 -0.302798 0.349262 0.170613 0.129826 0.052277 0.085601 0.441049 0.363267 0.011685 0.126520 -0.028102 -0.313740 -0.025928 -0.551166 -0.182084 -0.252086 -0.481332 0.368300 -0.284025 -0.500779 -0.380565 -0.467495 -0.361450 -0.495233 0.227136 0.225816 -0.487383 0.359635 0.249367 -0.094858 0.266298 0.168995 -0.171123 -0.406728 0.251567 -0.026157 -0.090818 0.400700 0.273516 -0.019424 -0.016409 0.356381 0.310325 -0.239375 0.439982 -0.430057 0.217937 0.197843 -0.239477 0.412560 0.075554 -0.462957 -0.290124 -0.280765 0.079032 0.056839 -0.091323 -0.286874 -0.146360 -0.115628 -0.110524 0.397624 0.335659 -0.388700 -0.219828 0.373888 0.264882 0.282557 -0.431280 -0.116456 -0.149265 0.310864 -0.216974 -0.271051 -0.058711 -0.138622 -0.384750 -0.514468 0.235192 0.401237 0.134404 -0.236157 -0.340280 -0.351709 -0.143828 0.415926 0.417620 0.010692 0.064051 0.012908 0.356593 -0.009940 -0.088323 0.203057 -0.250003 -0.281416 0.305384 -0.435342 0.037863 0.439143 0.358409 0.221732 -0.383496 0.307215 -0.270035 -0.177521 -0.243907 0.439451 0.324504 0.232211 0.182835 0.153357 0.292247 0.033415 -0.359593 0.054620 -0.249930 0.324973 -0.019607 0.289391 -0.030707 -0.139301 -0.057050 0.051252 0.041908 0.204193 0.428273 0.154516 -0.245894 0.079569 -0.114888 0.247774 -0.425676 0.048629 0.406609 -0.459813 -0.345264 0.348495 0.293096 0.349967 -0.540091 0.082817 -0.456243 0.324128 -0.085223 -0.486002 -0.151867 0.107183 -0.464143 -0.142418 0.065450 -0.076519 -0.393794 0.012494 -0.500838 -0.354441 -0.185684 0.138011 0.220308 0.292418 -0.299548 -0.304107 -0.307484 0.160772 0.078092 0.448018 -0.038308 -0.310732 0.079451 0.226901 -0.188127 -0.298032 -0.312594 -0.408713 -0.055345 0.133355 0.257643 0.177507 -0.163128 -0.458836 0.069333 0.285683 -0.312909 -0.269396 0.158851 -0.519056 0.195872 0.391255 0.124288 -0.004829 -0.447953 -0.466462 0.339264 -0.480193 -0.060380 0.218156 0.047567 0.097197 -0.079335 -0.413025 -0.350128 -0.330135 -0.108155 -0.274294 0.107163 0.122582 -0.545430 -0.261226 0.157963 0.289448 -0.287244 -0.071308 0.122303 0.237950 0.130807 -0.095790 0.407997 0.030856 0.255016 0.405616 -0.354285 -0.492148 -0.058046 -0.429428 0.183368 -0.176339 -0.412773 -0.086090 0.072318 -0.313129 0.256695 0.163474 0.355905 0.323991 0.252328 -0.325924 0.053030 -0.012269 0.414588 0.123518 0.412269 0.283367 -0.240325 -0.507523 0.434393 0.299169 -0.421700 -0.302530 -0.535264 -0.080837 -0.101106 -0.234489 -0.126813 -0.381473 -0.423261 0.152175 0.084641 0.187468 0.033330 0.082291 0.199180 -0.144716 0.394591 0.232555 -0.489516 0.258816 -0.333631 -0.303437 -0.346886 -0.291123 0.149767 0.342112 -0.431876 0.277182 0.176302 0.055610 0.018551 -0.386744 0.087553 -0.426951 0.087396 -0.397847 0.422581 0.219293 0.202252 -0.184572 0.019609 -0.166307 0.156270 0.166670 -0.098232 0.453474 0.497015 -0.434029 -0.181008 0.151387 0.207009 -0.226988 0.129088 -0.009312 0.427950 0.226355 0.155098 0.365391 -0.400430 -0.524184 0.045765 -0.533743 -0.244038 0.160303 -0.029940 0.379342 0.218994 -0.107844 -0.161137 0.297797 -0.524741 -0.213028 0.250713 0.351101 0.145832 0.084960 -0.117452 0.341025 -0.312135 0.394881 0.356178 0.228486 0.208435 -0.302984 -0.018173 -0.317922 0.394183 -0.248419 -0.565550 0.261971 0.401880 0.349542 -0.135355 -0.339904 -0.001493 -0.523855 0.331257 0.401226 -0.189860 0.323352 0.209298 -0.319690 -0.263257 0.083917 0.140727 -0.350953 0.352460 0.130899 0.463412 0.245579 0.186105 0.398147 0.388024 0.081193 -0.409009 -0.165804 0.041350 -0.393366 0.248760 0.283246 -0.420352 0.368010 0.248359 -0.017844 0.366441 0.142099 -0.249963 -0.390093 -0.462352 -0.234788 0.165855 -0.221630 0.026003 0.005826 -0.496632 0.295391 -0.286742 0.075398 0.345037 0.047842 -0.404651 0.005198 0.495711 0.238179 -0.490665 -0.290121 -0.031684 0.398582 0.432621 0.168881 -0.360482 -0.253147 0.135087 0.012832 -0.292732 -0.129803 0.293106 0.121499 0.318457 0.341271 0.244269 0.190195 0.421879 -0.175643 0.439147 0.030820 -0.142215 -0.382346 -0.366610 -0.432048 -0.438032 -0.067833 0.270380 -0.200139 0.336496 -0.211657 0.301155 0.347342 -0.294121 -0.160275 -0.534934 0.040340 0.326507 0.009006 0.241271 -0.482565 -0.161358 0.149858 -0.465306 -0.105469 -0.269651 0.265636 -0.502742 -0.109183 -0.050861 -0.298960 0.214077 0.141364 -0.411125 -0.096833 0.415999 -0.205649 -0.317675 0.291940 -0.002525 0.386318 -0.046279 0.049479 0.187641 -0.473431 -0.473508 -0.006856 -0.180860 -0.128576 -0.264267 -0.481267 -0.396132 0.294378 -0.433726 -0.305448 -0.529846 0.266732 -0.439295 -0.517737 -0.240909 -0.115305 -0.497083 0.440547 0.138476 -0.281769 0.000930 -0.080999 0.043638 -0.150386 -0.093907 0.062466 -0.447506 -0.324365 -0.034536 -0.104869 0.401839 0.061191 -0.230785 0.041671 -0.344806 0.140581 -0.316585 -0.237674 -0.120377 -0.238116 0.257315 0.345776 0.155654 0.421507 0.395315 0.434742 -0.287450 -0.343882 0.373566 0.107214 -0.470524 -0.119596 0.470310 0.470036 0.471651 0.409380 0.275042 -0.148018 0.107484 0.032859 0.382360 -0.022083 -0.047735 0.039509 -0.487194 -0.456248 -0.392102 0.028365 0.229222 -0.200376 -0.289177 -0.279019 -0.485579 -0.491123 -0.228066 -0.433009 -0.427338 -0.466801 -0.480000 0.431943 0.205855 0.161643 -0.045720 -0.510806 -0.188319 0.261254 0.112489 -0.257601 -0.001073 0.174217 -0.176724 -0.253246 -0.159847 0.445454 -0.315503 0.131380 0.295778 -0.096131 0.024426 0.083027 0.137557 0.135457 -0.032245 -0.161623 0.154992 -0.094972 0.060480 0.049918 -0.125933 -0.126958 0.277436 -0.037690 0.208047 0.005146 -0.274409 -0.511902 -0.260325 -0.417075 0.461204 0.118430 0.022237 -0.245774 0.373933 -0.320008 0.200681 0.451969 0.259642 -0.129696 0.309805 -0.221930 0.363414 0.298867 -0.037415 -0.142067 0.127100 -0.260014 0.238009 -0.177127 -0.285287 0.034941 -0.111067 -0.232942 -0.397726 0.173312 -0.226352 0.189115 -0.516560 -0.306060 -0.393884 0.442949 -0.288039 0.405910 0.048003 0.464078 -0.181856 0.158355 -0.326666 0.448666 -0.134309 0.268827 -0.293192 0.083822 -0.037645 -0.234018 -0.469208 -0.542065 -0.248804 -0.129782 0.383502 -0.340571 -0.321364 0.051794 -0.009926 -0.400288 0.413405 -0.339996 0.068589 -0.280369 -0.345806 -0.354854 0.446593 0.204318 -0.495521 0.174837 -0.014024 -0.251191 0.205629 -0.059682 -0.043143 0.241227 0.132426 -0.048363 -0.329070 0.442233 -0.050397 -0.092082 0.075092 0.326215 -0.030735 0.020586 0.319036 -0.183753 0.374852 0.380276 -0.084341 0.279343 0.254439 0.425260 -0.220101 0.129960 -0.345194 0.117685 -0.087210 0.430101 -0.131576 0.404944 -0.517663 0.477912 -0.330704 -0.049369 -0.177823 0.475696 -0.309316 0.197317 -0.476969 -0.407788 -0.121870 -0.240535 -0.103307 0.084396 -0.477961 0.209345 0.322049 -0.143524 0.272934 -0.449675 -0.175929 0.082415 -0.282849 0.242251 -0.166330 -0.023085 0.249824 -0.422728 0.031266 0.183367 -0.362179 -0.241334 -0.209093 0.481949 0.465951 0.042162 -0.364266 0.243735 -0.050305 0.119693 0.052380 -0.316277 -0.041901 -0.310062 0.131652 0.358260 -0.045481 0.138368 -0.357010 0.106386 -0.476455 0.067828 0.375688 0.012003 0.354670 -0.410810 -0.360034 -0.243733 -0.049536 -0.403287 -0.194834 0.419082 0.044362 -0.040897 -0.115178 -0.054834 -0.387728 0.447361 0.483059 0.360879 0.484695 0.129677 -0.298734 -0.338937 -0.331874 -0.350395 -0.343852 0.308858 -0.074064 -0.365151 0.236827 0.257366 0.195846 -0.079146 -0.061567 0.270837 0.162629 0.486617 0.458928 0.419088 0.229965 0.064328 -0.336258 -0.205096 0.358559 0.413639 -0.249344 0.228169 0.090819 0.211457 0.067013 -0.456873 -0.392605 -0.460364 0.223634 -0.127983 0.402890 -0.051798 0.401832 -0.268908 0.112766 -0.014123 -0.109900 0.130457 0.430417 -0.097430 -0.015492 -0.030189 0.352764 0.272048 0.034678 -0.425421 0.291871 0.259139 -0.234778 0.161959 0.232207 -0.272338 -0.053702 -0.097185 0.327845 -0.449671 -0.139320
0.034577 0.006420 -0.170113 -0.000735 0.049022 0.378311 -0.416812 -0.249221 -0.111805 0.070285 0.368733 -0.424945 0.425002 0.391007 -0.113111 -0.274146 -0.313013 0.284900 -0.016385 0.056650 -0.490324 0.356072 -0.310798 0.472657 0.469991 -0.419073 -0.371663 0.471277 0.249641 -0.130045 -0.237332 -0.362836 -0.239164 0.016274 0.231664 0.333346 0.071980 0.379804 -0.454136 -0.378168 -0.012700 -0.224320 -0.232910 -0.309813 0.330255 0.022349 -0.363310 -0.476889 -0.137017 0.391067 -0.028423 0.015833 -0.049198 -0.042966 -0.473864 -0.157739 -0.437689 -0.342739 0.287795 -0.034158 -0.102074 0.040445 0.139424 -0.184948 0.412597 0.354944 -0.105476 0.480408 0.150029 0.116858 -0.456151 0.225905 0.342677 -0.303751 -0.020615 -0.443945 0.400222 0.282965 -0.394038 0.096565 0.473074 0.054770 0.297133 -0.269235 -0.193251 0.498664 0.235933 -0.020068 -0.284563 -0.059801 0.272881 0.400464 0.369872 0.097350 0.404894 -0.039008 -0.041291 0.324618 0.470769 -0.066728 -0.198510 0.282699 -0.372907 0.289170 0.315761 0.066194 0.343801 -0.001213 -0.348653 -0.125633 -0.143457 0.283063 0.009233 0.126640 -0.416692 0.240636 0.136118 -0.158364 -0.082444 0.138419 0.479912 -0.158613 -0.394654 -0.188262 0.380547 -0.077146 0.476797 -0.273330 0.369397 -0.304654 -0.212360 0.303688 -0.352559 -0.077478 -0.132632 0.377191 0.087182 -0.455494 -0.466158 0.186466 0.161149 -0.002151 0.072602 0.442175 -0.328368 -0.448376 0.251577 -0.325603 -0.118023 -0.177092 -0.297497 0.344404 -0.371388 0.013316 0.066407 -0.375018 0.417086 -0.032163 -0.047360 0.456087 -0.248512 0.099586 -0.460301 0.201121 -0.344972 0.499980 -0.190743 -0.296163 -0.012271 -0.256568 -0.277179 0.279527 -0.007188 -0.336592 -0.291826 -0.327112 -0.391312 0.044341 0.148389 -0.026764 -0.022517 0.240521 -0.150884 0.383441 0.232405 0.092717 0.278684 0.424294 0.074083 0.298277 0.372948 -0.065326 -0.155601 0.480608 -0.488468 0.137454 -0.486678 -0.326575 0.441596 0.390126 0.092036 0.164751 -0.085887 -0.456347 -0.292369 0.038723 0.321599 -0.244919 0.258522 0.411196 -0.157933 0.398186 -0.044891 0.022756 0.183885 0.078715 -0.294671 -0.101940 -0.248029 0.004522 0.059070 0.337529 0.521530 0.036064 0.309534 0.012028 -0.190901 -0.453999 0.337368 -0.146670 0.030564 -0.199344 0.074666 -0.429326 -0.000993 0.417309 -0.055561 -0.264573 -0.290028 0.122284 -0.268993 0.285222 0.254326 0.335990 -0.317293 0.156649 0.360978 0.343093 0.218181 -0.267333 -0.008089 0.155548 -0.374778 -0.143125 0.185707 0.392468 -0.324804 -0.066849 -0.133652 -0.047990 0.108239 0.400109 -0.354430 -0.414640 -0.187550 -0.054980 -0.043174 -0.357228 0.008613 0.485924 -0.196711 0.076928 -0.284318 0.141931 0.361472 0.188504 0.306582 0.196639 0.416584 -0.147113 0.396304 -0.349448 0.121429 0.478199 -0.309043 -0.123885 -0.192432 -0.412381 0.441231 -0.294198 0.498580 0.488683 0.240807 -0.467385 -0.325886 -0.218807 -0.326836 0.063741 -0.159833 0.020803 -0.328514 0.153681 -0.464232 -0.075656 0.000695 -0.296283 -0.282204 -0.098580 0.326682 0.454334 -0.070366 -0.136420 0.434746 0.339456 -0.027218 0.334773 0.434770 0.341062 0.015339 0.498701 0.240458 -0.293778 0.146615 -0.146234 0.011255 0.234088 -0.313941 -0.449999 0.142716 0.215674 0.055700 -0.180991 -0.471316 -0.490013 0.273430 -0.005909 0.340564 0.480031 -0.452107 0.262735 -0.481248 0.373210 -0.216796 0.168408 -0.101284 -0.140580 0.146856 0.218192 -0.242105 -0.406521 0.383030 0.161266 0.205013 0.234612 0.401341 -0.131675 -0.363522 -0.393781 -0.444213 -0.007016 -0.284139 -0.024453 -0.441879 -0.329542 -0.223122 -0.031315 0.406372 0.260530 -0.291866 0.320164 0.396891 -0.281621 0.354490 0.382672 0.072358 -0.039831 -0.078726 -0.360926 0.102504 0.237946 0.263787 0.196200 -0.252234 0.044968 -0.240696 0.441107 0.276204 -0.405919 0.131211 0.408003 -0.290584 -0.125823 -0.125772 0.447311 0.123937 -0.356481 -0.366677 0.042046 -0.192395 -0.059334 -0.170768 0.110267 -0.484529 0.176957 0.347652 -0.349814 0.115844 -0.010963 -0.429866 -0.389846 -0.175341 0.289757 0.204615 0.241562 0.482675 0.279810 -0.039063 0.222693 0.424135 -0.222489 -0.279518 -0.206098 -0.266754 0.172671 0.335549 -0.166048 -0.101825 -0.030417 -0.408628 -0.314040 -0.422336 -0.368674 -0.330288 -0.050151 0.400855 0.357400 -0.076230 -0.233686 -0.097076 -0.178588 -0.422179 -0.223175 0.494438 -0.393617 0.291619 0.004401 0.105171 0.416176 -0.125859 0.475345 -0.050374 -0.139370 -0.013219 -0.360617 0.269092 -0.271321 -0.497596 -0.418388 -0.001486 -0.415009 -0.136694 -0.032489 0.235727 -0.230797 0.222687 0.195586 -0.200029 0.030268 0.066934 -0.112785 -0.115121 -0.101953 0.037148 0.361940 -0.110016 0.120595 -0.411410 0.059137 0.012782 -0.356105 0.380145 0.326652 0.225636 0.253760 0.057136 -0.315981 -0.202472 -0.323518 0.033286 0.325740 -0.198858 0.466726 -0.443313 0.464944 0.225883 -0.060873 -0.235086 -0.377988 -0.232950 0.281862 -0.181613 -0.280009 -0.449272 0.149537 -0.447331 -0.092119 -0.252009 0.287283 -0.014457 0.162466 -0.035204 -0.153121 -0.427961 -0.391496 0.017111 -0.334256 0.073901 -0.086595 0.119857 0.469102 0.492117 -0.028080 -0.301028 0.182603 -0.056478 0.176002 -0.191241 -0.021391 0.149258 -0.085985 -0.280271 0.121050 -0.458897 0.338837 -0.221003 0.136275 -0.344171 0.175517 -0.013020 0.440382 -0.342440 0.114148 0.019807 -0.065074 0.112717 -0.116793 0.469637 0.266258 0.494778 -0.376199 0.114685 0.493080 0.042459 0.288564 0.046218 0.129492 -0.279666 -0.207309 -0.084410 -0.155943 -0.208691 -0.270575 -0.145557 -0.459577 -0.460215 0.136186 0.464546 -0.256129 -0.095426 -0.333518 0.382288 0.344063 -0.314958 0.313599 -0.087121 0.117822 0.022508 -0.010672 -0.048100 0.291842 -0.452241 -0.225114 -0.331043 -0.465912 0.075331 -0.305108 -0.321804 0.064540 -0.355494 -0.364985 0.208312 -0.344508 0.326066 -0.353064 -0.385190 -0.324293 -0.270987 0.003861 -0.141440 -0.104616 -0.318904 0.148283 -0.203918 -0.261788 -0.189365 -0.029703 -0.463493 0.214293 -0.251625 -0.146260 -0.458749 -0.301547 -0.391027 -0.373347 0.174068 -0.417711 -0.459271 0.360076 0.178329 0.384998 -0.242793 0.177007 -0.286326 -0.269429 -0.337525 -0.385401 0.468256 -0.430942 -0.252065 0.369284 -0.183690 0.297755 -0.157516 -0.430779 -0.201561 -0.431493 -0.066228 0.043595 0.382477 -0.411840 0.411058 0.170423 0.068883 -0.147983 0.428923 0.247960 -0.012556 0.496221 -0.126375 -0.031006 0.256190 -0.021648 0.290720 0.261031 0.094087 -0.152498 -0.087031 -0.443356 0.192916 -0.422767 0.283109 0.309860 0.337694 0.187519 -0.444853 -0.198763 0.130403 0.416768 -0.002234 0.098912 -0.169785 -0.397350 -0.107416 -0.239079 0.083149 -0.302565 -0.178707 -0.214355 0.331546 -0.080364 -0.263776 -0.266842 0.430741 -0.324208 -0.185102 0.097260 0.288673 -0.274105 -0.121057 -0.212992 -0.446019 -0.384742 -0.272051 -0.230468 0.277398 0.255730 0.425162 -0.327794 0.457161 -0.154881 -0.007076 0.425343 0.240201 0.424277 0.319477 0.191480 0.393661 0.489259 -0.109986 -0.201225 -0.031622 0.069470 0.373702 -0.027570 0.145460 -0.413334 -0.182377 -0.385274 0.201675 -0.161823 -0.475071 -0.031913 -0.097540 -0.142235 0.411862 -0.412167 0.166531 -0.072784 -0.278588 0.503091 0.375367 -0.020757 0.185171 0.279550 -0.026108 0.400029 -0.087241 0.264489 -0.339297 0.362274 -0.163337 -0.333929 -0.020732 0.327809 -0.175142 0.113743 0.297898 0.370533 -0.166409 -0.390080 0.219830 -0.455019 -0.427077 0.347543 0.431270 0.123672 0.110702 -0.189028 0.399188 0.393438 0.104121 -0.029895 0.266463 -0.281177 -0.411682 -0.329350 0.254610 0.331478 0.311081 -0.024002 -0.435793 0.337450 -0.039828 -0.113295 -0.006207 0.104781 -0.252487 0.462337 0.183765 -0.306932 0.173543 0.495134 -0.265422 -0.104733 0.443393 -0.168050 0.276669 -0.443747 0.358819 0.065210 -0.328836 0.343222 -0.068402 -0.260381 -0.202994 -0.329189 0.386133 -0.442415 0.032722 0.310666 0.495487 0.431090 0.042921 0.308686 0.432064 -0.048247 -0.212044 0.448064 0.347082 -0.336136 0.117069 -0.410494 0.077665 0.209415 0.023785 0.050345 0.318947 0.005110 -0.081161 -0.333652 0.202732 -0.202718 -0.458268 0.187548 0.130910 -0.318175 -0.437269 -0.092023 -0.211421 0.338968 0.402110 -0.464518 -0.405251 0.451603 -0.020744 -0.358059 -0.034055 -0.493625 0.167954 -0.206207 -0.200210 0.008438 0.156743 -0.175418 -0.134422 0.418184 0.336486 -0.200155 -0.012500 -0.199642 0.489299 -0.085282 -0.439486 -0.036491 0.452144 0.015154 -0.146826 -0.023514 0.195575 -0.379331 -0.276968 0.056737 -0.452809 0.256867 -0.027939 0.495263 -0.356905 0.038402 0.125941 -0.316623 0.066844 0.354220 -0.046921 -0.160871 0.074240 0.054885 0.212353 0.456305 0.453700 0.454460 -0.332496 0.454115 -0.288761 -0.436502 -0.403229 -0.128619 -0.001822 0.253886 -0.375129 -0.257282 -0.127912 0.338276 0.468236 0.290573 -0.452670 -0.133456 0.015541 0.321921 -0.463801 -0.176782 -0.001799 0.473188 -0.413903 -0.454085 -0.178291 0.047454 -0.119715 0.424884 -0.229683 0.036938 0.134371 0.123928 -0.090704 -0.431606 0.284397 -0.430941 -0.359255 -0.074901 -0.102696 -0.348775 0.263319 0.176673 0.332546 0.119996 0.204924 0.254285 0.400262 0.213187 -0.184972 0.362665 0.033111 0.189643 -0.174522 -0.017204 0.259843 -0.484620 0.252308 0.492295 -0.106973 -0.180141 0.156107 -0.018877 0.240731 -0.364864 0.157070 -0.180820 0.323039 0.061957 0.392935 -0.218262 0.000907 -0.036735 0.481775 -0.220769 0.055590 -0.450260 -0.021931 -0.037506 0.279575 -0.252242 0.142016 0.032684 0.395530 -0.342129 0.055666 -0.236845 0.214261 -0.023582 0.071533 0.445823 -0.195663 0.281443 -0.089641 0.135357 0.441592 0.357758 0.352166 0.021491 -0.327158 0.343991 -0.481531 -0.397436 -0.167214 0.423174 -0.214828 -0.277723 -0.366268 0.251485 -0.349707 -0.487711 -0.121889 0.142284 -0.079558 0.260089 0.121264 0.213841 0.460258 0.397575 0.123133 -0.458804 0.059919 -0.080005 -0.173049 0.394974 0.281417 -0.347057 -0.203480 0.074586 -0.249393 0.253204 0.434220 0.196535 0.317493 0.413400 0.245781 -0.208186 -0.106029 0.038816 0.495935 -0.492935 -0.123786 0.407667 0.184365 -0.182193 -0.467441
0.496456 0.253739 -0.155183 0.123121 0.209054 0.315726 -0.400083 -0.224515 0.221095 0.438541 -0.015073 -0.139200 -0.050463 -0.117250 -0.325257 0.406370 0.399847 0.019789 0.111875 0.130252 0.465028 0.453220 -0.052560 0.342952 -0.385453 0.003514 0.229613 0.082216 0.244050 0.159706 0.460965 -0.089642 -0.256760 0.023558 -0.244919 -0.363731 0.426075 0.259846 -0.302930 0.045694 -0.065438 -0.313716 -0.110535 0.380510 0.000372 0.466683 -0.170311 -0.335233 0.056274 0.396614 -0.142917 0.256246 0.080248 0.258625 -0.113170 0.407291 -0.303612 -0.323983 0.256210 0.471620 0.044472 -0.271583 -0.359531 -0.209403 0.129219 0.434720 -0.003433 -0.227742 0.113165 0.069410 -0.217467 0.044113 0.270290 -0.119759 0.037802 -0.057797 -0.387849 -0.052084 -0.330142 0.079967 -0.202054 -0.160086 -0.349324 0.422451 -0.362783 -0.439906 0.235310 0.019086 -0.425617 0.179150 0.322623 0.021965 0.241683 -0.043496 -0.331333 0.358467 0.391177 0.200423 -0.497027 -0.130022 -0.022468 -0.043210 -0.176254 -0.322847 0.328704 0.128671 -0.409073 0.496007 0.391439 0.219389 0.144682 -0.346172 -0.411396 -0.314029 -0.216187 -0.372904 0.045088 0.157266 0.014400 0.059710 0.087781 -0.332429 0.186381 -0.423384 0.277764 -0.390688 0.099262 0.218561 -0.226738 -0.335137 -0.118741 -0.144059 -0.358117 0.515996 0.235491 -0.256922 -0.020225 0.194087 0.378454 -0.052441 0.261130 -0.043496 -0.359186 -0.132297 0.368785 0.383565 -0.137400 -0.181159 0.031530 0.205495 0.176552 0.061957 0.439983 -0.134361 -0.188509 0.031235 0.191635 -0.363604 -0.309816 0.162120 -0.058992 -0.193219 0.068036 0.348560 0.488775 0.218160 0.027518 -0.000701 0.079549 0.080871 0.456551 -0.254573 0.222529 -0.088222 -0.194963 0.140781 -0.090285 0.507551 0.196455 -0.147535 -0.136527 0.004904 0.364227 0.514740 0.538170 0.336245 -0.403799 -0.212975 0.206852 0.389095 -0.069804 0.024062 -0.338801 -0.079857 0.440083 -0.265486 0.435084 -0.377413 -0.251707 0.365688 0.386707 -0.311851 0.033245 -0.248058 0.452572 -0.362566 0.538082 -0.239945 -0.114610 0.431546 -0.235551 0.363844 0.496144 0.199090 -0.174940 -0.038623 -0.047187 -0.243810 0.311230 0.093334 -0.239435 -0.223083 0.441614 -0.162693 0.229437 -0.130505 0.491994 0.438568 0.138741 -0.068049 0.162555 -0.140342 -0.456529 -0.390227 0.213669 0.284036 0.520054 0.378323 0.339536 0.488924 -0.137779 0.156460 0.419743 -0.319314 -0.125564 -0.310965 -0.083230 0.079889 0.538075 0.492332 0.493892 0.249822 0.381842 0.510149 -0.052557 0.309477 -0.479434 -0.303772 0.005951 -0.085071 0.038410 -0.040013 0.235375 0.235534 0.438697 0.073328 -0.074767 -0.433294 0.355424 -0.018245 -0.075976 0.396401 0.408108 0.387656 -0.437541 -0.192025 -0.066984 -0.194264 0.133134 -0.444126 -0.161384 0.252514 -0.215006 0.126758 -0.463482 -0.411589 -0.259489 0.389555 -0.200664 0.248728 0.417088 -0.215514 -0.434047 0.457346 -0.152710 -0.168395 0.274296 0.276911 -0.321614 0.442070 0.470009 -0.407625 -0.336504 0.406390 -0.395411 -0.036671 0.414944 0.321272 -0.093104 -0.038423 0.117367 -0.061109 -0.053774 -0.048897 -0.172245 -0.448225 -0.241714 -0.129001 0.481934 -0.347939 0.172232 0.154551 -0.114040 0.055936 -0.076648 -0.333235 0.447380 0.264769 0.435261 -0.286004 -0.109198 0.393863 0.064906 0.012926 -0.419165 0.425305 -0.085461 0.211988 0.283510 0.208619 0.117866 -0.374694 -0.344324 -0.242053 -0.371110 0.426816 -0.162433 0.428150 0.356876 -0.102470 0.049788 -0.217011 -0.319599 -0.108364 0.107188 -0.159951 0.334150 -0.106597 0.154020 -0.402196 0.009859 -0.440904 0.511616 0.212385 -0.252968 0.470865 -0.168972 0.449922 -0.373536 0.265474 0.422957 0.453325 -0.130942 -0.147841 -0.390300 -0.255926 0.155451 0.421198 -0.070061 0.243512 0.230192 0.453781 0.446298 -0.175721 -0.464968 0.091345 -0.128720 -0.203659 0.273863 0.165839 0.382828 0.523800 0.015477 -0.267434 -0.187098 -0.303992 0.351921 0.214027 -0.243490 -0.435980 -0.075263 0.373588 0.337937 0.142779 0.438479 0.381231 0.064498 -0.465238 0.141643 -0.317716 0.111541 0.294671 -0.034030 -0.334314 -0.026372 -0.165776 -0.119688 -0.278462 -0.060951 0.091179 0.116824 -0.353049 -0.453802 0.223171 0.281095 -0.001399 -0.420278 0.509681 0.224131 0.244703 0.054873 0.435500 0.324319 0.436805 0.066482 0.354271 -0.359316 0.317573 0.072973 0.406729 -0.284110 -0.185669 0.126306 -0.101671 -0.102693 -0.433325 0.021806 -0.148665 -0.444687 -0.179923 0.063770 0.014096 0.339973 0.282720 -0.166075 0.357572 -0.384708 -0.334336 0.000570 -0.427478 -0.214483 0.382205 -0.016593 0.287758 -0.316325 -0.373518 -0.287275 0.291460 -0.054921 0.034102 -0.419329 0.470924 -0.335745 0.105111 0.323878 -0.332735 -0.182755 0.176877 -0.378439 0.494979 0.329344 -0.076042 0.113635 -0.035422 0.191180 -0.252744 -0.274947 -0.359706 0.149333 -0.163336 -0.127956 -0.179358 -0.303381 0.219786 -0.158130 0.024909 -0.377523 -0.031878 -0.380787 -0.407779 0.023093 0.266312 0.324207 -0.376092 0.432906 -0.401680 -0.332149 -0.193590 -0.395365 0.060612 -0.109255 -0.085763 0.319543 -0.269049 -0.251148 -0.381798 -0.414219 0.427401 -0.338731 -0.072388 0.148154 0.262813 -0.309675 -0.364422 0.399220 -0.229805 -0.309049 0.238399 0.519897 -0.346359 -0.210961 0.465827 0.130675 0.085439 -0.040928 -0.369653 -0.117786 0.448435 -0.272804 0.424023 0.330520 -0.483343 0.220510 0.178623 -0.454385 0.407418 -0.273220 0.141380 -0.359182 -0.372134 0.275545 0.078816 -0.058597 0.175075 -0.272589 -0.385121 0.355588 -0.137704 0.460453 -0.311616 -0.459236 -0.085179 0.385014 -0.163360 0.464554 -0.294527 0.499044 -0.315447 0.224128 0.308921 0.480072 0.387301 -0.418102 -0.436712 -0.059213 0.289385 0.008229 0.086884 0.446070 0.032854 0.165890 0.370688 0.217542 0.188773 0.495248 -0.283229 0.084990 0.337571 0.196534 0.237556 -0.275730 0.430571 0.253310 0.058033 0.151419 -0.337773 0.181588 0.409028 -0.219352 -0.227834 0.452275 -0.150159 0.345480 -0.089715 -0.262712 -0.196500 0.486696 -0.124535 -0.179172 -0.330730 0.131055 0.129769 -0.367427 0.412953 -0.349866 0.511464 0.009498 0.022123 0.363586 -0.126349 0.081190 -0.112189 0.426202 0.120255 0.401616 0.345082 0.043551 0.009869 -0.365711 -0.259103 -0.081990 -0.304178 -0.029307 0.410700 0.045769 0.250651 0.203921 0.388643 0.007886 -0.145956 0.370790 0.396301 -0.108061 0.511014 -0.097143 0.340455 0.477307 0.290876 0.474790 0.225310 0.041205 0.385979 0.328916 -0.274743 0.136199 -0.400555 0.105043 -0.303207 0.254999 0.205308 0.116465 -0.134053 -0.390708 0.115824 0.123286 0.069689 0.319686 -0.354526 -0.321906 0.189552 0.371857 -0.013546 -0.101498 -0.276319 0.491697 0.296021 0.036544 0.259814 0.235420 -0.354969 0.449126 0.080537 -0.340778 -0.028786 0.126986 -0.070586 0.341469 -0.112819 -0.289773 -0.021959 0.321365 -0.194471 0.096956 0.180875 -0.248810 0.176790 -0.076382 -0.461783 0.369141 0.295847 -0.131184 0.237488 0.010710 -0.258158 -0.274769 0.480097 0.400915 -0.440442 0.515718 -0.299246 0.245068 0.441304 -0.029038 -0.475654 0.485676 0.166312 0.274881 0.097640 0.474012 -0.302052 0.131254 -0.161716 0.157538 0.006057 -0.051023 -0.268523 0.145986 0.214295 -0.312589 0.080829 -0.065606 0.455089 0.373869 0.098515 0.307968 0.086225 -0.249411 0.433637 -0.272831 -0.381218 0.325626 0.250192 -0.445381 -0.188587 -0.462485 -0.254864 -0.135011 0.501942 -0.461171 -0.052736 -0.163152 -0.325908 0.457741 0.301657 -0.041806 0.363497 -0.327287 -0.279497 -0.069949 -0.149349 -0.034085 0.394129 0.238092 -0.375132 -0.033221 0.186505 -0.059784 -0.076627 -0.065484 0.231850 0.045174 0.438856 -0.211732 -0.372910 0.263839 -0.274604 -0.235028 -0.032332 0.208461 0.002865 0.233435 0.091088 -0.440808 0.012379 -0.200207 0.510743 0.008015 0.046399 -0.256407 -0.088355 -0.029199 0.004453 -0.161239 -0.078374 0.420784 0.291307 -0.394142 -0.069249 0.267037 0.440637 -0.393324 -0.031370 -0.220655 -0.288618 0.023119 0.370406 0.312754 -0.399553 0.234501 0.433167 0.229958 -0.009505 0.034632 -0.248787 0.298366 -0.292014 -0.409949 -0.288981 -0.122638 0.073905 0.436039 -0.457972 0.268184 0.055926 -0.126218 0.129065 0.413889 -0.233713 0.442402 0.225172 -0.201788 0.096964 -0.328901 -0.402891 0.106081 -0.302737 0.232880 -0.333058 0.134804 0.007407 0.293100 0.103443 0.526193 -0.109307 -0.200447 0.286972 -0.346458 0.090351 -0.073083 0.136933 -0.025911 -0.281014 -0.161766 -0.205550 0.060272 0.273423 0.413872 0.086035 -0.298913 -0.394140 0.103169 0.121564 -0.481053 0.381303 0.175526 0.296382 0.356320 0.279615 -0.351936 -0.067268 0.096580 0.186555 -0.206628 0.056128 0.146624 0.143960 0.092824 -0.037238 0.157463 0.457482 0.147560 -0.413962 -0.440204 0.372896 0.066862 0.128062 -0.367717 0.359334 -0.409191 -0.078080 0.033124 -0.043953 0.331414 0.382888 -0.313144 -0.261527 -0.324473 0.208322 0.067948 -0.151101 0.442662 -0.361082 -0.303925 -0.065840 0.283742 0.062797 0.127763 0.346553 0.530969 -0.396743 -0.031014 -0.447912 -0.204594 -0.063150 -0.070015 0.044781 0.018556 -0.425376 0.013736 -0.086886 0.165494 0.003764 0.367275 -0.183907 0.034189 -0.054800 -0.318507 -0.047898 0.472456 -0.079816 -0.003507 0.139074 -0.296189 0.235081 -0.173912 0.134294 0.377854 -0.076276 -0.468430 0.395407 -0.268000 -0.045786 -0.224017 0.091084 0.510736 -0.381031 0.400052 0.452235 0.413714 -0.282998 -0.144214 0.073439 0.301215 0.181062 -0.158437 -0.448350 -0.343996 -0.213470 -0.452772 -0.329959 0.271077 0.491114 -0.263809 0.144733 0.363379 0.016381 0.120350 -0.457439 0.047849 0.104541 0.215568 0.298203 0.471163 0.045504 -0.396430 0.038376 0.484071 0.437063 -0.277158 0.150886 -0.484478 0.004906 0.209744 -0.311714 -0.406522 0.119987 -0.422103 0.049127 -0.136540 0.138115 -0.134860 0.144451 0.417903 -0.232386 0.337869 -0.271027 -0.128361 -0.006975 -0.171495 -0.383752 -0.123709 -0.339779 0.114892 0.128436 0.063263 0.238215 0.440809 -0.250607 0.039066 0.249752 -0.348280 -0.310398 0.281992 -0.200326 0.147354 0.338777 0.202236 -0.114828 -0.205158 -0.155504 0.198085 0.249818 -0.229221 -0.138095 0.277540
-0.259577 -0.171856 -0.296103 -0.322405 -0.088465 0.443586 0.471810 -0.021572 0.415069 0.021653 -0.303001 0.149516 -0.159200 0.315095 -0.311273 0.110802 0.247001 -0.048305 -0.356988 0.400884 0.410938 0.036213 0.281825 -0.112894 0.058689 -0.133409 -0.107001 0.302576 -0.173879 0.226633 -0.316496 -0.250743 -0.240119 -0.359203 -0.173249 0.073148 0.034875 -0.099177 0.290284 -0.243799 -0.090796 -0.125722 0.282973 -0.378630 -0.012251 0.131312 0.151218 0.367625 0.063390 0.015323 -0.432091 0.460007 0.036426 -0.048497 -0.222417 0.025887 -0.419621 0.449794 -0.116242 -0.111375 -0.001792 -0.263196 -0.485831 -0.448499 -0.327963 -0.391996 -0.475335 0.191778 0.350923 -0.004210 0.145390 -0.315657 0.054719 0.155103 0.233103 0.209612 0.091521 -0.148501 0.250209 -0.173135 0.380889 0.316526 0.361280 -0.222052 -0.220573 0.440869 0.065952 0.257462 -0.046846 -0.178330 -0.183101 -0.113537 -0.321588 0.473024 0.414267 -0.058417 -0.379921 -0.411740 0.239387 -0.357213 0.107498 -0.252108 0.208932 -0.235110 -0.219207 -0.429214 -0.067029 -0.339611 -0.151324 -0.307555 0.107501 0.384247 -0.002005 -0.170005 0.460362 -0.243400 -0.196797 -0.172508 -0.112342 0.492785 0.160434 -0.337093 -0.456705 -0.079099 -0.311525 -0.420006 -0.160171 -0.093348 -0.142369 0.103546 -0.440567 0.109361 -0.398484 -0.190706 -0.346859 0.097227 -0.085754 0.178885 -0.371633 0.505813 0.188368 0.020307 -0.377619 0.262491 0.078932 -0.044769 0.463943 -0.087849 0.325467 0.293364 0.409308 0.006043 -0.394080 -0.386501 0.403151 0.445049 0.330694 -0.089374 -0.166037 0.167987 -0.042980 -0.241531 0.333247 -0.455736 0.357361 0.427578 -0.262747 -0.347818 -0.441254 0.152809 0.012115 -0.151195 0.248146 0.371249 0.262961 -0.258613 0.028159 0.085509 0.052487 -0.278001 0.529697 0.419323 0.183896 -0.341529 0.105894 0.140252 0.294366 -0.325751 0.550460 0.344940 0.421820 -0.101327 -0.285165 -0.260672 0.257880 0.444778 -0.198262 0.403900 -0.419980 0.156267 -0.089386 -0.256331 0.160262 0.046423 -0.197754 -0.083282 0.521436 0.463241 0.127680 0.302032 -0.280184 -0.066382 0.497906 0.179086 -0.348865 -0.092196 0.282985 0.281219 -0.171052 -0.362902 -0.268088 0.434136 0.438746 0.121836 0.208210 0.056350 0.134276 -0.352291 0.225971 0.243316 -0.197608 0.201567 0.204277 -0.239781 0.499277 -0.054206 0.084267 0.304943 -0.368448 -0.073194 0.363770 -0.184548 0.135625 0.185401 -0.123815 -0.146115 -0.425063 0.313795 -0.257226 -0.202225 -0.361764 0.083964 0.270638 0.532565 -0.083248 -0.479852 -0.360743 -0.276187 0.148957 -0.487705 -0.042857 0.288149 0.275307 -0.009704 -0.457021 0.263520 0.290610 -0.277349 0.236751 0.089184 -0.044343 0.227635 -0.425015 -0.356039 0.418197 0.264945 -0.166867 0.444905 0.344036 0.418158 -0.186808 -0.133272 0.094807 -0.331473 -0.257391 0.159213 -0.419359 -0.098843 0.115804 -0.094039 -0.127075 0.437618 -0.432713 0.265980 0.169236 -0.247841 -0.061374 0.366188 -0.073842 -0.220957 -0.276193 0.418528 -0.394475 0.068008 0.447115 0.193609 0.434553 0.342915 0.404549 0.268872 -0.037936 -0.259234 0.090648 0.225012 0.473607 0.227188 0.202174 -0.135223 0.445035 -0.318893 0.072990 -0.403383 -0.237920 0.398975 -0.431995 0.469018 0.281296 0.254820 -0.226864 0.223033 -0.401476 -0.366101 -0.426970 -0.446505 0.044569 0.357735 0.229861 0.167154 -0.221679 -0.372468 0.196210 0.329406 -0.205093 0.316911 -0.115348 0.204716 0.444347 -0.101211 0.023187 0.045619 -0.151961 0.423909 -0.260655 -0.470834 -0.012336 0.434270 -0.129533 -0.463515 -0.467618 -0.126913 0.304188 -0.452986 0.090264 -0.052123 0.045846 -0.408242 -0.346679 -0.160593 -0.058245 0.014016 -0.047432 -0.329522 -0.137884 -0.243779 -0.244669 -0.052232 0.339517 0.368132 -0.134443 -0.324749 0.422906 -0.207578 0.170505 -0.289018 -0.477253 0.475130 -0.282182 0.238451 0.499199 -0.100818 -0.387818 0.254436 -0.287745 0.317732 0.498275 -0.059660 -0.445557 -0.340058 0.387432 -0.376229 -0.262341 0.391389 -0.461386 -0.266772 0.193821 -0.376687 0.382966 -0.020249 -0.435594 0.490662 -0.453162 -0.029607 0.472385 -0.450745 0.102806 -0.266616 0.107883 0.079806 0.332306 -0.285612 -0.450198 0.410556 -0.393192 -0.316233 -0.009874 -0.429573 -0.070062 0.132111 0.055766 0.470676 0.171942 0.277094 0.109022 0.238799 -0.053212 0.172882 0.281954 0.218389 0.277349 0.205460 -0.179909 -0.331524 -0.030260 0.323896 0.283242 0.428742 0.502827 0.420530 0.067977 -0.411180 0.107704 -0.155180 -0.341525 0.360584 -0.299108 0.004682 0.349682 0.527731 0.025970 0.355299 -0.412001 -0.236219 -0.214613 0.465757 -0.379784 -0.214048 0.368662 0.528618 -0.108913 0.303916 0.071623 0.432441 0.312591 0.463807 0.204822 -0.435971 0.314401 -0.055034 -0.111376 0.094510 0.485031 0.359484 0.291431 0.253824 -0.432882 -0.223665 -0.311708 -0.420935 -0.460655 0.382731 0.299674 0.136678 0.016102 0.112652 0.183505 0.212688 0.399444 -0.075795 -0.202944 -0.021298 -0.310851 -0.012623 0.287289 0.009304 0.132412 0.017141 0.024799 -0.059461 0.105547 -0.334852 -0.111768 0.116581 0.007567 -0.069472 0.239086 0.382018 -0.414799 -0.114573 0.515098 0.338707 -0.289676 0.382749 0.522795 -0.460610 -0.325762 -0.130269 0.496699 -0.401413 -0.239641 0.400887 0.332784 -0.397542 0.394779 0.150718 0.380345 0.154701 0.332415 -0.472778 -0.319734 0.210802 0.004360 -0.374602 0.420335 0.295986 0.487207 -0.282922 -0.062310 0.493133 0.124068 0.034415 -0.409757 0.284785 -0.076491 -0.294860 -0.285252 0.083980 -0.109448 -0.179481 0.006524 -0.016666 0.390099 0.184755 -0.318591 -0.235239 0.470341 -0.418305 0.261570 -0.125878 0.501330 0.226584 0.256195 -0.164810 -0.106266 0.471182 -0.169941 -0.391178 0.276551 -0.253604 0.063593 0.226987 -0.245583 0.394136 -0.167211 -0.374924 0.269406 0.295117 0.468123 -0.058295 0.207003 -0.132809 0.233736 0.327845 0.241630 0.514919 -0.054899 -0.260931 0.434831 0.246851 0.125991 -0.272240 -0.031652 -0.342342 0.380853 0.348632 -0.393500 0.356661 0.408498 0.175439 0.356523 0.463613 -0.182798 0.326012 -0.117861 0.444855 0.135202 0.045596 -0.390405 -0.314358 0.253130 0.035117 0.193542 0.033596 -0.216408 0.137273 0.387776 -0.049710 0.333246 -0.096312 -0.389117 0.340162 -0.303513 -0.115787 -0.249631 -0.401266 0.444934 -0.189436 -0.041827 0.231664 0.154901 -0.161840 -0.473065 0.049785 0.030124 0.469259 -0.388841 -0.405344 0.213226 -0.038664 -0.387150 -0.176002 0.096259 0.312911 0.298278 -0.046146 -0.452586 -0.414130 -0.061523 -0.017630 -0.326785 -0.204525 0.342651 0.476149 -0.028453 -0.350340 0.429804 0.497840 0.441098 0.439976 -0.212292 0.239581 -0.416813 0.066188 0.253833 -0.384097 -0.234589 0.183579 -0.429518 0.047940 -0.009437 0.392692 0.364460 0.515827 -0.474514 -0.083395 -0.054854 0.309818 0.432820 -0.413993 0.010574 -0.463480 0.179821 0.181975 0.045247 -0.184612 -0.089675 -0.104020 0.143175 -0.158947 -0.440340 0.106452 0.218506 0.201801 0.335116 0.038633 0.433180 -0.490727 -0.454808 -0.244208 -0.113945 -0.336839 0.499717 -0.205512 -0.070955 -0.137811 0.033627 0.136538 0.481267 0.042241 -0.136823 0.234151 0.184369 0.210008 -0.250599 0.421967 -0.247568 0.181026 0.446212 0.122727 -0.346278 0.240193 -0.213932 -0.452503 0.308422 0.085618 -0.413477 0.022353 0.370063 0.113898 0.340497 0.404070 -0.347136 0.211818 0.184102 0.178537 0.132140 0.369816 0.408682 -0.140130 -0.136192 0.372376 0.158212 -0.417955 -0.050762 0.336366 0.416229 0.511180 -0.133490 0.129536 -0.407162 -0.369121 -0.034780 0.375851 0.484181 0.287830 0.288723 0.187397 -0.298007 -0.239033 0.451969 0.045993 0.426989 0.054406 -0.300249 -0.364210 -0.132143 0.181997 -0.102717 0.425865 -0.184320 -0.269599 -0.229323 -0.489327 0.276538 -0.338913 0.059217 0.404823 -0.001635 0.515525 -0.229425 0.397150 0.422741 -0.445998 -0.482220 -0.029169 -0.297766 -0.356525 -0.015195 0.254587 -0.424357 0.493131 -0.079813 0.460950 0.410210 -0.132375 0.197946 -0.333396 -0.393753 -0.246032 -0.111171 0.286513 -0.366231 0.201299 -0.411252 0.120108 0.264113 0.029088 -0.184942 0.183090 -0.159525 -0.344092 0.025874 -0.073477 -0.136253 0.060722 -0.256372 0.436373 -0.250079 0.353680 0.277119 0.191483 0.034901 -0.070350 0.458221 0.446811 0.073471 0.090450 0.242605 -0.245617 0.147417 -0.425787 0.376776 0.156975 -0.041673 0.092565 -0.136841 -0.040823 -0.232846 -0.276112 0.098248 0.493419 -0.005788 0.341066 0.321225 0.121403 0.033727 0.471346 0.474330 0.240120 -0.470702 -0.486582 -0.217701 0.404998 -0.272372 -0.181526 -0.312696 0.001125 0.495640 0.100772 0.504425 0.146383 0.082017 -0.009260 -0.255824 0.032931 -0.016125 -0.244386 -0.424687 0.121445 -0.047685 -0.308373 -0.326465 0.378022 0.059130 0.205845 0.446235 -0.047534 0.120960 -0.147357 -0.439934 -0.304211 -0.091759 -0.290008 0.244721 -0.249296 0.183815 -0.396553 -0.340577 0.493870 0.207575 -0.158222 0.153582 -0.369686 0.061816 0.418716 0.333181 0.207619 0.502832 -0.398148 0.521529 0.388982 0.240799 0.433119 0.066088 0.452459 0.066102 -0.029457 0.332974 -0.082547 0.260741 -0.332799 0.353884 -0.446352 0.326603 -0.176210 -0.128427 0.407174 -0.080906 -0.071633 0.202990 0.386088 -0.253154 -0.463681 -0.341362 0.287301 -0.300037 0.438598 0.125964 -0.156632 0.282307 0.354213 0.507406 0.129032 -0.318858 -0.008687 -0.272205 0.211725 -0.325665 -0.181853 -0.293965 -0.042525 -0.412953 0.264433 0.354617 -0.386139 -0.147832 -0.202842 -0.213698 0.356093 -0.352326 0.097985 -0.475247 0.016892 -0.304039 -0.120025 0.033966 0.222395 -0.434000 -0.220384 0.330107 0.315326 -0.071326 0.329957 0.051622 -0.237301 -0.056953 -0.137416 0.073567 -0.427757 0.125645 -0.074892 -0.204389 0.156401 -0.262436 0.213609 -0.065138 0.145059 0.271598 -0.083472 -0.086467 0.051332 0.129248 0.412624 -0.011447 0.301216 -0.020382 0.379265 -0.279695 0.069966 -0.179000 -0.041632 0.083872 0.137661 -0.092979 -0.461948 0.454329 0.496772 0.010202 0.370664 0.014496 0.475581 -0.087392 0.112810 -0.333355 0.166088 -0.002684 -0.473649 0.128275 0.003607 0.423016 -0.136632 -0.240845 -0.359890 0.032733 0.183285 -0.344756
0.395713 0.202320 0.050063 -0.450100 -0.417908 -0.451775 -0.196246 -0.122624 0.386406 0.394712 0.340486 -0.018648 -0.271600 -0.400643 -0.138898 -0.485262 -0.051921 0.009028 0.371982 0.486938 0.043621 0.470025 0.004336 -0.002432 -0.061784 -0.454355 -0.252957 -0.171923 0.422319 0.086872 -0.458376 0.338120 -0.096298 0.353316 0.009342 0.394487 0.028841 -0.435259 -0.308034 0.355802 -0.194280 0.374385 -0.124050 -0.103693 -0.057709 -0.016362 0.322275 0.192666 -0.097308 -0.143459 0.028740 -0.103628 -0.209008 0.087420 -0.100602 0.390089 0.129749 -0.297068 0.432317 0.404700 -0.462056 -0.166121 -0.361815 0.218736 -0.042315 0.403272 0.446262 0.413494 -0.421342 -0.019002 -0.357516 0.384116 0.432754 -0.026985 -0.041190 -0.290289 -0.252724 -0.091186 0.183123 0.043565 -0.070264 0.247566 -0.069114 0.414500 0.015487 -0.180997 -0.141990 -0.166049 0.065564 0.062895 -0.139206 -0.025045 0.510587 -0.317654 -0.104420 -0.051820 -0.309947 -0.347982 -0.168713 0.378776 0.259975 0.028124 0.295200 0.148103 0.184536 -0.372714 0.273195 0.305824 -0.317904 -0.243576 0.314598 -0.439413 -0.428030 -0.314555 -0.309391 -0.232339 -0.359591 0.443569 -0.390856 0.118288 0.478348 0.493838 0.140206 -0.349897 -0.044755 -0.196346 0.021768 0.245032 -0.472759 0.488925 -0.019830 0.406488 -0.509267 -0.487574 -0.004645 0.014929 -0.192889 -0.388343 -0.039906 -0.357144 0.177786 0.456132 -0.369543 -0.043091 -0.039985 0.268466 0.270382 -0.369011 -0.314056 -0.405660 -0.063337 -0.308919 0.485998 -0.082101 0.112794 0.193067 0.527406 0.508424 0.314961 0.296832 -0.090313 0.131257 0.030983 0.367856 -0.219022 0.084737 -0.475831 -0.126151 -0.166428 -0.395956 0.034766 -0.089291 0.450576 0.098413 -0.135517 -0.371326 -0.031413 -0.491324 -0.375637 -0.031582 -0.007929 0.230541 0.000832 0.043649 -0.202045 0.106828 -0.290725 0.501772 0.312158 0.444520 -0.151722 0.204715 0.315014 0.420664 0.039262 0.337824 0.180955 -0.454043 -0.263040 0.001056 -0.084072 0.275285 0.250615 -0.401679 -0.385162 -0.268362 0.066828 0.043095 0.188973 -0.279536 0.176981 0.384780 -0.145290 -0.075610 0.443889 -0.366676 -0.052276 0.263639 0.210667 -0.087883 0.141854 0.086088 -0.238371 -0.291938 0.363884 -0.378220 0.162608 0.451085 -0.462899 -0.493321 0.365101 0.329483 0.391513 -0.452751 0.047395 -0.325591 0.365228 -0.476088 0.017458 -0.441036 -0.366167 -0.302441 0.486236 -0.284306 -0.141199 0.441245 -0.025567 -0.382288 0.363263 -0.212399 -0.373042 0.304273 0.403831 -0.348322 0.314986 -0.451147 -0.438832 -0.196867 -0.092091 0.449488 0.123423 -0.410852 0.124399 0.403334 0.256737 0.212115 -0.087867 -0.374167 0.342431 0.109911 -0.389841 -0.198236 0.218759 0.230929 -0.464439 0.017763 -0.277596 0.080199 0.392654 0.017467 -0.079320 -0.165845 0.093745 -0.471047 0.377312 -0.142828 -0.337262 -0.030155 0.214869 0.306094 -0.160827 0.405324 -0.021641 -0.484204 -0.040809 -0.509659 -0.185580 -0.103841 -0.162916 0.076058 0.359552 -0.160146 -0.458946 -0.074069 -0.109987 0.023069 -0.347685 0.418349 -0.434958 -0.416161 0.310624 0.044255 0.164814 -0.432187 0.388390 0.247863 -0.238928 0.129808 0.473026 -0.444053 -0.354720 0.003147 -0.176761 -0.412494 -0.082400 0.213995 -0.442092 0.027214 -0.093850 0.383907 0.452685 -0.320325 0.304294 0.264971 -0.407165 0.337264 0.199951 0.105862 -0.401898 -0.187256 0.381523 0.220695 0.458401 -0.224504 -0.200253 0.240454 -0.017548 0.082442 -0.204379 0.360281 -0.463897 0.392484 0.424234 0.000314 0.339835 0.169789 0.430800 0.087124 -0.117128 -0.347209 0.202709 -0.167025 0.452848 -0.463458 -0.244282 -0.330049 0.275912 -0.110162 -0.401170 -0.213756 -0.165279 -0.204705 0.026931 0.348990 -0.053129 0.329608 0.245210 0.011080 0.425736 -0.141847 -0.424776 0.355992 0.361385 0.152010 -0.400972 -0.259763 -0.253178 -0.157140 -0.285240 0.272194 -0.280700 0.144206 0.026124 -0.403774 0.245281 -0.532744 -0.343197 0.111205 -0.345758 -0.492210 0.264869 0.195004 -0.359523 -0.398437 -0.277254 0.081140 0.147075 0.075663 0.431194 -0.361838 -0.244341 0.243196 -0.493187 -0.123039 -0.101448 0.042438 0.377657 -0.166817 0.474282 0.423059 0.140066 -0.029031 -0.417356 0.049464 0.027548 -0.291429 0.045076 0.368423 0.021141 0.031871 -0.371726 -0.238678 -0.113017 0.048550 -0.328201 -0.356312 0.327354 -0.147421 -0.004017 0.310869 0.030974 -0.364487 0.175140 -0.383012 -0.288498 0.125846 0.338558 0.327147 0.018699 -0.344384 -0.113085 -0.049505 0.299021 0.014400 -0.245789 0.362016 0.370941 0.116540 0.402497 0.329425 0.225277 0.411786 0.259725 -0.565682 0.231077 -0.310622 -0.346376 -0.409723 -0.332435 0.131843 0.099451 -0.393038 0.238524 0.403026 0.062852 -0.410522 0.056093 -0.416112 0.425073 0.116143 -0.454509 0.436528 0.114169 0.186845 -0.089354 -0.465221 -0.255072 -0.185183 -0.161384 0.454015 -0.276752 0.255445 0.120660 -0.499286 -0.190384 0.276403 -0.095985 0.106410 -0.042930 -0.519458 -0.127158 -0.492012 0.468255 0.417157 0.342482 -0.033595 0.168721 -0.136276 0.275128 -0.018979 0.461110 -0.165538 0.155428 -0.393056 0.250599 -0.387373 -0.431454 -0.119595 -0.024577 -0.109647 0.218857 0.449840 0.054533 -0.226541 0.335501 -0.213517 0.101908 -0.026245 -0.185819 -0.316648 -0.128401 0.150951 0.247271 -0.485303 -0.219581 0.309335 0.372504 -0.245198 0.232496 0.397177 -0.434025 0.370893 -0.276144 0.287788 -0.487622 0.323692 0.449074 0.217352 -0.205799 0.292947 -0.280396 -0.002031 0.227511 -0.155414 0.242528 0.234136 0.251113 -0.181369 0.382955 -0.257804 0.028327 0.046069 0.192591 -0.363113 -0.292079 0.176064 -0.437316 0.452432 0.347197 0.369008 0.006600 -0.176325 0.467775 0.063466 0.248775 0.379492 0.364367 -0.300249 -0.158987 0.295331 0.262743 -0.424457 -0.330371 0.385354 -0.413099 0.328762 0.154865 -0.058399 0.371876 -0.086792 -0.340152 -0.370459 0.383283 -0.193816 -0.307492 0.030120 -0.259203 0.291547 -0.084162 0.222508 0.142078 0.220088 0.128033 0.055125 -0.109726 0.373750 0.198341 0.377475 -0.350174 0.240459 0.429157 0.404089 0.192564 0.012469 -0.447052 0.110119 -0.288070 -0.432023 0.027032 -0.213994 0.361314 -0.322431 -0.144868 0.239424 -0.510833 0.410882 0.415024 0.034717 -0.074336 0.482012 -0.379761 0.266812 -0.467015 0.261113 -0.224120 -0.475252 -0.487423 0.436615 0.367823 0.361537 -0.485015 0.298235 -0.036397 -0.382020 -0.382280 -0.045859 0.236104 -0.168000 0.359482 0.472132 -0.242795 0.134554 0.393629 -0.464171 0.273715 -0.422187 0.422034 -0.301554 0.376001 -0.108543 -0.007979 0.064186 0.086135 0.382137 0.066050 -0.365952 0.055528 -0.271422 -0.187772 0.188158 -0.279148 0.057320 0.313259 0.011442 0.249292 -0.090155 -0.086045 -0.414875 0.244131 -0.508190 -0.322316 0.120878 0.210139 0.129354 -0.015590 0.448325 0.170735 0.107432 0.291480 0.243018 0.347610 0.455322 -0.069758 0.182958 0.350346 0.085470 -0.308105 0.034832 -0.385517 -0.447124 -0.220977 -0.090818 0.393771 -0.215694 -0.350846 -0.354745 0.153478 -0.236665 0.192675 -0.503230 -0.443789 -0.049978 0.131176 0.403018 0.379792 0.096712 -0.082437 -0.430481 -0.515596 -0.514311 -0.078405 -0.331167 0.404838 -0.117100 0.391382 -0.377856 -0.349902 -0.466667 -0.238774 -0.219476 0.377516 -0.371501 0.382830 0.319644 -0.250769 0.455511 0.401540 0.104725 0.424077 -0.482363 -0.400224 -0.168105 -0.196366 0.383455 -0.130984 -0.292349 0.083828 -0.303675 -0.223636 -0.194887 -0.054855 0.331178 0.171746 0.447705 0.081508 -0.276394 0.265918 0.230246 0.497559 0.089872 0.238884 0.170301 0.024807 0.242775 0.395442 -0.319578 0.013061 -0.012344 -0.015063 -0.339573 0.127812 -0.305303 0.278023 0.190085 -0.454740 -0.261857 -0.401497 -0.132892 0.100223 0.034967 -0.296113 -0.444794 -0.030844 -0.486166 0.469163 0.004608 -0.433610 0.434958 -0.160741 -0.002224 -0.331267 -0.203798 0.023192 -0.297963 0.396725 0.199705 -0.268953 -0.086972 0.299446 0.093131 0.341261 0.405627 0.216556 -0.294279 -0.457244 -0.137140 -0.078586 -0.311361 -0.029212 -0.048117 0.387925 -0.360919 0.482658 -0.047266 0.368933 -0.445477 0.504116 -0.201944 0.050320 0.006685 0.255856 -0.403308 0.441191 -0.134023 -0.311462 0.396171 0.315069 -0.215894 -0.327312 -0.416355 -0.479959 -0.066562 0.004932 0.463702 0.283280 -0.065202 -0.246876 -0.315593 0.279135 -0.368252 0.191959 -0.195589 -0.275066 0.267447 -0.106527 -0.051359 -0.451657 0.452010 -0.330668 0.191283 -0.133550 -0.319325 -0.093307 0.073554 0.331868 -0.023662 0.029034 0.456918 0.469327 -0.249435 0.220006 0.257270 -0.317265 -0.046534 0.391774 -0.025763 0.041846 -0.299003 0.195699 0.196231 -0.448406 -0.251881 0.183634 0.352667 0.397034 -0.083471 -0.148258 0.452829 -0.057909 -0.409733 0.041265 -0.276533 0.440612 -0.043052 -0.168263 -0.074559 0.476407 -0.160450 -0.264280 -0.211494 -0.445422 0.196200 -0.014809 0.368170 0.489636 0.229234 -0.288742 0.245862 -0.396833 -0.514091 -0.320791 -0.480964 -0.201152 -0.179485 0.124959 -0.354977 0.418408 -0.132224 -0.470215 0.096817 0.129153 -0.094813 -0.024802 -0.435024 -0.018915 -0.150914 0.228696 0.402391 -0.413050 -0.316785 -0.188995 -0.129486 0.371342 -0.092379 0.141868 0.057941 0.195868 0.218877 0.498344 0.296516 0.163468 -0.078263 0.167870 -0.213131 -0.178488 0.140235 0.111158 0.425026 0.168116 -0.143240 -0.071636 0.108357 0.482659 -0.281603 -0.305227 -0.203920 -0.149197 0.048190 0.290723 -0.367406 -0.447351 0.506958 -0.257404 0.372819 -0.131856 0.159425 -0.463361 -0.241678 -0.347176 0.454683 -0.147411 -0.413942 0.398532 0.353348 -0.293097 0.342869 -0.088835 0.225005 0.431285 0.042927 -0.114048 -0.156894 0.018996 -0.039312 -0.235029 -0.012060 0.097348 0.058302 -0.227772 -0.275785 -0.367645 -0.251471 -0.042986 -0.105707 0.391935 -0.302890 0.044231 0.070805 -0.396745 0.478785 -0.374058 -0.376571 0.370334 -0.242323 -0.240864 -0.147940 -0.433591 0.004344 -0.294151 0.105411 -0.219701 -0.165961 0.433399 -0.370506 0.134922 0.416474 0.460708 -0.014560 0.350643 -0.125097 0.297914 0.268792 0.376392 0.267186 -0.427813 -0.125828 0.143856 0.084069 -0.344494 -0.089647 0.141224 -0.227550 -0.456402 0.174848 0.030946
0.190791 0.458290 -0.086569 -0.066993 0.200724 -0.180615 -0.196258 0.431147 0.459242 -0.452257 0.001073 -0.400219 -0.191398 0.023136 -0.017846 -0.092222 0.269945 -0.282436 -0.117158 0.417517 0.147217 0.174505 -0.498732 0.197172 0.495427 0.348880 0.198881 -0.190407 -0.279642 -0.195320 -0.225872 -0.186644 -0.117947 0.369010 -0.392466 0.144905 -0.402392 0.289701 -0.329464 0.283007 0.337091 -0.351778 0.160879 0.321693 -0.306896 0.471740 0.163206 -0.013563 0.378843 0.125639 0.151725 0.226334 0.288145 0.419743 0.090026 0.188734 -0.436184 -0.214198 0.370726 0.132764 0.167285 -0.014622 0.334169 -0.231630 -0.147093 -0.316078 -0.201451 -0.009788 0.217625 -0.009973 0.416160 -0.052656 -0.264054 -0.461223 -0.328378 0.141480 0.319567 -0.341541 0.408515 0.038376 -0.249662 0.179968 0.100242 -0.120559 -0.173235 -0.065247 -0.036867 -0.088764 0.088931 -0.322665 0.319233 -0.302956 0.449256 0.045217 -0.204904 -0.349627 0.077660 0.241942 0.155179 -0.241491 -0.182397 0.117651 -0.237540 0.211320 0.006904 0.268586 0.090380 0.349115 -0.026366 -0.095886 0.258414 0.089258 0.388357 0.199635 0.060414 -0.357729 -0.128580 0.164288 0.018662 -0.147054 0.340095 -0.488929 0.438822 0.333581 -0.103147 -0.387141 -0.150075 0.235739 0.372042 0.286673 0.071939 0.003198 0.105788 -0.076775 0.493136 0.127032 -0.403609 -0.124341 0.267726 0.310883 -0.278814 -0.105372 -0.279008 -0.088018 -0.296060 -0.476731 -0.126664 -0.009486 -0.094571 0.464736 -0.308196 -0.018926 -0.048498 0.174584 -0.411718 -0.264610 -0.454734 -0.170947 -0.247754 -0.459975 -0.262077 -0.295974 0.080521 -0.048191 -0.110897 0.077016 0.195677 -0.324852 -0.306721 -0.280979 0.064195 0.492979 0.334150 -0.250838 -0.397494 0.242483 0.367392 -0.247191 0.036805 0.104430 0.444293 -0.328097 0.224643 0.049012 -0.469879 0.390773 -0.210849 -0.180218 0.456715 -0.165560 -0.099842 0.487701 0.385527 0.086757 0.397964 -0.304733 -0.072907 -0.346925 0.112945 0.040114 -0.088304 -0.300411 0.474321 -0.186629 0.433020 0.188492 -0.437894 -0.272712 -0.425194 -0.199252 -0.411605 -0.160519 0.345667 -0.303479 0.156858 -0.536505 -0.398961 -0.295867 -0.110080 0.318506 -0.465496 0.317618 -0.225339 0.277329 0.405775 0.477269 -0.200285 0.011253 0.167496 0.491770 -0.261455 0.449573 -0.213989 -0.133848 -0.443323 0.163004 -0.185007 -0.300264 0.285344 0.009203 0.017828 0.314801 -0.361710 0.328397 0.264387 -0.440977 -0.124669 0.291662 -0.299739 0.266991 0.160607 -0.580441 -0.110019 0.285619 0.292048 -0.444054 -0.278477 -0.237915 0.413289 -0.205167 0.323504 0.502615 0.332765 -0.218507 -0.026013 0.434800 -0.549231 0.420264 0.094460 0.271349 0.120214 -0.141745 -0.300695 0.417679 0.236505 0.225131 0.002359 -0.173462 0.061956 -0.422007 0.182699 0.258179 0.333174 -0.036164 0.064500 0.269513 0.089564 -0.193707 -0.079852 -0.035690 -0.298634 0.371135 -0.466102 -0.277818 0.130847 -0.136934 0.417237 -0.514213 -0.275823 -0.319359 -0.196261 0.311660 0.252194 0.410816 -0.378755 -0.014443 0.397621 0.275124 0.331877 -0.023936 0.079703 0.125942 -0.483050 0.365391 0.306801 0.273930 -0.208172 -0.475196 0.026139 -0.352342 -0.026481 -0.364110 -0.345483 -0.069954 -0.342991 -0.336828 -0.457359 0.204455 -0.122043 -0.465419 -0.412484 -0.443418 -0.522270 0.428448 -0.372519 0.139406 0.243733 -0.319797 -0.122173 0.032663 -0.115957 0.453915 -0.262617 -0.219978 -0.439946 0.209084 -0.435727 -0.252426 -0.000281 0.089243 -0.020205 0.440517 -0.385468 0.264683 -0.071443 -0.324113 0.350061 -0.451826 0.201154 -0.020750 -0.495953 -0.057279 0.261707 0.451818 -0.272393 -0.242553 0.203510 0.413097 -0.309717 0.116159 0.325611 -0.394966 -0.090326 0.100196 0.195368 -0.053979 -0.360687 -0.457150 -0.186234 -0.253736 0.057560 0.179419 0.446580 -0.348585 -0.377261 -0.040173 0.423590 0.293526 0.342007 -0.341297 -0.222041 0.144191 -0.094691 0.415308 0.213535 -0.125555 -0.029959 -0.026435 0.170330 0.298340 -0.376667 -0.250384 0.345290 0.010579 -0.233496 0.058603 0.362453 -0.184826 -0.086665 0.141969 0.242723 0.201446 -0.568100 -0.023671 -0.127856 -0.046004 0.365397 -0.192242 -0.372009 -0.254421 -0.346886 0.043968 0.314272 0.084140 0.324891 -0.254141 -0.457989 -0.084735 -0.192049 -0.103879 0.269538 -0.042076 -0.117902 -0.190526 0.414328 0.243567 0.408248 -0.289624 0.120553 0.267174 0.400637 -0.408001 0.352269 0.324146 0.223853 -0.382497 -0.539409 -0.434905 -0.026010 -0.409946 0.249700 0.217226 0.059864 0.253573 -0.350662 -0.025992 -0.119870 0.030458 -0.032663 0.223126 -0.475865 0.249238 -0.078465 -0.362384 0.288871 -0.282142 0.351655 -0.379615 -0.334668 -0.064270 -0.055138 -0.368244 -0.424914 -0.425927 0.321991 -0.006441 -0.525192 0.008294 0.001341 -0.449186 0.120488 0.309335 0.298812 -0.339756 -0.447384 0.177079 -0.099626 0.209225 0.014480 -0.128423 0.348085 0.427218 -0.380818 0.156586 -0.048150 -0.181920 -0.174678 -0.455190 -0.456637 -0.449376 -0.332261 0.076754 -0.556855 0.193090 -0.036113 0.373666 -0.404000 0.055701 0.183539 -0.342100 0.253486 0.051964 0.104340 -0.397313 -0.167025 0.106592 -0.031053 -0.478962 -0.122921 0.221718 -0.224088 0.063809 -0.399649 -0.324521 0.349516 -0.442786 0.427565 0.360329 0.332682 0.236427 0.119268 0.136365 -0.522062 0.287030 0.105761 -0.150840 0.230185 0.162092 -0.545538 -0.393613 0.383667 -0.185683 -0.050282 0.346018 0.472224 -0.231275 -0.488576 -0.288669 -0.424563 -0.372526 0.194527 -0.528476 0.027692 -0.452098 -0.144604 0.202636 -0.418971 -0.389280 -0.130073 0.278416 -0.254593 -0.236078 0.374178 0.399541 -0.066872 0.264674 -0.453683 0.152667 0.144127 -0.160317 0.427815 -0.563923 0.219670 -0.542832 -0.497280 0.029398 -0.141886 -0.264903 -0.251705 0.381373 -0.441508 -0.313959 -0.408122 0.426279 0.382871 0.249951 -0.271579 0.299552 -0.215659 0.256298 -0.468851 -0.141053 0.364678 -0.486243 -0.082292 -0.361107 -0.357139 -0.077313 0.246473 -0.155060 -0.185042 -0.094933 -0.446658 0.225289 0.347994 -0.576347 -0.345882 0.130819 -0.201791 -0.219140 0.145024 -0.041224 -0.371801 0.401304 0.443475 0.217413 0.035201 -0.405456 -0.030070 0.268595 -0.367024 0.159250 0.209710 -0.201081 -0.004767 0.139316 0.396408 0.197967 0.184469 -0.165499 0.076506 -0.434504 -0.378129 -0.037893 -0.026571 -0.326591 -0.260579 0.063324 -0.206912 0.158601 0.286727 -0.412263 0.292145 0.054418 -0.016865 0.089309 -0.375585 -0.099843 0.280439 0.306574 -0.370302 -0.082646 0.425152 -0.252149 -0.263637 -0.314872 0.084122 -0.317046 -0.333251 0.205026 -0.457989 0.320682 0.363114 -0.123671 -0.437684 0.118873 -0.525135 -0.480758 0.078529 0.071113 0.230137 0.467651 -0.216408 0.354992 0.232975 -0.176416 -0.289088 -0.400472 -0.428105 0.341831 -0.267654 -0.017479 -0.318181 -0.239729 0.053685 -0.273073 -0.157016 0.477746 0.066568 0.162471 0.015647 0.018777 0.277540 0.431005 -0.227330 0.215949 0.022440 -0.143759 0.320888 -0.500406 -0.023948 -0.197774 0.076928 0.438667 -0.135328 0.350834 0.148247 0.421954 0.309837 -0.223728 0.411545 0.480704 -0.178629 0.441878 0.277185 -0.031258 0.124662 -0.249917 -0.052121 -0.215910 0.085051 -0.113474 0.237107 0.094035 0.186593 0.037041 0.082337 -0.450930 0.220141 0.271450 -0.240815 -0.035501 -0.364413 -0.226864 -0.366093 0.120336 0.217800 0.417843 -0.118572 -0.235084 0.337905 0.097506 0.420188 0.375701 -0.385170 0.027189 -0.052036 -0.108892 0.035340 0.099329 -0.391372 -0.294841 0.258874 -0.364227 0.135036 0.221888 -0.344849 0.242017 0.130190 -0.342663 0.039147 -0.079457 -0.420291 0.444718 -0.195235 -0.476516 0.350441 -0.134745 0.057327 0.358806 0.464188 -0.434174 0.406061 -0.256862 0.097590 -0.368946 0.132242 0.443168 -0.254574 0.030003 -0.232596 0.090034 -0.235982 0.174325 0.294184 -0.245730 -0.038528 0.035431 -0.248766 -0.068980 -0.243825 -0.294170 -0.176113 -0.302710 -0.006910 0.258115 0.388262 -0.288130 -0.299536 0.356444 -0.291189 -0.457117 -0.107050 -0.106651 0.083146 -0.221913 0.219037 0.138862 -0.160210 -0.428434 -0.431047 0.044884 0.424430 0.029225 0.306700 0.303657 0.311032 -0.004608 -0.045900 0.340910 -0.225881 0.445039 -0.198774 -0.049067 0.582687 -0.109396 0.083623 0.261343 -0.004099 -0.011129 0.302814 -0.316289 -0.254529 0.120674 -0.396797 0.402928 0.000715 -0.021466 0.263472 -0.371116 0.012293 0.054812 -0.061290 -0.204026 -0.449092 0.193089 0.384093 -0.013385 0.271596 0.059568 0.003064 0.497274 0.585745 0.461857 0.439496 0.556781 -0.121742 0.189296 0.059928 -0.370651 0.475263 -0.021219 0.490673 -0.088409 0.250750 -0.283503 0.311262 -0.016227 0.140485 0.464176 -0.250951 -0.050744 -0.128875 0.453878 -0.205407 0.564649 0.417689 -0.066933 0.355701 0.279209 0.588340 0.060297 0.465939 0.235550 0.086164 -0.055160 -0.219452 0.641159 0.490521 0.509706 0.556698 0.530778 -0.195090 0.244851 -0.004764 -0.431681 0.337538 0.006662 -0.216578 -0.471983 0.271964 -0.216904 -0.018151 0.526629 0.005756 0.542531 -0.196700 0.332405 0.028122 -0.246176 0.205306 0.178287 -0.313667 0.550836 0.125062 0.033717 -0.027237 0.570886 -0.302977 0.515068 -0.133637 -0.210700 0.621460 0.612578 -0.011580 0.363549 0.261367 0.387799 0.454067 0.144534 0.017350 0.504437 -0.059427 0.053502 -0.312150 0.101487 0.427200 -0.128074 0.111242 0.408691 -0.229685 0.158429 0.086051 0.283263 0.607978 0.587744 0.479449 0.427074 -0.089435 -0.258814 0.335895 0.025455 0.031751 -0.320816 0.511985 0.524222 0.054172 0.470805 0.126581 0.027157 0.220322 0.274125 0.147436 0.154685 -0.025781 0.196665 -0.089690 -0.134072 0.333666 -0.159422 -0.011082 0.073156 -0.269517 0.075860 -0.351630 0.347272 -0.117767 0.473649 0.445948 -0.297696 -0.282439 0.443925 0.491094 0.270867 0.040484 0.036812 0.329939 -0.276888 -0.266341 0.176675 0.037856 0.176188 -0.465454 -0.092520 -0.166649 0.331967 -0.475492 0.100992 -0.106527 0.050496 -0.405569 0.468837 0.491591 0.326948 0.278475 0.208315 0.332679 -0.214348 0.301005 0.006395 0.003686 -0.257602 0.169109 -0.071755 -0.265691 -0.311377 0.056453 -0.093553 -0.001032 0.038920 0.021273 0.379163 0.243504 0.170373 -0.395606
0.334333 0.383535 0.234110 -0.306471 -0.252561 -0.271614 0.140695 -0.031051 0.392351 -0.136208 -0.276336 -0.029829 -0.373280 0.103005 -0.440243 -0.301650 -0.142852 -0.310062 -0.340206 0.265470 -0.124411 -0.212538 0.473360 0.266623 -0.267363 -0.094929 -0.419824 0.458904 0.465762 0.096596 -0.057001 -0.287954 0.001232 -0.131739 0.188222 -0.458951 0.091256 0.133401 0.013185 0.185295 -0.044178 0.387623 -0.102963 -0.477690 -0.452962 -0.191179 -0.375819 0.152021 0.439727 -0.313575 0.123815 -0.022201 0.368750 0.394601 0.240498 0.495606 -0.340220 -0.009702 0.314711 -0.261625 -0.390875 -0.039229 0.291828 -0.172421 -0.170011 0.118241 -0.027939 -0.033796 0.135671 -0.144402 -0.347731 0.103054 -0.400861 -0.184884 -0.316006 0.136444 0.022900 -0.080146 -0.255610 0.016949 -0.400605 0.207227 0.197657 -0.404671 0.044003 -0.060980 -0.507810 -0.347964 -0.248049 -0.162764 -0.222235 0.084264 0.436769 -0.098328 0.162465 0.134190 -0.195466 0.403089 0.146432 0.172399 -0.300994 -0.490763 0.030631 -0.393509 -0.488756 -0.212679 -0.040967 0.402887 -0.322213 0.260545 -0.171492 -0.388480 -0.405237 0.173309 0.318740 0.181449 0.294565 -0.450317 0.248001 -0.160454 -0.129325 0.390291 -0.318638 -0.245808 -0.353550 0.258678 0.348401 -0.466442 0.242117 0.072925 -0.495336 0.190349 -0.401258 0.220232 -0.070738 0.456891 0.083967 -0.461642 0.124601 -0.511133 0.164373 0.439668 -0.070131 0.113779 0.172109 -0.069310 0.289528 -0.040819 0.439941 0.433321 0.243157 -0.399150 0.234776 0.351211 -0.090624 -0.267964 -0.081939 -0.403847 0.294525 -0.272125 0.203574 0.489444 -0.480407 -0.038457 -0.350287 -0.072213 -0.422744 -0.409304 0.257204 0.231318 0.195656 0.065076 -0.372241 -0.189232 0.216682 -0.454155 0.211262 0.394239 0.280891 -0.502150 -0.240266 -0.179683 0.037359 -0.081318 -0.179763 -0.374179 -0.154061 -0.037198 -0.316181 -0.247628 0.175600 -0.201792 -0.038639 -0.014531 0.114880 -0.275195 -0.037440 0.251126 0.056331 -0.291189 0.317021 0.141647 0.407129 0.192787 -0.327054 -0.119932 -0.270612 -0.153807 -0.221943 0.022736 0.372766 0.420501 -0.008060 0.257831 -0.285660 -0.324838 0.138231 -0.140527 0.390837 -0.068116 0.222809 -0.454410 -0.024911 -0.324773 -0.183750 0.303638 -0.101905 0.114272 0.480081 -0.036373 0.268047 0.039603 -0.312585 -0.120392 -0.072643 -0.090390 -0.490534 -0.473697 -0.439047 0.013310 -0.454074 0.124978 0.084754 -0.417635 -0.442692 -0.019836 0.376943 -0.083583 0.026053 -0.265663 -0.393048 0.416966 0.284265 -0.187906 -0.353076 0.156463 0.355822 0.005921 -0.396919 0.422199 -0.355685 0.424150 0.299024 0.050322 -0.079345 0.403698 -0.427778 -0.386175 -0.152554 0.461500 -0.482633 -0.303088 -0.152799 0.320743 0.265530 -0.343702 0.231249 0.190078 -0.015557 0.438455 -0.189289 -0.206327 0.211962 0.022077 -0.017908 -0.318852 -0.253432 -0.460786 -0.251848 0.243544 -0.186124 -0.448291 0.468844 -0.091100 -0.149382 -0.020105 0.201257 -0.201610 0.452796 -0.434185 0.166271 0.294920 0.013261 0.220267 -0.015474 -0.132526 -0.157666 0.139511 -0.420144 -0.446975 -0.375907 0.287573 0.341046 -0.247164 -0.167582 -0.057632 -0.180563 0.064812 0.352115 0.071018 0.302979 -0.098440 0.217275 0.376906 -0.288714 0.013245 0.161414 -0.495464 -0.166593 -0.192795 0.058599 -0.107336 -0.094279 -0.008299 0.220506 0.122349 0.192515 -0.506645 0.325035 -0.332076 -0.499932 -0.095973 0.039624 -0.238298 -0.335447 0.092655 0.049172 0.341821 0.194671 0.343134 -0.301247 0.335465 0.484536 0.459035 0.395761 0.105336 -0.460235 0.494586 -0.343828 -0.212884 0.235905 -0.512609 0.161279 0.139021 -0.225095 -0.166974 0.168488 0.387111 0.429573 -0.140892 -0.135819 0.045926 0.293186 0.281062 0.410027 -0.232918 -0.417113 -0.283804 -0.247534 -0.210857 -0.027702 -0.066223 0.074199 0.366214 -0.479008 0.336766 -0.157686 -0.403448 -0.181307 0.022021 0.028768 -0.313650 -0.306213 -0.194174 0.155597 -0.068956 0.277966 0.205516 -0.144864 -0.535136 -0.215602 0.176793 -0.467077 0.214806 0.209261 0.194754 -0.080945 -0.204948 0.218316 -0.254188 -0.490617 0.286397 0.048460 -0.344905 -0.228614 0.189297 -0.051327 -0.378482 0.061495 0.316854 -0.479476 0.100519 0.170112 -0.511532 0.098676 -0.241471 0.449187 -0.315550 0.271527 -0.037440 -0.238601 -0.126709 -0.327485 -0.539784 -0.003809 0.134948 -0.502663 -0.195077 0.249784 -0.414414 -0.381202 -0.447982 -0.400365 0.110544 -0.122271 0.115652 0.464372 0.476554 -0.052186 -0.399910 -0.318090 0.007011 -0.342149 0.114785 -0.017488 -0.008455 0.243037 0.272964 0.094519 0.015606 0.003373 0.110060 -0.148330 0.018903 -0.439827 -0.114698 0.379272 -0.437025 -0.512605 -0.482642 0.023730 0.184917 -0.445099 0.477843 0.147612 -0.247809 -0.057761 0.189183 0.348223 -0.358296 -0.221791 0.182636 0.203727 0.454045 -0.340713 0.395548 0.388911 0.368821 -0.093702 0.217488 -0.177235 -0.383282 -0.157767 -0.376507 -0.295673 -0.292028 0.092710 0.064578 -0.010523 -0.428405 0.477682 -0.105637 -0.347473 0.041518 0.140705 0.366736 0.279220 0.212471 0.282199 -0.270594 0.497863 -0.031991 -0.280230 -0.198007 -0.061716 -0.460550 -0.182338 0.345470 0.241742 0.074293 0.032585 -0.396988 0.350787 -0.033193 -0.456594 0.211459 -0.389385 0.452374 0.129046 -0.131020 0.323995 -0.397839 -0.250853 -0.125983 -0.108338 -0.031986 0.300843 -0.142385 -0.041244 0.081101 0.058891 0.028786 -0.199623 0.333807 -0.031187 -0.406541 0.330110 -0.498332 -0.022163 -0.122676 0.229904 0.224565 0.349117 -0.287319 0.002192 -0.402451 0.344515 -0.150383 -0.254569 -0.472511 0.100201 -0.333830 -0.118627 -0.067499 -0.350418 0.202683 0.358259 -0.478203 -0.423608 -0.410902 0.338779 0.125680 0.111589 -0.486108 0.030819 0.004876 -0.052789 -0.029853 -0.083917 -0.260304 0.214359 -0.451155 -0.402098 0.173880 0.446249 -0.511871 -0.462644 0.283168 -0.109050 0.418242 0.240364 0.355840 -0.403809 -0.441416 0.250135 -0.229623 -0.466387 0.445132 0.203881 -0.218423 0.097720 -0.416540 -0.391776 -0.386151 -0.342635 0.454645 -0.100299 -0.360200 0.310382 -0.248726 0.452907 0.386636 0.391371 -0.153677 -0.046046 -0.453301 -0.016076 -0.484749 -0.252366 -0.231438 0.305817 -0.407236 -0.101117 -0.518624 0.075584 -0.276145 0.282223 -0.137080 -0.257539 0.436740 0.143095 -0.222723 -0.287593 0.451377 0.006264 0.174668 0.443613 -0.246934 -0.002187 -0.129766 -0.072204 0.446507 0.183720 -0.310529 -0.333156 -0.391927 0.191069 -0.425408 0.275000 0.132628 0.343376 0.158226 0.255777 0.071358 -0.339819 0.209634 -0.492841 0.170990 -0.080879 0.189427 0.011054 -0.009718 -0.465837 -0.479871 -0.479526 -0.436328 0.240173 -0.207174 0.401674 -0.284259 -0.271782 -0.212880 -0.090470 0.422436 0.497268 -0.238035 0.272467 -0.397702 0.322577 0.228117 -0.016104 -0.205297 -0.191022 -0.510139 -0.332358 0.191831 -0.033553 -0.294440 0.249641 -0.298754 -0.145758 0.041424 0.089453 -0.469945 0.441693 -0.218004 0.312656 0.453278 -0.484715 -0.273256 -0.128380 -0.394531 0.441947 -0.257666 0.283479 -0.180537 -0.465777 0.019601 -0.058108 0.164358 -0.071883 0.457048 -0.484107 0.261635 -0.265385 -0.514179 -0.094727 0.401520 -0.497932 -0.153991 0.035982 0.143894 0.087700 -0.016150 -0.019388 -0.112298 0.088661 -0.175180 0.307469 0.103997 -0.472219 0.215215 -0.188400 -0.230494 -0.157949 -0.045587 0.321877 0.275731 0.438690 -0.437978 -0.321445 -0.394939 0.256369 0.040246 0.190801 -0.184904 -0.341069 -0.311466 0.166587 0.127402 0.439736 -0.321486 -0.038693 0.171911 -0.364973 0.444381 -0.111774 -0.080113 -0.143799 0.133957 0.100859 -0.268632 0.398620 0.290856 0.043740 0.057841 -0.091612 0.260509 0.394274 -0.408227 -0.303826 -0.167111 0.250647 0.306713 0.274084 0.464056 -0.250276 -0.412077 -0.342746 0.234614 0.284622 0.175819 0.136532 0.156275 -0.226190 -0.359589 0.291666 -0.079011 -0.266677 0.368328 0.385089 -0.131828 -0.315669 -0.221657 -0.423809 -0.075564 -0.425238 -0.173756 -0.307425 -0.220250 -0.285911 0.148869 0.360418 0.304306 -0.342194 0.398412 0.252630 -0.376896 -0.148143 -0.238347 -0.119001 -0.059074 -0.383187 0.333024 -0.009934 -0.023450 0.160657 -0.471404 0.445757 -0.027476 0.207402 -0.231347 -0.075018 0.380539 0.493029 -0.303690 -0.071653 0.096561 -0.065932 -0.005861 -0.404902 -0.320608 0.058372 0.419721 -0.116936 -0.243594 -0.175380 -0.122697 -0.390058 0.318623 -0.119027 0.004024 -0.325788 0.112222 0.029282 -0.433408 0.158715 0.107313 0.199108 0.330609 -0.362508 0.328083 -0.174239 -0.029975 -0.159500 0.467928 0.062330 0.203172 0.181569 -0.114476 -0.067052 -0.252947 0.073288 -0.436714 -0.059697 -0.404206 0.183934 0.180046 0.409235 0.425379 -0.518803 0.204117 0.360511 0.095644 -0.126287 -0.374517 0.102390 -0.336982 0.424037 0.412999 0.257291 -0.402745 -0.244720 0.305845 -0.504038 -0.143796 0.140202 0.199783 0.006195 0.026921 -0.412262 -0.384442 -0.197148 -0.074250 -0.148559 -0.116049 -0.363146 -0.165119 -0.012536 0.284494 0.135164 -0.440309 0.446566 -0.452682 -0.028519 -0.512423 0.254813 -0.427671 -0.344891 -0.323559 0.364004 0.161182 0.433085 -0.166222 -0.490719 -0.092144 -0.358346 -0.358347 -0.121661 -0.251275 -0.155292 0.468139 -0.471969 -0.421458 0.055295 -0.000687 0.008574 0.366173 -0.248674 0.396897 -0.247056 -0.511313 0.219699 0.109358 0.031354 -0.464634 0.128232 0.450566 -0.183232 -0.139491 0.358582 -0.453760 0.099548 -0.332425 0.404104 -0.214923 0.101248 0.222134 -0.283499 -0.246920 0.062568 -0.241346 -0.449390 0.030434 0.102131 -0.037824 0.214633 -0.214507 -0.127824 -0.070184 0.486733 -0.366218 -0.206430 0.241727 -0.387036 0.418483 0.471832 -0.383547 0.090204 0.007889 0.403965 0.337064 0.023876 0.393076 -0.470740 -0.059768 0.107593 -0.256252 0.228237 -0.036156 0.431904 0.407734 0.220030 -0.047896 -0.322137 -0.236054 0.320564 0.362054 -0.097321 0.408390 -0.281802 0.174952 -0.018186 0.467351 -0.093424 0.011892 0.157886 0.434212 -0.473184 0.298589 -0.115892 -0.016956 -0.406730 0.012962 0.212775 0.364374 -0.211805 0.380857 -0.328825 0.390157 0.343853 0.159354 0.341826 -0.369547 0.104240 0.007663 -0.152043 -0.038521 -0.140925 -0.207620 -0.404507 -0.308537 0.484120 0.123262 -0.390077
0.051850 0.182571 -0.248668 -0.108513 0.359945 0.057138 -0.498359 0.163459 -0.022981 0.090528 -0.456881 -0.495585 -0.421070 0.052526 -0.434952 0.276112 0.094938 0.257424 -0.459522 -0.421701 -0.196922 -0.018427 0.115323 -0.142132 -0.116100 -0.006967 0.244007 0.429463 -0.243918 0.339433 -0.188431 0.074874 0.321453 0.468107 0.475776 -0.238121 -0.065725 0.051301 0.371718 0.144397 -0.361638 -0.293615 0.486254 0.482570 0.125860 -0.404945 -0.109650 0.298248 0.178714 -0.042696 -0.344277 -0.021422 -0.363128 -0.160707 0.310582 -0.230760 0.088948 -0.445694 -0.112278 -0.259866 -0.386097 0.289749 0.448534 -0.068872 0.296095 0.089611 0.495604 0.189215 -0.273437 0.339806 -0.240866 -0.018131 -0.437466 0.202360 -0.420993 0.171955 0.005428 -0.399835 0.393646 -0.178845 -0.137007 0.350838 0.166538 0.070335 -0.421294 -0.314203 0.201128 0.198627 0.397590 -0.465365 0.256777 0.036805 -0.502001 -0.349704 0.398875 -0.414718 0.476365 0.445486 0.481385 -0.100121 0.334833 0.307728 -0.369586 0.297546 0.170641 0.376879 -0.035034 0.072078 -0.494905 -0.336541 -0.372456 -0.027170 0.310232 -0.173269 0.402710 0.167533 0.386925 -0.093493 -0.331905 -0.396294 -0.190785 0.007495 0.017500 -0.073756 -0.352250 -0.295705 0.322625 0.289276 -0.454658 0.316658 -0.183019 0.319898 0.234108 -0.394283 0.360451 -0.128658 -0.455993 -0.334155 -0.242300 -0.157658 0.125560 0.295680 -0.459738 0.310812 -0.139372 0.388782 -0.194876 -0.173705 0.356370 -0.335452 0.182869 0.285841 -0.323854 -0.140037 0.282461 -0.433174 0.208090 -0.170120 -0.225746 -0.328902 0.427375 -0.378373 -0.453021 0.238650 0.072848 -0.270126 -0.074585 0.141560 0.149223 -0.226847 -0.396693 -0.245463 0.329143 -0.128153 -0.137151 0.024725 -0.235757 -0.329366 0.125733 0.012849 0.102961 0.453143 -0.506790 -0.387014 0.033393 0.443673 0.347984 -0.450750 -0.361088 -0.276696 -0.491688 -0.092894 0.292551 -0.162695 0.462870 -0.178596 -0.338168 0.323886 0.180538 0.252877 -0.471889 0.067162 -0.168889 -0.172683 -0.362872 -0.365554 0.177797 0.349432 0.404542 -0.221216 -0.209172 -0.254933 0.244035 0.176012 -0.206481 0.452859 -0.253159 0.286966 -0.339269 0.414358 -0.466397 -0.027485 0.007997 0.162469 -0.319717 0.133064 -0.432234 -0.517791 -0.088056 0.334019 -0.173576 -0.386777 0.135447 0.120291 0.101775 0.106073 0.246998 0.278429 -0.418001 0.053519 -0.350320 0.426923 -0.157818 -0.113696 0.083526 -0.278470 0.407722 0.455931 -0.284819 0.144953 -0.015434 0.283958 -0.377794 0.233567 -0.443806 0.405369 0.491285 -0.097319 0.117438 0.398386 0.324686 -0.335701 0.030056 -0.416119 -0.381916 0.104402 -0.283751 0.325019 -0.076039 -0.323859 -0.300426 0.048258 -0.306543 0.169213 0.344290 0.192806 0.063477 -0.296241 0.383558 -0.437327 0.342621 -0.021903 -0.238296 0.296288 -0.176923 -0.169604 0.303741 0.412356 -0.362040 -0.158886 -0.408966 -0.067884 -0.135727 -0.150860 0.040627 -0.543284 0.372887 -0.054088 -0.020399 0.395645 -0.239569 0.085252 -0.153174 -0.500580 0.101003 0.421777 -0.234786 -0.305790 0.060523 0.438042 -0.520783 0.154288 -0.193723 0.350466 0.423930 -0.302836 0.414126 -0.203882 0.410383 0.466871 0.185613 0.051058 0.297122 -0.266175 -0.488225 -0.151536 -0.524225 -0.066808 0.070036 -0.266409 0.418070 -0.225008 0.289363 -0.353957 0.149780 0.089001 0.027828 0.113536 0.167245 -0.469923 0.068783 -0.447958 -0.349642 -0.202248 -0.295545 0.003211 0.306420 -0.171438 0.467685 0.466991 0.056692 0.077961 0.360086 0.391597 -0.192229 -0.296153 -0.392796 0.405253 0.306309 0.365126 -0.387631 -0.541544 -0.047464 0.003523 0.002474 0.345482 0.027581 0.051241 0.416847 -0.019550 -0.309845 -0.201465 -0.343506 0.356569 -0.198714 0.420904 0.209893 0.358130 -0.425201 0.428423 -0.457855 -0.330234 0.117148 0.146791 0.022253 0.219143 0.368370 -0.471453 0.008422 0.304923 -0.087033 0.178807 0.131876 -0.488675 0.282536 -0.037156 0.377506 -0.289644 -0.442235 -0.072862 -0.330158 0.212346 -0.177239 -0.159773 -0.365920 -0.306595 -0.346417 -0.203418 -0.272473 -0.174374 0.028752 0.322326 0.187503 0.381328 -0.100523 -0.367030 -0.494872 0.181384 -0.200413 -0.340652 -0.306635 -0.268568 0.225960 0.069090 0.404350 -0.062202 -0.195470 -0.214137 -0.439541 0.158042 -0.174276 -0.340804 -0.207179 -0.469579 0.117568 0.091964 0.415443 -0.236971 -0.164062 -0.346480 0.446910 0.398011 -0.024301 0.311078 -0.365454 0.133018 -0.052285 -0.228485 0.272712 0.108381 0.364311 0.137741 0.070639 -0.120052 -0.093607 -0.269777 0.240705 -0.272710 0.250910 0.182268 -0.042151 -0.429738 -0.448329 -0.349148 -0.203910 0.409596 -0.084025 0.114531 0.032118 -0.236574 0.080559 0.033853 0.271033 0.403566 -0.234148 0.191405 0.398292 -0.122685 -0.424933 0.158465 -0.113525 0.048169 0.306476 0.050128 0.058370 -0.391188 -0.382006 0.412622 -0.031149 -0.399358 0.404987 -0.372552 -0.026376 -0.202278 -0.255777 -0.097909 -0.401027 -0.540487 0.223476 0.264683 0.007581 0.257991 -0.237806 0.192318 -0.027642 0.105946 -0.365436 -0.140477 0.182321 -0.188229 -0.449453 -0.283519 -0.490040 0.443860 0.149969 -0.092556 0.191533 -0.453064 -0.461073 -0.196826 0.421603 -0.139151 0.013023 -0.474634 0.027584 -0.265516 -0.310243 -0.298980 0.266599 -0.058210 -0.431246 0.226227 -0.490607 -0.082166 -0.329129 -0.177276 0.162485 -0.486297 -0.122193 -0.329072 -0.077440 0.286475 0.170897 0.074536 0.324924 -0.363037 0.245297 -0.295178 -0.305727 -0.173260 -0.492671 -0.362663 -0.511623 -0.307092 0.396914 -0.358447 -0.114511 -0.062560 0.060158 0.391298 0.051148 0.354643 -0.011170 0.015116 -0.018680 -0.441412 0.030450 -0.522866 -0.032833 0.398922 -0.117518 0.121838 0.029174 0.241333 -0.132517 -0.197609 -0.006468 -0.039847 -0.434509 0.468624 0.189837 -0.011132 0.299914 -0.276308 -0.314733 0.345132 -0.281175 -0.153716 -0.244319 -0.001398 0.216915 0.113396 -0.039351 -0.088120 -0.243486 0.279288 -0.001599 -0.092252 -0.472864 -0.238956 -0.158731 0.158941 0.385841 0.086553 0.329232 -0.388923 0.479342 -0.233068 -0.155768 -0.015241 -0.003910 0.403988 0.294074 0.421916 0.307444 0.041835 0.281828 0.256012 -0.519548 -0.287384 0.118466 -0.343355 -0.217537 0.442469 -0.273547 -0.056989 -0.431418 0.436540 -0.128977 0.232616 -0.204670 0.059885 -0.313722 0.330248 -0.043703 -0.326925 0.415286 -0.338583 -0.361020 0.031187 0.211035 0.246257 0.328491 -0.485428 -0.378740 -0.378470 0.416587 -0.235426 0.026642 0.168127 0.245105 0.044947 0.044464 0.123281 0.071517 0.107188 -0.372591 0.341222 -0.344261 -0.020022 0.053409 0.104652 0.256693 -0.226016 -0.384906 -0.235792 0.181344 0.038306 -0.076754 -0.085222 0.141995 -0.276928 0.062195 0.316953 0.189582 -0.485886 0.315965 0.078668 -0.012336 0.047685 -0.053550 -0.234438 0.212305 -0.134073 -0.129083 0.056902 0.288216 -0.261075 -0.212939 -0.422024 0.135065 -0.206251 -0.076281 0.082141 0.440460 0.222082 -0.353154 -0.357925 0.206224 -0.325223 0.279767 -0.088225 -0.438475 -0.314783 -0.465767 -0.445260 -0.095506 0.135419 -0.309909 0.111308 0.394453 -0.340224 -0.450739 0.414827 0.401093 -0.488102 -0.129540 0.437139 -0.092082 0.075825 0.298823 0.424508 -0.037334 -0.059940 0.325023 -0.262205 -0.300397 0.443827 -0.413564 0.266532 -0.281876 0.201328 0.367019 -0.300439 -0.337658 -0.171485 0.176178 -0.270064 -0.068833 -0.237573 -0.376601 0.317926 0.396981 -0.089413 -0.437253 0.399284 0.131805 0.059645 -0.161424 -0.333396 -0.446009 0.369494 -0.079136 0.328433 -0.366150 0.300255 -0.019652 -0.183269 0.337158 0.106240 0.284116 0.210260 0.062881 -0.034654 0.465115 -0.112011 0.093217 -0.094780 -0.471074 0.040514 0.432017 0.141984 -0.286983 -0.141565 0.460084 -0.326433 0.336163 -0.300339 -0.476122 0.070198 -0.051421 -0.458927 -0.463199 -0.008079 -0.223398 -0.001025 0.309990 0.342483 0.272170 0.418032 -0.350971 0.125826 -0.286273 -0.071010 -0.154259 -0.517931 -0.074637 -0.095891 -0.166143 -0.119571 0.404728 0.189590 0.377294 -0.264580 -0.196050 0.086327 0.380422 0.457998 -0.140513 -0.515924 -0.323207 -0.169669 -0.246382 -0.284999 -0.190493 0.025817 0.314427 0.385730 0.009616 0.065417 0.339392 0.404401 -0.362213 -0.008902 -0.405433 0.091640 -0.078273 -0.300162 0.314258 -0.376383 -0.185254 0.477771 0.011990 -0.405828 -0.146807 -0.158088 -0.403211 -0.372541 0.364620 -0.280955 -0.179960 -0.292690 -0.383521 0.300813 0.240404 -0.478545 -0.258492 0.191058 -0.102892 0.301050 -0.481936 0.061010 -0.451171 0.092834 0.152278 -0.166793 0.123087 -0.331205 -0.080189 0.147425 -0.402904 -0.409528 0.368144 0.398877 -0.052813 0.394403 -0.348238 -0.201107 -0.438499 0.374331 0.026926 -0.213558 0.303513 -0.426529 0.326491 -0.262472 -0.229075 0.158712 -0.202454 -0.009736 -0.062532 0.290194 -0.132715 -0.512579 -0.354965 -0.514537 0.316320 -0.247412 -0.128476 -0.062019 -0.164246 -0.124537 0.233102 0.242735 0.454768 0.384219 0.127283 0.019206 -0.180670 -0.186222 0.262881 0.325566 0.139597 0.286680 0.133134 -0.147658 -0.263176 -0.199092 0.112403 0.453450 -0.472134 -0.415762 -0.387789 -0.383891 0.476298 -0.364888 0.367069 0.035630 -0.012660 -0.245667 0.221220 0.056180 0.305332 -0.160633 0.067075 0.433868 0.254359 -0.121752 0.433683 -0.224465 0.178297 0.328336 0.360135 0.317362 -0.214831 0.021305 0.259237 0.392896 0.337107 0.395845 -0.039704 -0.105624 0.088903 -0.077208 -0.424039 0.198753 -0.426534 0.207290 0.470353 0.112523 -0.383628 0.275269 -0.173222 0.088156 0.224665 0.355540 0.066274 0.511970 -0.193439 -0.254256 0.241661 -0.304469 0.389491 0.464321 0.471881 -0.205362 -0.052437 -0.426076 -0.084342 -0.324020 -0.331764 0.373555 0.197672 -0.110560 0.144956 -0.495230 -0.123579 -0.416341 -0.185542 0.294179 -0.497962 0.195977 0.379585 -0.292173 0.442409 -0.410890 -0.193275 0.231240 0.224587 0.180143 0.094695 0.269829 -0.040167 0.281754 -0.223464 -0.335776 0.470775 -0.226346 -0.066022 -0.116015 -0.487490 0.412085 0.313803 0.189670 -0.286954 0.464693 -0.163270 -0.436784 -0.291116 -0.079181 0.116030 0.464392 -0.173896 -0.474208 0.230356 0.133480 0.110861 -0.242873 0.251682 0.228631 0.050111 -0.272999 0.489551 -0.143601 0.244475
