-0.068582 -0.444139 0.065019 -0.380364 0.091719 0.202798 0.278173 -0.071550 -0.411724 0.039125 -0.085689 -0.417300 -0.219965 0.325648 -0.431375 0.425828 0.426985 -0.260777 0.310660 0.111350 0.316493 -0.454076 0.278460 0.297507 0.275230 -0.230415 0.067661 0.062303 -0.072324 0.214608 -0.233277 -0.452490 -0.284431 -0.298655 0.328889 -0.027058 -0.250990 -0.497674 0.069071 -0.332826 -0.441969 0.225819 -0.294246 -0.378037 0.406140 -0.395032 0.066367 0.119200 -0.186257 -0.346180 0.059342 0.458882 0.450846 0.250728 -0.042436 -0.097713 -0.215708 -0.352893 0.151938 -0.111254 -0.198570 -0.146548 -0.158928 -0.485882 0.461142 0.260210 -0.437341 0.247474 -0.328568 -0.353718 0.444632 -0.357001 0.486441 0.291772 0.014818 0.149571 0.040461 0.245150 -0.243192 0.003576 -0.210099 0.004100 -0.141864 -0.331540 -0.387927 0.147300 0.453074 0.459022 0.295748 0.036705 -0.434023 0.498835 0.221478 0.453149 0.464713 -0.303322 -0.332943 -0.404191 0.158705 0.460500 -0.255977 0.200852 -0.216131 -0.260758 -0.137013 -0.289890 -0.035406 0.480812 0.064004 -0.176626 0.498582 0.103962 -0.202706 -0.031927 0.101591 0.463577 -0.013291 -0.470870 0.090536 -0.332302 0.464766 0.336986 -0.330323 0.102906 -0.415646 -0.172694 0.111638 0.330279 0.474172 -0.367591 -0.437938 0.381185 0.040742 -0.092290 0.221947 -0.397822 0.024525 -0.365748 0.427589 -0.087292 0.156455 -0.493242 -0.427331 0.449217 -0.237167 0.496840 -0.302189 0.150047 0.183876 0.129834 -0.323812 -0.158351 0.175933 -0.206023 -0.339934 -0.493862 -0.094053 0.167712 0.297471 -0.137140 0.229338 0.378797 -0.156909 0.201395 0.267963 -0.078208 -0.306950 -0.284752 0.025708 -0.109309 0.143856 0.293804 0.033595 0.071790 0.324997 0.325893 -0.433645 -0.187107 0.436004 0.103055 0.343480 0.004697 0.232447 0.394570 0.439418 -0.483780 0.280134 0.132685 0.339583 -0.027321 0.143245 0.454807 -0.105805 0.123224 -0.332837 -0.452603 0.062394 -0.210354 0.072005 0.399809 -0.402638 0.300434 -0.123787 -0.128313 0.308468 0.234627 0.180791 0.312989 0.012745 -0.259431 0.290869 0.209863 0.206180 0.345794 -0.417258 0.023548 0.290828 0.319165 0.262386 0.344391 0.012390 0.384266 0.182290 -0.354185 0.055794 -0.318546 -0.498037 -0.129973 -0.421218 0.005010 -0.088596 0.071582 -0.042247 -0.100277 0.007672 -0.030999 0.102145 0.413322 0.258321 -0.103147 -0.347071 0.167624 0.479742 -0.461766 0.413063 0.445373 -0.090953 -0.440889 0.300565 0.285206 0.425654
0.054093 -0.498125 0.183207 -0.377706 0.486479 -0.492093 0.280406 -0.050027 0.093417 0.134359 0.011952 0.244258 -0.372369 -0.484844 0.091019 0.197673 -0.320229 0.075052 -0.138132 0.049772 -0.152687 0.293139 0.399962 0.366371 -0.057541 0.142787 -0.191772 0.107089 0.057184 0.159356 0.136936 -0.243210 -0.329495 -0.150817 -0.316083 0.128529 0.340415 -0.285145 -0.244659 0.261394 -0.179021 -0.252789 0.134496 0.095014 0.042711 0.400347 -0.434140 0.042452 -0.270188 -0.266463 -0.126418 0.161741 -0.253639 0.373559 0.358863 -0.159578 0.087006 -0.273009 0.322577 -0.156089 -0.252470 0.178696 0.232448 0.049220 0.121901 0.223445 0.267824 -0.150597 0.186915 0.209408 0.488991 0.047113 0.155258 -0.423343 0.375667 0.316029 -0.359226 -0.206524 -0.089177 0.234588 0.430815 -0.007146 -0.452561 -0.113144 -0.129890 -0.167521 0.284030 -0.344012 0.358427 0.292771 0.040820 -0.086066 -0.401409 -0.426750 0.366060 -0.156140 -0.375371 -0.305160 0.462260 0.180327 0.314987 -0.106703 0.173983 0.404877 0.471480 0.297843 -0.263484 -0.429570 -0.149442 -0.126352 -0.482710 0.206324 0.353799 -0.433267 -0.412038 0.359204 0.078846 0.478541 -0.364590 -0.239074 -0.293899 -0.112729 -0.332774 0.324269 0.137612 -0.377921 -0.297129 0.158292 0.412443 -0.139095 -0.283005 0.001219 -0.375908 -0.186720 -0.150086 -0.101820 0.206077 -0.114487 -0.437455 -0.351287 -0.136291 0.053448 -0.188432 0.449384 -0.393176 0.118874 -0.427381 -0.313050 -0.286233 0.257537 0.361860 0.445951 -0.360734 0.222559 0.110842 0.376338 -0.244383 0.046930 -0.459070 0.331246 0.375778 0.042640 0.419720 0.260655 -0.214731 0.145764 -0.174310 0.121758 -0.136489 0.261287 0.218022 -0.121534 0.465689 0.426281 0.242029 0.099002 -0.305193 0.188799 -0.073512 0.292147 0.314840 -0.389870 0.396912 0.039299 -0.366028 -0.312234 -0.134749 -0.329221 0.353206 0.043044 -0.104220 -0.284812 -0.080804 -0.131418 -0.410692 -0.394942 0.206385 0.226322 -0.351820 -0.108695 -0.116629 -0.447525 -0.401374 0.342411 -0.440657 -0.258476 0.319366 0.390455 0.113189 -0.188161 0.375479 0.202118 0.456211 -0.128627 -0.395492 -0.365211 0.066772 0.149120 0.097258 -0.426689 0.068720 -0.428694 0.272416 -0.254060 0.319694 -0.293863 0.188933 -0.426109 0.159980 0.137599 -0.083209 0.033518 -0.012720 -0.467305 -0.440704 -0.257363 -0.442596 -0.460980 -0.410652 -0.333139 0.248778 0.036813 -0.045590 -0.257231 -0.246373 0.098893 0.342014 0.183445 0.292477 0.096909 -0.204140
0.240333 -0.014509 -0.456105 -0.473825 0.080253 -0.112757 -0.488203 -0.227100 -0.286734 -0.092962 0.020050 0.430739 0.246404 -0.305288 -0.080065 -0.055530 0.372954 0.434480 0.015889 -0.454991 0.134116 -0.177609 0.284536 0.296058 -0.215742 0.012929 -0.220830 -0.027068 -0.040529 -0.398360 0.063673 0.308373 -0.138361 -0.040967 -0.095527 0.099374 0.170334 0.108464 0.283338 -0.115785 0.464593 -0.333267 0.295066 -0.295631 -0.411222 0.116569 -0.195270 -0.297991 -0.042308 -0.188805 0.111248 -0.283458 -0.122884 0.037951 0.079746 0.392827 0.130595 -0.183745 -0.129315 -0.097978 -0.093643 0.018777 0.048720 0.093741 -0.292676 -0.151615 -0.251864 -0.224138 0.355252 0.151815 -0.197934 -0.072279 -0.262270 0.362580 -0.306556 0.081364 0.052586 0.006034 -0.427918 -0.156852 -0.444896 -0.023881 -0.153800 0.179902 -0.019131 0.168648 -0.185006 0.106026 0.289845 -0.280803 -0.328590 -0.086110 0.464068 0.183104 -0.452416 0.069592 0.030394 0.493604 -0.218559 -0.006507 -0.206965 0.061892 -0.372682 0.485636 0.125775 -0.029623 0.033583 -0.189376 0.325658 -0.252280 0.138461 0.178043 -0.364180 0.106214 -0.344456 0.127740 -0.326733 0.352749 -0.160680 0.169043 -0.159577 0.247041 0.163737 -0.435455 0.466218 0.039549 -0.340522 -0.074921 0.075191 -0.204177 -0.344806 -0.135848 0.442726 0.453485 -0.175560 -0.458149 -0.338070 -0.010935 -0.477626 0.208833 -0.317261 0.023337 -0.171854 -0.203019 0.012580 -0.465938 -0.445201 -0.360653 -0.331867 -0.015803 0.286308 0.187299 -0.290745 0.266751 -0.230381 -0.470827 -0.353896 0.279562 -0.083859 0.356012 0.415693 0.320138 -0.085513 0.227747 -0.200074 -0.150608 0.335703 0.420943 -0.026091 0.198924 -0.063171 -0.142012 -0.228928 -0.115934 0.185542 0.040043 0.107037 0.283774 0.077593 0.218595 0.474212 0.196324 0.004992 -0.083799 0.328758 -0.468588 -0.488365 -0.109390 -0.166144 -0.314774 0.214479 -0.462249 -0.469568 -0.013130 0.251290 -0.182426 0.014754 0.437733 -0.247549 -0.318852 -0.363394 -0.179604 0.104096 -0.432397 -0.354617 0.319111 -0.079101 0.017396 0.168568 -0.417455 0.489488 0.391128 0.155119 0.432719 -0.034446 0.252747 0.407069 0.094678 0.126815 0.435971 0.078061 0.476080 0.038681 -0.105277 -0.484034 -0.194149 0.084799 -0.497400 -0.243139 -0.436824 -0.430416 0.296542 -0.095636 -0.065100 -0.031628 0.183645 -0.033708 0.128789 0.139090 0.060906 -0.012803 -0.268624 -0.433981 -0.066820 0.461107 -0.381742 0.269905 0.013506 0.470582 -0.453919 0.196863
-0.317838 -0.247265 -0.074109 0.162313 0.144279 0.275256 -0.436976 -0.255712 -0.257231 -0.219899 -0.209735 0.408663 0.345167 0.420749 -0.414204 -0.281677 -0.280161 -0.131898 -0.464034 -0.383394 -0.199328 0.268229 -0.395151 0.069619 0.302767 -0.209457 -0.266060 0.336327 -0.157598 0.431590 0.393922 -0.185031 -0.487222 0.408121 0.322247 -0.323017 -0.407084 -0.166677 -0.187699 0.474559 -0.263824 0.266045 0.343052 -0.489782 -0.360276 -0.100334 0.466510 -0.120969 0.351749 0.097591 -0.179099 0.000806 -0.410712 0.282319 0.262851 -0.451642 0.263269 0.139824 0.037122 0.253499 -0.243675 0.230458 -0.115249 0.115368 -0.195165 -0.008392 0.140446 -0.194500 -0.258438 0.103104 0.011181 0.111538 0.311717 -0.431414 0.279740 -0.024858 0.260779 -0.171686 0.043053 0.457863 0.479597 -0.311314 0.015088 0.454492 -0.070235 0.058302 -0.135609 0.195843 -0.475576 -0.228428 -0.411164 -0.457132 -0.101768 0.197424 0.362511 -0.434541 0.086639 -0.441410 0.431804 0.330678 -0.354442 0.115614 0.236557 0.367314 -0.028081 -0.365302 -0.044548 0.460220 -0.025383 0.093000 -0.191192 -0.489464 -0.132658 0.399150 -0.241955 0.391761 0.294777 -0.397324 0.146578 -0.383707 0.450799 -0.159576 -0.336304 0.087711 0.398294 -0.034405 0.051009 -0.352886 -0.091851 -0.041775 0.092685 -0.335375 0.468735 -0.390219 0.246610 -0.172013 0.480849 -0.470116 0.088570 0.237359 0.159712 -0.212451 0.317749 0.124280 -0.244623 -0.224620 0.150740 -0.261642 0.078263 -0.091204 -0.384732 0.079214 0.263488 -0.045352 -0.409761 0.214102 0.445537 -0.211980 0.255640 -0.300530 -0.223928 -0.313433 -0.477492 -0.424178 -0.467137 -0.201524 0.107442 0.066706 0.437596 -0.259972 -0.324315 0.033545 -0.087789 0.172072 0.321517 0.435876 0.407895 0.308056 -0.048165 0.270116 -0.331975 0.396680 -0.244944 -0.388870 -0.344317 -0.149443 -0.435992 0.298217 0.030648 0.220983 0.007673 0.423200 0.475914 0.154670 0.228262 0.083496 0.459897 -0.200782 0.185740 -0.499070 0.241456 -0.131936 -0.271653 -0.424656 0.429924 -0.452863 0.198730 0.318309 0.067854 -0.071520 0.023156 0.385559 -0.466459 0.383661 -0.101799 -0.126005 0.380109 0.471511 -0.280255 0.301730 0.483997 -0.076063 -0.183034 0.042887 0.297988 0.488677 0.298783 0.231351 -0.390426 -0.371763 -0.448621 -0.352537 0.308888 0.111306 0.065191 0.309691 0.335273 0.039116 -0.105213 -0.191765 0.302604 0.248833 0.279650 -0.469992 -0.009946 0.467263 -0.233687 0.402115 -0.162819 -0.039123 0.397272
0.344658 -0.429851 0.433611 0.145479 0.434855 -0.414573 0.144044 0.345755 -0.201880 -0.495789 -0.207928 -0.275833 0.251111 0.485209 0.001125 -0.497346 -0.046752 -0.333642 -0.276043 -0.158771 -0.355434 0.106732 -0.282755 -0.219779 0.490298 -0.085751 0.428473 0.271377 -0.415701 -0.175784 -0.029676 -0.316690 0.187153 0.285068 0.268064 -0.223769 0.158268 0.397132 0.193653 -0.097694 -0.083089 -0.117823 0.324919 0.436598 0.354179 0.449616 0.441510 -0.164022 -0.044376 0.289855 0.459355 -0.323640 -0.489921 0.339988 0.183488 0.303211 -0.293683 0.495756 0.334812 -0.458976 -0.233319 0.104344 -0.009916 -0.181135 0.144134 -0.125710 -0.396552 -0.017357 -0.347453 -0.439780 -0.247387 0.242138 0.312493 -0.127118 0.087872 0.139040 0.176531 -0.210402 -0.451425 -0.266928 -0.274572 0.375634 0.082148 -0.328387 0.059613 0.276294 -0.189313 0.013889 0.362435 0.135884 -0.325752 0.273673 0.081197 0.114056 0.047654 -0.199333 -0.158262 0.029802 0.162056 -0.090970 0.169390 -0.389492 -0.026449 -0.405348 -0.354909 0.102688 0.015030 -0.136189 0.324697 -0.077947 0.423700 -0.399894 0.242908 -0.410733 -0.186374 0.248204 0.483009 0.378315 -0.094358 0.094635 -0.110228 0.231803 0.317982 0.269382 -0.461916 -0.128779 0.159607 -0.398012 -0.421937 -0.209951 -0.165950 0.105392 0.287274 -0.252285 0.295771 -0.208618 0.220733 0.089177 0.452415 -0.013232 -0.436038 -0.035950 -0.361066 0.270817 0.426092 0.477318 -0.190929 0.204160 -0.251511 0.111085 0.318457 0.119578 -0.361476 -0.041406 0.087160 -0.120140 0.464690 -0.408730 0.481406 -0.354887 0.068064 -0.162287 0.327417 -0.014690 -0.296763 -0.134344 0.260027 0.104899 0.011145 -0.330730 0.447519 0.064282 -0.007527 0.324464 0.328506 -0.292130 0.329464 0.353758 0.041470 0.007335 -0.491105 0.022815 0.006315 -0.343686 -0.201464 -0.079406 0.347999 -0.479862 0.201771 -0.411303 0.327199 0.462914 0.400221 0.142967 -0.420934 0.118847 0.161353 0.359444 0.367974 0.383507 0.148782 -0.427576 0.142017 -0.464869 0.239718 0.325837 -0.334575 0.265869 -0.399902 0.278386 -0.402394 0.428219 -0.488748 0.159945 0.098632 0.280106 -0.178056 0.292445 0.122403 0.270631 -0.320582 -0.235920 -0.491000 0.191514 0.434524 0.130987 0.029902 0.299223 -0.258190 0.252349 -0.466862 -0.312935 0.229979 -0.451642 0.409379 0.206979 0.160094 -0.345170 -0.358600 0.383987 0.205562 -0.028057 0.194650 -0.317749 -0.097452 -0.400213 -0.092171 0.022249 -0.226268 0.023689 -0.006308
0.250138 0.276631 0.136170 0.429002 0.260172 -0.424379 -0.253023 0.012871 0.397730 -0.226709 0.365138 0.173979 0.102542 -0.320019 0.095275 0.274729 -0.184819 -0.384804 -0.193117 0.377506 0.031173 0.148554 -0.070084 0.140159 -0.096448 0.304132 0.291857 -0.431741 0.408594 0.284096 -0.288252 -0.081087 0.017142 -0.199283 0.357992 -0.363862 -0.498488 -0.284832 0.084935 -0.424858 0.100760 -0.317479 0.176668 0.079343 -0.301789 0.240745 0.182381 0.063001 0.296826 0.156314 -0.364526 0.092894 -0.042896 -0.433394 0.104643 -0.239343 -0.066138 -0.217080 0.329732 0.465982 0.257523 -0.229167 -0.234464 0.068310 0.144432 -0.273494 0.010476 0.448593 -0.177047 0.045628 -0.170577 0.435330 0.260014 -0.015680 0.039566 -0.020090 -0.491443 0.066330 -0.035284 -0.068581 0.498098 -0.413341 0.346601 0.066459 -0.214000 0.416573 0.322702 -0.193188 -0.160916 0.434379 -0.133030 0.378605 0.323556 -0.183408 0.293111 0.240144 -0.314524 -0.410948 0.217933 -0.003716 0.113056 -0.227228 -0.382771 0.446605 -0.149038 -0.025994 0.075577 -0.489887 0.268197 0.400652 -0.319753 -0.230205 -0.472675 0.128605 -0.132361 0.100013 0.128855 -0.095467 -0.217481 0.209836 0.411647 0.087231 -0.401078 -0.032293 -0.028618 0.174927 0.397590 -0.017791 0.216908 0.246300 -0.121695 -0.073095 -0.269642 0.363883 0.168533 -0.246889 0.357439 0.419824 0.259765 -0.130892 -0.356366 -0.117507 0.061145 -0.216510 -0.326616 0.113262 0.401126 0.256553 -0.486680 0.055773 0.325707 -0.491627 -0.374064 -0.275711 0.493706 -0.020627 0.129667 0.095752 0.262103 -0.007736 0.084665 -0.222088 0.350077 -0.030024 0.306536 -0.206231 -0.277274 -0.024366 0.268567 -0.046933 0.384653 -0.338634 0.236031 -0.345252 0.017815 -0.016224 0.284321 0.338402 -0.347065 0.250694 -0.102339 0.403556 0.256232 -0.462309 -0.424593 -0.242628 0.011136 -0.417588 -0.335084 0.359590 0.149554 0.288279 -0.362770 0.312741 -0.128467 0.499371 -0.016610 0.090589 -0.203757 0.323891 0.272790 -0.067871 -0.204411 -0.405472 -0.121522 0.019702 0.312682 -0.453538 -0.478153 -0.019359 -0.011534 -0.408835 -0.349926 -0.238352 0.404051 0.004045 0.126287 -0.317592 0.194174 0.300098 0.489192 0.231705 0.279060 -0.196445 0.498686 0.084092 -0.151986 0.133125 -0.219615 -0.447938 -0.251998 -0.092118 0.264989 -0.221962 0.387062 -0.262565 0.399657 -0.476449 -0.091089 -0.305628 0.330164 0.115067 -0.052341 -0.193744 -0.308849 0.227520 -0.066379 -0.028784 -0.151245 0.088508 -0.387680
-0.079702 -0.493736 -0.078066 0.458362 -0.018040 -0.209618 0.342911 0.250529 -0.049657 -0.182663 0.057078 0.322180 -0.054070 -0.256754 -0.068215 0.411185 0.426550 -0.027174 0.067987 0.050418 -0.096216 0.015903 -0.306609 0.353702 -0.037422 0.212502 -0.056170 0.395249 0.450864 0.044634 -0.458281 0.340534 -0.496474 0.365800 0.342422 0.361803 -0.100088 0.188940 0.201398 0.115194 -0.415818 -0.061851 -0.219852 0.419836 0.327721 0.303046 -0.288007 -0.064083 0.066424 -0.245019 0.094651 0.224776 -0.028616 -0.029604 -0.147206 0.379417 -0.290531 0.169202 -0.446495 -0.311675 -0.008031 -0.405512 0.056427 -0.340557 -0.077127 -0.205189 -0.439769 -0.007338 -0.265631 -0.220687 0.108395 -0.270729 -0.285348 -0.055067 0.030593 0.285185 0.372200 -0.002350 -0.483993 0.051698 0.424681 0.474645 0.278614 -0.432569 -0.233585 -0.330959 0.178512 -0.259015 -0.280985 0.386436 -0.193290 0.036273 -0.074007 -0.059554 0.480262 -0.311439 -0.154296 -0.197486 0.183392 -0.479860 -0.498186 0.034925 -0.185377 0.249272 0.349903 0.147949 0.166515 0.022290 0.457006 0.078582 0.172043 0.157720 -0.485882 -0.417906 0.154998 0.340612 0.262856 0.323976 0.308311 -0.193626 0.179121 0.085031 0.494831 0.290748 0.439305 -0.197766 -0.054946 -0.060102 -0.031790 0.262502 -0.486383 0.265748 -0.376157 0.167546 -0.293710 -0.272821 -0.172672 -0.052413 0.476123 -0.190379 0.438156 0.330831 -0.461355 0.487553 0.195906 0.236294 -0.368105 -0.240996 0.171573 -0.077043 -0.184330 0.045574 0.335660 0.034222 0.099608 0.297610 0.256415 -0.220934 0.217875 -0.092013 0.068155 -0.116284 -0.280290 0.289286 0.018482 0.397813 -0.390483 0.046644 0.228829 0.469962 0.336485 -0.038660 -0.166641 -0.072642 0.426731 -0.125972 -0.095857 -0.280834 -0.050578 0.002618 0.161037 0.058036 -0.030506 -0.237118 0.179344 -0.471983 0.050913 -0.305397 0.267483 -0.054548 0.408174 -0.465966 -0.300223 -0.225504 -0.179439 0.297349 -0.006198 0.498143 0.375824 0.436771 -0.066075 -0.171969 0.404555 0.461728 0.376294 -0.427161 -0.063990 0.398857 -0.033712 0.087012 -0.308098 -0.102857 0.138275 0.142785 -0.386619 -0.226057 0.020047 0.111272 -0.253310 -0.481789 -0.219847 0.274715 -0.401347 0.239169 0.294138 -0.045580 -0.370338 -0.287883 0.044474 0.226120 0.444572 -0.353862 0.136857 0.391553 0.065566 -0.341837 -0.412526 0.471256 -0.239173 -0.361333 -0.319192 0.423670 0.378647 0.203305 -0.366723 0.485751 -0.456889 -0.322835 0.310258 0.007337 0.112484
-0.127589 0.377458 -0.317665 0.385708 0.391708 0.275225 0.262384 0.145645 -0.145797 -0.246001 0.194508 -0.242342 0.165277 -0.145294 0.000467 0.306846 0.036568 0.128832 -0.356770 0.125169 -0.434979 -0.052510 -0.376896 -0.481963 0.133379 -0.318278 -0.023300 -0.380339 -0.424755 0.480327 -0.067119 -0.100501 0.089749 -0.262093 0.446727 -0.106015 0.484219 -0.175680 -0.441448 -0.317349 -0.349036 -0.224597 0.094697 -0.413466 -0.154923 0.381661 0.045203 -0.210181 -0.089645 -0.162883 -0.245687 -0.155129 0.106527 0.325838 -0.068806 -0.142845 0.492506 -0.442221 0.479791 -0.434919 0.053335 -0.035927 -0.029726 -0.167151 0.301727 -0.114107 -0.242087 -0.431825 -0.291700 0.320790 -0.101769 -0.477436 0.130088 -0.334548 0.114358 -0.396012 -0.153516 0.152430 -0.086499 0.124462 -0.390849 0.272058 -0.024718 -0.192018 0.032272 0.080837 -0.405103 -0.498241 -0.393400 -0.228876 -0.256603 -0.262480 -0.014681 0.314588 -0.487618 -0.133352 0.309980 0.311442 0.048774 0.000482 0.312027 -0.147220 0.310083 0.057717 0.033664 0.306597 -0.476337 0.097744 0.433139 -0.400993 0.113975 0.236268 -0.472226 0.097932 0.495963 0.085260 -0.352106 -0.404293 -0.390047 0.256383 0.250333 0.208986 0.151871 -0.446612 -0.173720 0.382285 -0.013719 0.185992 -0.153887 0.026599 0.185019 -0.133977 0.132310 0.193641 0.005317 0.410577 -0.039714 0.298342 -0.073440 -0.078369 -0.124797 0.280234 0.006940 -0.008118 -0.417547 0.064520 0.141624 0.303804 -0.193190 0.274610 -0.266157 -0.254507 0.062446 0.469982 0.425538 0.126207 0.306336 0.168379 -0.342178 -0.340459 -0.042143 0.285580 0.083726 -0.438599 0.165651 -0.072592 -0.046907 0.375322 -0.234692 0.140818 0.480910 0.325129 0.258710 0.148050 -0.125319 0.073773 -0.417927 0.445462 -0.166152 0.243318 -0.296680 -0.312594 -0.259315 -0.178339 -0.485530 -0.126434 -0.425330 -0.036021 0.486394 -0.088101 0.381194 -0.191603 0.449976 0.384369 -0.281554 0.106887 -0.174231 -0.214776 -0.220276 0.451032 0.014181 -0.295212 0.289772 -0.449819 0.250783 -0.052957 -0.228576 0.106245 -0.340000 0.461292 -0.293009 -0.329655 0.437101 0.279247 0.171680 0.013578 -0.041790 -0.374182 -0.206562 0.448025 -0.348961 -0.039534 0.287272 0.327667 -0.073429 0.017235 -0.479829 0.237610 0.075220 -0.314811 0.015253 0.488504 0.367918 0.305579 0.143902 0.220853 -0.371429 0.280100 0.045735 0.311266 0.017730 -0.141829 0.018994 0.426117 -0.152462 -0.243391 -0.187794 0.219746 -0.476205 0.444428 -0.027375
0.373163 -0.166359 -0.465962 -0.431686 -0.267476 -0.020238 -0.152835 0.084874 0.110961 -0.369639 0.020080 0.464978 -0.369504 0.349983 0.475109 -0.150371 0.146952 0.163470 0.103778 0.095183 0.152518 0.494224 -0.440257 0.260250 0.005885 0.397868 -0.163860 -0.463735 0.373089 -0.093924 -0.011164 0.383577 0.029020 -0.216484 0.010438 -0.171835 0.053564 0.208477 0.341755 0.300051 0.424444 0.082834 0.068300 -0.443949 0.005180 -0.458591 -0.029572 0.452778 -0.346367 -0.142666 0.322301 -0.037263 -0.222493 -0.142592 0.273493 -0.421201 0.039892 0.379424 -0.022103 0.046193 0.176750 0.058221 0.275923 -0.465284 0.101259 0.376782 -0.185444 -0.261540 0.438101 -0.216869 0.475838 -0.201949 0.224388 -0.055116 -0.484421 0.107045 -0.167679 0.179216 -0.175364 0.048803 -0.086672 0.053060 0.197241 0.200130 -0.071946 0.474868 -0.308554 -0.236558 0.443901 0.344997 0.451554 -0.130907 0.404095 -0.164730 -0.386252 0.113267 0.120641 -0.187882 -0.221584 0.346364 -0.282778 -0.385755 0.147114 -0.072879 -0.267391 -0.008202 -0.301961 0.214909 -0.488083 -0.258540 0.272725 -0.084008 -0.433359 -0.442720 0.368400 0.272632 -0.270848 -0.123841 -0.296658 -0.404245 -0.414628 -0.335431 0.235272 -0.300250 0.263213 0.255756 0.088405 -0.212001 0.204279 0.022443 0.385848 0.171657 0.325681 0.413223 -0.170402 0.045121 0.115618 0.280732 0.308343 0.141608 0.335393 0.418363 -0.009747 0.055107 0.108865 -0.391869 -0.227611 0.209205 -0.436440 0.143000 0.330847 -0.237675 0.138235 -0.498291 -0.441760 -0.379753 -0.098902 -0.120134 -0.153593 0.220039 0.397930 -0.393339 0.495458 0.485262 0.195405 -0.422800 -0.279200 0.112047 -0.059416 -0.082521 0.377997 0.471114 -0.375828 0.238070 0.499327 -0.335448 0.126275 0.359027 -0.050272 -0.187258 -0.437577 -0.104293 0.035216 -0.123922 0.124192 -0.385811 -0.311703 -0.124428 -0.041005 0.388728 -0.196460 -0.223715 -0.336774 -0.329590 -0.420165 -0.386969 0.306045 0.479301 0.395120 -0.304542 -0.078365 0.483410 0.296933 0.292789 0.107711 0.161736 -0.438435 -0.173312 0.056891 -0.281303 -0.355826 -0.150805 -0.198824 -0.255406 0.450184 -0.455734 0.190361 -0.310394 0.274794 -0.100205 -0.024019 -0.349673 -0.126266 -0.425015 0.035923 0.274980 0.271406 -0.171226 0.298160 -0.316812 0.025380 0.486800 0.013082 -0.142710 0.073982 0.169412 -0.346285 -0.484231 -0.295300 -0.361753 0.192506 -0.071303 0.045152 -0.183936 -0.141730 0.404769 -0.276073 -0.062865 -0.423801 0.345196 -0.021414
0.206607 -0.029635 -0.446319 0.122857 0.215929 -0.464998 0.012625 -0.114190 0.220777 -0.159514 -0.343038 -0.252497 -0.118631 0.332266 -0.339399 0.049482 -0.402492 0.130757 -0.143204 0.128330 0.129830 -0.473015 0.283793 -0.317596 -0.300307 -0.340940 0.184820 0.054340 -0.226302 0.125370 -0.393124 -0.377308 0.017020 0.104741 -0.342778 0.130349 0.492495 0.162113 0.355198 -0.066148 -0.328449 -0.336976 -0.177046 -0.478772 0.212808 0.127134 -0.298058 -0.437369 0.046973 0.478907 0.195415 0.279179 -0.108321 0.229211 -0.279901 0.483841 -0.332319 0.362019 -0.231043 0.437003 -0.463177 -0.167316 -0.339304 -0.470411 -0.217015 -0.452799 -0.429569 -0.372198 0.429118 0.052535 -0.332437 0.448267 0.132552 0.276477 0.075154 0.314422 0.050605 -0.032375 -0.362461 0.074870 0.160924 0.107243 0.250499 -0.258219 0.210128 0.094081 0.236423 -0.333145 0.280144 -0.130239 0.429931 0.271009 -0.001455 0.245328 0.472121 0.138754 0.328172 0.410519 -0.317485 -0.367724 -0.394955 -0.210039 0.075496 -0.053334 -0.409945 -0.005967 -0.407182 -0.482456 0.233050 -0.016199 0.063396 0.157493 -0.006601 0.057097 0.004064 -0.183321 -0.368180 -0.455463 0.081953 -0.311342 0.193020 -0.406106 0.336967 0.398852 0.135585 0.443400 0.056365 0.256084 -0.368216 0.145706 0.426817 -0.413408 -0.191129 0.435958 -0.473763 -0.128118 0.040096 0.436661 -0.267088 0.441734 0.471296 -0.417338 -0.382844 -0.285169 0.340434 0.251908 0.475795 -0.491919 -0.465317 0.273510 -0.246255 0.315617 0.352019 0.324139 0.491801 0.356554 0.134054 0.298941 0.159223 0.390689 -0.273461 0.136507 0.332434 -0.079334 -0.112729 0.423628 0.316167 0.084761 0.074122 -0.014131 0.180240 -0.233467 -0.303099 0.450404 0.364632 -0.352663 -0.190058 0.235336 0.232635 0.363851 -0.245482 -0.415659 0.259000 0.275358 -0.129395 0.486081 0.485879 -0.109491 -0.191639 -0.493802 -0.403187 0.377312 -0.265117 -0.187030 -0.173748 0.197653 -0.063499 -0.324978 -0.490659 -0.464520 -0.154029 -0.446778 -0.076944 0.232474 0.476335 -0.047580 0.331429 0.177517 0.108589 -0.196441 -0.230035 0.398724 -0.484355 0.492717 -0.280342 -0.124761 -0.016639 0.170659 -0.030635 -0.069541 -0.399527 -0.393014 0.494942 -0.146318 -0.328309 0.446813 -0.267882 0.238042 0.471810 0.136180 -0.304081 0.297658 0.489282 -0.015447 -0.113264 0.141278 0.464411 0.478315 0.313555 0.474899 -0.272988 -0.231364 -0.344159 0.246221 -0.481186 -0.135782 -0.184080 0.197894 -0.461241 0.183316 -0.345152
-0.495045 -0.290352 0.441267 0.247359 0.138518 0.378027 0.305668 -0.370721 -0.135456 0.202582 0.151788 -0.317196 -0.005392 0.184369 -0.479656 -0.056424 0.207239 0.093427 -0.368019 -0.446521 -0.395149 0.119175 0.113956 0.414677 0.214087 0.328890 -0.444972 0.285116 0.364817 -0.085651 -0.093659 0.465059 -0.015030 -0.169013 0.465021 -0.474290 0.070864 -0.267521 -0.406896 -0.383872 -0.423533 0.367645 -0.052120 0.121536 0.368613 0.379906 0.461322 -0.163113 0.285891 -0.417670 0.016155 -0.385808 0.106148 -0.397895 0.144888 -0.326328 0.105895 0.062749 -0.363418 0.438704 0.040055 0.347067 0.001492 -0.369721 -0.182534 0.146380 -0.491452 -0.052723 0.137663 -0.041472 0.135257 0.353204 0.032553 -0.128444 0.376067 -0.373901 -0.443673 0.486627 0.361691 0.092958 -0.050891 0.381198 -0.141577 0.045453 -0.297301 0.142191 0.112098 -0.254177 0.162276 -0.276181 0.198519 -0.033581 0.293201 -0.351090 -0.371380 -0.100094 0.479341 0.112246 -0.000550 -0.087422 0.076524 -0.466555 -0.367814 0.006858 0.351437 -0.007194 -0.050544 0.349057 -0.165292 0.054194 0.113459 -0.358254 -0.372114 -0.335623 0.151250 -0.185179 -0.409789 -0.029136 -0.368131 0.115582 0.243883 0.217047 0.109049 -0.492299 0.403749 -0.305181 0.206730 0.221970 0.168895 -0.266565 -0.007469 -0.151751 -0.397625 0.308977 -0.057729 -0.411733 -0.391297 -0.374933 0.338955 0.041420 -0.028060 0.348787 -0.177023 0.455943 -0.371647 0.461855 -0.306458 -0.216180 0.370396 -0.074934 -0.397440 0.266800 0.317645 0.234853 -0.198530 0.392433 -0.298681 -0.319215 0.183764 0.250252 0.176079 0.296734 -0.064216 -0.390989 0.232313 0.318834 0.236410 0.018302 0.277361 -0.187995 -0.389270 -0.381232 -0.358102 0.477586 -0.378427 0.225451 -0.430480 -0.475011 -0.312317 0.265197 -0.469556 -0.411548 0.358933 0.483800 -0.165249 0.454131 0.138213 0.379356 0.099610 0.244037 0.482718 0.312765 0.478825 -0.410763 -0.289911 -0.203286 -0.261444 -0.186206 -0.335878 0.159768 -0.130383 -0.292536 -0.488955 0.141052 0.251567 0.341034 -0.439913 -0.485869 0.394499 0.178550 -0.145747 0.251924 -0.016796 0.168098 -0.261761 -0.321495 -0.080781 0.406634 -0.481406 0.342695 -0.280558 0.218757 -0.487287 -0.221870 -0.472915 -0.349873 -0.464820 -0.013987 -0.123171 -0.414698 0.118837 0.333258 -0.189898 0.190301 0.440226 0.127121 0.012119 0.323352 -0.223629 0.187974 0.379560 -0.092194 0.340577 0.362367 0.118288 -0.257886 -0.108848 -0.011378 0.221316 0.027935 0.466792
0.091771 -0.175119 -0.454811 0.408322 -0.352265 -0.096038 0.161831 -0.285911 -0.069229 0.000548 -0.166326 -0.415407 -0.259041 0.232955 0.289714 0.011954 0.075514 0.292144 0.271164 0.016877 -0.107229 0.247923 0.151572 0.258154 -0.388261 0.388520 -0.006717 0.007784 0.362904 0.229938 -0.046166 -0.062727 0.216585 0.353303 -0.275928 -0.374472 -0.234757 0.316916 -0.021954 -0.077647 -0.466191 -0.056493 -0.441356 -0.193147 -0.276387 0.077944 -0.077073 0.325937 0.372184 0.144662 0.357355 0.259558 -0.407890 -0.067687 0.235239 -0.359182 0.288387 -0.059546 0.007474 0.169733 -0.285631 -0.044374 0.357447 -0.423701 -0.183333 0.031268 0.250919 -0.272709 -0.011811 0.252974 -0.117832 0.452506 -0.242511 0.369024 0.469017 0.344329 -0.366436 -0.477241 0.198659 -0.129198 0.268317 0.421068 0.243451 0.004855 0.447671 -0.172321 -0.076222 -0.012581 0.116397 0.088829 0.317622 0.239117 0.469253 0.070620 0.333188 0.232731 0.036341 0.469778 0.143035 0.153328 0.390026 -0.171202 -0.245006 0.103014 0.488766 0.282041 0.283329 -0.207447 -0.184214 -0.227732 -0.136410 0.122338 0.394075 -0.008353 -0.142141 -0.198231 -0.424944 -0.045851 0.165293 -0.248747 0.367668 0.270544 0.325119 0.340673 -0.483367 0.373227 -0.354206 0.110193 -0.066943 0.207854 -0.053239 0.294841 0.073063 -0.071820 0.363335 -0.115209 -0.217033 0.414815 0.206707 -0.418086 0.467542 -0.356699 0.251860 -0.320046 0.043018 0.179924 0.224197 0.463103 -0.172986 0.184644 0.245290 -0.496534 0.354779 -0.307885 0.074295 -0.091131 0.384540 -0.240443 -0.384397 0.378484 -0.451278 -0.414689 0.109437 0.398815 0.421578 -0.283254 -0.178330 0.114683 -0.427027 0.479669 -0.402690 -0.409811 -0.076258 -0.366553 -0.497913 -0.131513 -0.168138 -0.100840 0.170935 0.409196 0.185565 -0.472093 0.280104 -0.351944 -0.273913 0.360170 -0.097132 -0.324043 0.166253 0.488263 -0.189527 0.280091 0.262164 0.010651 -0.318451 0.005747 0.051419 0.253367 0.279053 -0.057992 0.225030 0.008130 -0.050436 0.341761 0.299614 -0.403985 0.015049 0.240000 -0.005567 0.096400 -0.483468 0.247609 0.048012 0.440388 0.105050 -0.303523 0.376351 -0.337319 -0.103495 0.248326 -0.276007 -0.464073 -0.057584 -0.236799 -0.177979 -0.393300 -0.368127 0.068285 0.342807 -0.161833 0.074888 0.316707 0.279253 0.268724 0.461171 -0.305277 0.158993 -0.488521 0.070389 -0.208303 -0.365190 -0.232694 -0.169841 -0.483017 0.139221 -0.114844 0.061835 -0.112119 -0.170736 -0.029107 -0.424681
-0.048967 -0.012183 -0.200188 0.229321 -0.016430 -0.336950 0.189678 0.270314 0.463915 -0.095247 0.246232 -0.060976 0.449369 -0.365282 -0.186123 -0.350875 -0.001658 0.415004 0.156418 -0.291140 -0.398592 0.004264 0.421104 -0.094836 0.491495 -0.103470 -0.286850 0.472819 0.413931 0.369513 0.451021 -0.455930 -0.466059 -0.302362 0.299913 -0.260205 -0.059495 0.064558 0.314302 0.222673 -0.434046 0.258609 0.036032 -0.427655 0.347033 -0.271443 0.381190 -0.345464 0.063406 0.373439 -0.427642 -0.048968 -0.395269 0.341179 0.274742 0.312381 -0.462423 -0.161928 0.282084 0.257212 -0.063327 -0.253757 0.023270 -0.283305 -0.163611 -0.410965 -0.319756 -0.409321 0.021416 -0.184314 0.382521 -0.073771 0.389662 -0.475545 0.461074 0.148395 -0.255739 0.293062 -0.430017 0.314179 -0.320813 -0.086399 0.448098 -0.444524 0.357855 -0.022479 0.188426 -0.157915 0.037689 -0.129727 -0.489651 -0.073710 0.253477 0.368518 -0.060158 -0.161435 0.399250 -0.218706 0.078625 -0.058932 -0.463665 0.303723 0.152919 -0.262969 -0.413244 0.079198 -0.105441 0.112839 -0.153687 0.055811 0.493098 0.243100 0.243189 0.490903 -0.075827 0.294948 0.367825 -0.433330 0.183127 0.208328 -0.299606 -0.374143 0.374825 0.496297 0.161422 0.431411 -0.397630 -0.020137 -0.271448 0.177676 -0.232067 -0.317001 0.261801 0.277585 -0.411758 0.150498 0.442249 0.332672 -0.272720 0.402081 0.070235 0.160795 -0.292111 -0.117052 0.066384 0.055054 -0.405760 -0.286257 -0.265295 0.034109 -0.269025 -0.150801 -0.214589 -0.223684 0.426462 -0.359740 0.386124 0.272142 -0.466454 0.274926 0.121202 0.153993 -0.261445 -0.440517 0.083824 0.076764 -0.023234 -0.245512 0.009173 0.487374 -0.169914 -0.230536 -0.149264 -0.079515 -0.295055 -0.182190 0.212692 -0.068266 0.466670 0.161524 0.364881 -0.289056 0.476269 0.005578 0.338248 -0.206438 -0.113584 -0.394932 0.313995 -0.055499 -0.470505 -0.079964 0.175327 -0.144803 0.225448 0.348173 -0.147706 -0.182942 -0.073996 0.275604 0.194391 0.214651 0.277730 0.209240 0.080616 -0.189179 0.249667 0.019442 0.107238 0.002880 0.427414 0.401466 -0.202406 0.232584 0.326476 -0.125547 -0.322186 -0.273694 -0.279883 -0.357221 -0.045991 0.190417 -0.062489 0.176895 -0.418267 -0.354017 -0.027673 0.301193 0.251896 -0.430820 0.238598 0.492797 -0.488862 0.472709 0.311880 0.039614 0.472863 0.493818 -0.348794 0.481040 0.378202 -0.202862 -0.304718 0.007832 0.123456 0.004563 0.499349 0.216146 -0.184012 0.319028 0.327201
0.061603 0.157069 0.033269 -0.174854 0.072189 -0.473111 -0.164763 0.330129 -0.227483 0.493816 -0.441548 0.057145 0.230800 0.381761 -0.265223 0.298585 -0.019890 0.060076 0.145554 -0.354498 0.057464 -0.361871 0.362998 -0.116441 -0.485433 0.106611 -0.498631 0.326258 0.288454 -0.474833 -0.020749 -0.062578 0.134730 -0.270165 0.137037 0.333918 0.484183 0.443671 0.389479 -0.334356 -0.000954 0.291432 0.365647 -0.422781 -0.411810 0.023108 -0.392176 0.383051 0.155062 -0.173312 -0.152999 0.420563 0.393479 0.263188 -0.476968 -0.373287 0.111335 0.401541 0.033802 0.388066 -0.019487 0.254085 0.281508 -0.100671 0.416921 0.464302 -0.231190 0.086396 0.109130 -0.462174 0.422920 0.305364 -0.123159 -0.186481 -0.349532 0.269156 0.428855 -0.470865 -0.220826 0.168708 -0.097327 -0.062432 -0.316768 0.271154 -0.366998 -0.029392 0.425927 -0.179417 -0.194727 0.326602 -0.071139 0.316092 -0.113847 -0.255818 -0.425499 0.418744 -0.106854 0.430592 0.329589 -0.213179 0.217925 -0.408199 0.022051 0.329095 0.474948 -0.186215 0.103153 -0.323760 -0.319911 0.482172 0.216856 0.131827 -0.335319 0.365577 -0.449062 0.400738 -0.476457 -0.310524 0.428032 0.309531 -0.197773 -0.212991 0.227581 0.219882 0.261589 -0.077636 -0.477868 0.129574 -0.429378 0.147599 -0.084430 0.362119 0.415172 0.156954 0.488852 -0.206642 0.080056 0.133312 0.314994 -0.290420 0.314929 -0.370635 0.073442 0.438280 -0.108122 0.223785 -0.148915 -0.343400 -0.475590 0.179921 -0.428087 -0.182541 -0.187358 0.013766 0.200957 -0.087830 -0.491114 0.344547 -0.165716 0.317334 -0.135780 0.149774 -0.101618 -0.456906 0.196969 -0.313856 -0.443101 -0.212980 -0.156789 -0.401803 0.047906 0.219365 0.134168 0.019573 0.221531 -0.366810 -0.351688 -0.261063 0.069907 0.180400 0.077109 0.223269 0.440484 0.039781 0.285923 -0.138155 -0.070710 -0.296664 -0.257415 -0.405771 -0.469819 0.433620 0.198807 -0.370834 -0.499786 0.450506 -0.083899 0.233265 0.299178 -0.126049 0.308955 0.313793 -0.150949 -0.381740 0.351654 0.070337 0.440973 -0.074788 0.360634 -0.376380 0.253055 -0.202950 -0.099083 0.379973 0.411724 -0.134729 -0.000138 -0.338501 -0.162548 0.014125 -0.137539 -0.278682 0.467344 -0.457875 0.177652 -0.015574 0.080598 0.165264 -0.205681 0.360571 -0.428400 0.192156 -0.170208 0.004578 -0.495749 0.004134 -0.339802 -0.119400 -0.260777 0.076440 -0.291254 -0.087927 0.467039 0.427847 0.319205 -0.171824 0.045417 0.200654 0.372749 -0.022545 -0.241568
0.100550 0.476226 -0.282770 0.295568 0.358671 -0.435887 -0.432570 -0.080953 -0.418237 0.156610 -0.058471 0.157634 -0.101404 0.062460 -0.295521 -0.183514 0.425166 0.196052 0.439978 0.375422 0.488151 -0.182460 0.206208 0.218713 -0.129651 0.114888 0.498592 0.047563 0.018003 0.383553 0.294370 -0.136658 -0.307338 0.192646 -0.234374 -0.216517 0.123160 0.143610 0.353781 0.004462 -0.312615 -0.263064 -0.399972 -0.062489 0.029587 0.469852 0.073517 -0.386791 -0.455118 -0.224811 -0.430697 0.203629 -0.213341 -0.020653 0.159563 -0.381003 0.088520 0.288237 -0.336434 0.234980 0.124273 -0.022075 0.437173 -0.468923 -0.377519 0.046017 -0.397382 -0.254040 -0.416191 -0.486276 -0.438581 0.114596 0.120777 -0.338996 0.325057 -0.238500 -0.137835 0.279057 -0.334864 0.279211 0.028457 0.416982 -0.379293 -0.016937 0.261727 -0.494459 -0.468742 0.364153 -0.160605 -0.100134 0.024942 -0.499681 0.156305 0.457176 0.037886 -0.450346 -0.216631 0.118437 -0.210284 -0.310707 -0.431879 0.448552 0.461026 0.346535 -0.337406 0.288681 0.163503 -0.135968 -0.144825 -0.270326 0.379427 -0.320869 -0.162149 -0.077720 -0.458982 -0.198117 -0.327114 0.204750 0.100844 -0.065033 -0.156462 -0.083513 0.147063 0.351496 -0.033613 -0.272515 0.368185 0.305866 -0.134798 -0.012527 -0.366089 0.492650 -0.016065 0.165601 -0.262396 0.340771 0.225234 -0.097443 -0.251004 0.232316 -0.210337 0.230556 -0.261845 0.335877 -0.423809 -0.360187 -0.306083 0.355422 -0.229350 -0.147833 0.059554 0.365182 0.133650 -0.162599 -0.488474 0.025390 0.324835 -0.357854 0.381567 -0.404279 -0.056723 -0.407833 -0.049996 0.299579 0.454150 0.113713 0.425204 0.203675 0.169143 0.388655 -0.298165 0.314809 0.372381 -0.174116 0.340936 -0.355811 0.427527 -0.144947 0.066650 -0.132603 0.363417 0.295558 -0.236357 0.017579 0.244245 0.043630 -0.453647 -0.204293 0.211438 0.053120 0.447669 0.205275 -0.456379 -0.202963 -0.256463 -0.153424 0.265270 0.212003 0.330769 0.277764 -0.198924 0.032089 -0.090152 -0.191571 -0.347053 -0.410883 0.125188 0.238538 -0.082246 -0.224014 0.129783 0.000010 0.149022 0.080167 0.421246 -0.454216 -0.109425 -0.332010 -0.433474 0.154160 0.442944 0.264747 0.325956 -0.408484 0.292861 0.206157 0.358287 0.198975 0.220854 -0.233097 0.108432 0.141433 -0.365764 -0.025822 0.248981 0.301497 -0.122379 0.371057 -0.199878 0.392838 -0.132081 0.056542 -0.047547 -0.343403 0.101401 0.265071 0.023533 0.078820 -0.226578 -0.104654 0.375493
0.134759 0.210083 -0.225333 0.493881 -0.418050 -0.007024 0.164063 0.323539 -0.152931 0.264800 -0.410611 0.009617 -0.049674 0.184185 -0.012436 0.109169 0.343347 -0.291372 0.356478 -0.145134 -0.038511 -0.219907 0.086713 0.282172 -0.384257 -0.300727 -0.433855 0.458054 -0.363408 0.018638 0.016730 -0.068291 -0.217119 0.117267 -0.390721 -0.366291 0.195074 -0.366481 0.403646 0.043239 0.029016 -0.186584 0.130336 0.099784 0.263909 0.395682 0.160754 -0.176311 -0.462613 0.436600 0.249685 -0.148954 0.269289 -0.323508 -0.289698 0.496793 0.103132 -0.237612 -0.055804 -0.466889 0.370371 0.006679 -0.316600 0.005946 0.121682 0.262623 -0.468429 -0.155558 0.019546 0.407569 -0.139435 0.494172 -0.097750 -0.104181 -0.025252 -0.194126 -0.448456 -0.395979 -0.374884 0.480864 -0.084231 0.381945 0.229413 -0.201166 -0.352090 -0.362794 -0.210743 -0.219405 0.307388 -0.419151 -0.190935 0.390249 -0.129891 0.242894 0.440127 0.419599 -0.448352 0.203209 -0.066048 -0.348061 -0.455523 -0.347220 -0.269347 0.291839 -0.192595 0.440234 -0.370746 -0.046600 -0.035600 0.005421 0.155203 -0.144966 -0.114096 -0.470189 -0.040923 -0.185521 0.487125 0.071434 0.169212 0.450504 0.020705 0.100475 -0.287156 -0.266235 0.082608 -0.344362 -0.382937 -0.210546 0.344859 -0.426315 0.142233 0.094864 0.376662 -0.377326 -0.004836 0.182569 0.419948 0.202247 0.483941 -0.257164 0.117204 0.151107 -0.029197 -0.287527 0.011731 0.035775 -0.168407 -0.088756 0.002548 0.081563 0.427137 -0.207988 0.306337 0.116527 0.081836 0.299075 0.118875 0.456276 -0.027504 0.435077 -0.469042 0.306532 -0.203325 -0.291443 0.139366 0.076879 0.286833 0.184463 -0.026915 0.086520 -0.215346 0.212418 -0.493763 0.077993 0.400471 0.273835 0.473869 0.438010 0.365482 -0.150461 -0.380801 0.433570 0.291815 0.401531 0.128186 0.404174 0.259016 0.471009 0.148568 -0.221561 0.124812 0.312049 -0.334375 -0.197297 -0.487214 -0.389252 0.089006 0.217555 0.304689 0.039460 -0.279635 -0.153711 -0.002329 0.351915 -0.401641 0.048782 -0.441480 -0.250985 -0.208447 -0.299500 0.232192 0.228341 -0.111746 -0.202604 0.165754 -0.172576 -0.176719 0.437235 -0.367516 -0.091549 -0.076305 -0.228024 0.344167 0.144131 0.175997 0.076355 -0.041975 -0.136162 -0.320267 0.447990 -0.304589 0.154898 -0.102083 0.400630 0.144035 0.128443 0.188729 0.348620 0.335472 -0.242726 0.219478 -0.248839 0.149097 0.321674 -0.212799 0.247221 0.144530 -0.148564 -0.200786 0.282338 0.155063
0.431043 -0.324329 -0.349286 0.315343 0.123341 0.130062 0.026876 -0.335607 0.254323 0.220547 0.459657 0.148583 -0.101591 0.386187 0.252087 0.197568 0.115539 -0.207529 0.108499 0.095663 0.254954 0.384480 -0.093516 0.314768 0.371306 0.128478 0.483444 -0.101983 0.156279 -0.285325 -0.260683 -0.433924 -0.397644 -0.129603 0.400079 0.163175 0.009872 -0.430872 -0.240163 0.451846 -0.053337 0.138325 -0.265886 -0.476724 -0.285235 -0.010030 -0.384845 0.320956 0.256231 -0.457760 0.260635 -0.353380 0.242361 -0.363839 0.483272 0.336064 0.208025 -0.137694 -0.409746 0.004336 -0.364497 -0.076312 0.082570 -0.049239 -0.067542 -0.469226 0.043123 -0.485574 0.470629 -0.166692 0.041294 0.132137 0.116603 -0.003021 -0.410450 0.079239 0.257965 -0.162022 -0.311692 0.237264 -0.239020 0.193648 -0.337464 0.075235 -0.454029 -0.174306 -0.182056 -0.285559 -0.064628 -0.281585 -0.359763 0.301331 0.335836 -0.362653 0.002744 0.410599 0.156664 0.150148 -0.433255 -0.024497 0.251661 -0.141282 0.165305 0.294204 -0.120293 -0.032468 0.253176 -0.416811 0.454514 -0.308709 0.301226 -0.019886 -0.412862 -0.491309 -0.184305 -0.301812 -0.401798 -0.050871 -0.472198 -0.346285 0.130893 0.348861 -0.070645 0.001101 -0.040411 -0.446498 -0.286415 0.183208 0.295210 -0.034584 -0.035630 -0.217204 -0.077335 -0.169562 -0.219031 -0.371839 -0.060329 -0.284252 -0.390425 -0.058797 -0.230146 -0.332872 0.152217 0.044441 0.116800 0.075781 -0.239711 -0.289236 -0.447123 -0.132641 -0.463184 -0.468882 -0.327505 0.213679 0.497595 0.395031 0.058603 0.091979 0.006112 0.179095 0.006250 -0.100036 0.326960 -0.350469 0.417151 0.239180 0.492336 0.320069 0.207905 -0.365572 0.140673 0.369610 -0.429247 0.335707 -0.018224 0.149712 0.192342 -0.495767 -0.375744 0.078537 0.387437 -0.101848 -0.097837 -0.457310 0.278609 0.237818 -0.349468 -0.476060 0.415237 -0.186610 0.471380 -0.209873 -0.078151 -0.418492 0.105713 -0.193917 -0.132496 -0.354979 -0.026502 -0.228043 0.268040 -0.296722 0.371785 0.199515 0.273007 0.381535 0.390214 0.324322 -0.255777 0.416268 0.360143 -0.326252 0.218547 -0.171999 0.170020 -0.174910 -0.279566 0.354921 -0.052727 -0.280675 0.045176 0.061222 -0.456782 -0.186241 -0.361206 -0.251620 0.252437 -0.177343 0.322342 0.198028 0.348494 -0.249718 0.449001 0.473940 0.447117 0.072587 0.333139 0.398809 -0.420078 -0.344779 0.424630 -0.168791 0.385004 -0.316858 0.149944 -0.172712 0.230190 -0.064040 0.432557 -0.286188 -0.106735
0.284031 -0.239336 -0.400502 -0.136580 0.473569 0.183600 -0.371012 -0.338811 -0.334349 -0.353724 -0.485319 -0.450755 0.452574 0.022404 -0.247960 -0.046990 -0.007040 0.216387 -0.036778 0.418178 0.238927 0.237842 0.445073 -0.125089 0.046446 0.324714 -0.459248 -0.399891 0.033938 0.412290 0.138107 0.125649 -0.170083 0.458899 0.245427 -0.216667 0.023002 -0.270306 0.156790 0.295450 -0.162144 0.139262 0.080949 -0.196106 0.391645 0.224437 0.392012 0.389134 0.276035 0.210640 0.497025 -0.223524 -0.443486 0.202153 -0.157580 -0.351399 -0.192102 0.302860 0.043128 0.000173 0.223137 0.237060 -0.329748 0.081582 -0.110454 -0.262225 -0.104841 -0.200392 -0.210397 -0.401507 0.047551 0.250089 0.002908 -0.446637 0.277079 0.329784 0.431218 0.143343 0.290619 0.486815 0.175671 -0.115820 0.291496 -0.298149 0.438143 0.082353 0.045468 -0.323931 0.165038 0.259342 0.473532 0.188775 -0.065418 -0.211800 0.069630 -0.424625 -0.190636 -0.141272 -0.092456 0.391828 0.359629 -0.154089 -0.035285 -0.069078 0.109466 -0.008332 -0.194110 -0.071751 0.098535 -0.072485 0.355768 0.277473 0.019433 0.012436 -0.498198 -0.436148 -0.214277 -0.324192 -0.239375 -0.248042 0.012727 0.160214 0.035376 0.170536 -0.437272 0.155691 0.420297 -0.257522 0.228696 -0.020504 0.490427 0.111222 0.175311 0.176462 -0.478365 0.026639 -0.086762 -0.372898 -0.335015 -0.344121 -0.292722 -0.478228 -0.103038 0.220801 -0.083927 -0.407983 -0.275800 -0.453367 0.477022 0.428219 0.153943 -0.270837 0.147604 -0.055713 0.147225 0.105964 -0.291221 -0.001445 0.207597 -0.364017 0.445154 0.085313 -0.465951 -0.013666 0.463217 0.341134 -0.230409 0.331163 -0.380524 -0.167210 0.330803 0.440880 0.025422 0.369483 0.319621 0.204714 -0.052051 0.390724 -0.484390 0.321495 -0.146678 0.438598 -0.310890 -0.284379 0.457431 -0.242957 -0.152529 -0.145135 -0.017015 -0.197714 -0.329799 0.391900 -0.173190 -0.304305 -0.005350 0.369878 -0.464949 -0.002724 -0.393775 0.043389 0.199649 -0.399331 -0.045692 -0.189544 -0.357263 0.321876 0.337185 0.232612 0.152697 -0.178149 -0.342206 0.270874 0.319197 0.075125 0.096185 0.294711 -0.108919 -0.157982 -0.103562 -0.305065 -0.085799 0.143241 0.166784 -0.443640 -0.303996 -0.107495 0.360950 -0.215187 -0.225967 -0.193736 -0.250475 -0.019372 -0.192336 -0.071572 0.260623 0.413067 0.010057 0.073068 -0.337416 -0.448313 0.260436 -0.486168 0.154139 0.070715 0.020774 0.252360 -0.395063 0.217109 0.011640 0.456511 0.450268
-0.280845 -0.400592 -0.348889 0.152234 0.287169 -0.207755 -0.300708 0.484029 -0.082690 0.386871 0.147966 -0.076685 -0.079488 0.186414 -0.489941 -0.423931 0.463814 0.381675 -0.091659 0.143407 0.307657 -0.170348 -0.456491 -0.354639 0.059353 -0.440144 0.428500 0.155641 -0.367888 0.193761 -0.093464 0.239608 -0.013328 0.151005 0.494087 -0.455613 0.317114 0.185045 0.035668 0.242654 0.238921 0.376433 0.027582 -0.377932 0.404379 0.200370 0.225839 0.031826 -0.414143 -0.142980 -0.139826 0.289168 0.178331 -0.296808 0.435059 -0.490728 -0.415999 -0.162043 0.384091 -0.412071 -0.156606 -0.481096 -0.216431 -0.187619 0.285070 0.307599 0.214977 -0.303603 -0.468943 -0.028580 -0.280288 0.399447 -0.136125 0.268108 0.054550 -0.009982 0.192587 0.003956 -0.450123 -0.393935 -0.288350 -0.129679 -0.264207 0.425829 0.130183 0.086664 0.488697 0.091591 0.484276 -0.339254 0.161502 -0.004184 0.495180 0.058575 -0.195415 0.041933 -0.403626 0.088152 -0.484269 0.432977 0.249203 -0.360139 -0.129328 -0.409895 -0.388894 -0.384768 -0.267229 -0.121541 -0.290140 -0.156374 -0.487535 0.351121 0.368020 -0.498859 -0.230273 -0.329421 0.086581 0.280041 0.021403 0.355612 0.382473 0.391493 0.242073 0.264978 0.482874 -0.436403 -0.029727 -0.496301 0.448018 -0.376753 0.373493 0.322428 -0.484677 0.294260 0.060655 0.154018 0.156627 0.473724 0.149121 0.308213 0.244727 -0.159888 0.325048 -0.106056 0.206765 0.039141 0.488865 0.481367 0.439790 -0.254712 -0.073293 -0.441268 -0.248523 0.120046 -0.042647 0.105117 0.457845 0.254107 0.351970 -0.150748 0.068431 0.497736 0.445145 -0.392836 0.485499 -0.281682 -0.156057 0.495784 0.085631 -0.064730 -0.347191 -0.160098 -0.358958 0.178987 0.464828 0.176963 0.043615 0.208688 0.054644 -0.250177 -0.293352 -0.202532 0.234172 0.183775 -0.208532 -0.108460 -0.182242 0.261993 0.446048 -0.364121 -0.187705 0.172752 -0.304960 0.181467 0.201725 0.376530 -0.352182 0.048640 0.470192 0.177045 0.135043 -0.299395 0.080118 0.235718 0.312501 -0.480642 0.442277 0.440268 -0.335557 0.456123 0.214965 -0.406446 -0.289163 0.023812 -0.084902 0.305088 0.190228 -0.283442 0.244536 0.479010 -0.121419 0.353096 0.359781 -0.459021 -0.341781 -0.158564 -0.235574 -0.119529 0.182919 -0.206407 0.038075 -0.454456 0.315189 0.106316 0.110511 0.275405 0.246696 0.445881 0.439359 0.064729 -0.008232 0.291329 0.350205 0.389796 0.022357 -0.346981 -0.234482 0.092801 -0.145951 -0.195713 0.498043
0.211867 -0.092426 -0.100785 -0.486991 0.142423 -0.249418 0.197557 -0.032385 0.414393 -0.181273 -0.384520 -0.192786 -0.058189 -0.391319 0.074138 0.119512 -0.309142 -0.469645 -0.377166 0.332136 -0.415378 0.219551 0.396849 -0.421290 0.155919 -0.018246 -0.277488 -0.235925 0.275378 -0.046540 -0.160462 -0.148084 0.308447 0.219940 -0.180120 0.153167 0.259558 0.103074 -0.287766 -0.488014 0.363339 -0.394577 -0.045770 0.057461 0.038442 0.315623 -0.399173 0.377552 -0.049878 0.349456 0.152339 0.292705 0.433685 0.332241 0.435063 0.398110 0.304745 0.237348 0.483990 -0.309228 0.234751 0.443887 0.207866 -0.119708 0.477961 -0.204508 0.109677 -0.103378 -0.214852 -0.072012 0.396641 0.028277 -0.077099 -0.404931 0.490108 -0.483957 -0.080774 0.452379 -0.464884 -0.304194 0.319428 -0.218667 0.399198 0.038401 0.212632 -0.066750 -0.352894 0.124535 0.224705 0.001913 -0.325208 0.345805 -0.318431 -0.168085 -0.073477 0.343008 -0.306097 -0.221695 -0.176531 0.355952 0.375027 -0.049595 -0.461439 -0.139733 -0.106762 0.302399 -0.200696 -0.343191 -0.457114 -0.204553 -0.460049 0.261239 0.152292 0.346645 0.418608 0.039295 -0.220079 0.409042 -0.225914 -0.385811 0.336378 -0.226700 -0.289687 0.199757 -0.273851 0.276378 0.180329 0.385761 0.006593 -0.131116 0.312460 0.215269 0.461816 -0.261193 0.474409 -0.371294 -0.057791 0.308378 -0.169779 0.172647 -0.145245 0.007635 0.035935 -0.104957 0.084486 -0.213224 -0.441197 0.422784 0.240819 -0.142629 0.402001 -0.438133 -0.269579 -0.192548 0.326030 0.417604 0.465411 0.173988 0.398813 -0.122410 -0.317907 0.277316 0.147123 0.440318 0.285825 0.280158 -0.305298 0.452584 -0.363499 -0.255577 -0.175913 -0.253175 -0.158819 0.399537 -0.122618 0.262812 -0.048638 -0.283313 -0.420755 0.267094 0.461602 0.261469 -0.057017 0.435056 -0.420368 0.488353 -0.437848 0.365654 -0.364911 0.388604 0.479982 0.002984 -0.173003 -0.311074 0.393764 -0.188386 0.044742 -0.360207 -0.401779 0.031665 0.012743 -0.084425 0.049720 -0.176558 -0.213259 0.436368 -0.187008 -0.117250 0.037943 -0.377868 -0.258280 0.446772 -0.428219 -0.227646 0.227106 -0.294580 -0.345392 0.163975 0.448032 0.214626 -0.490162 0.028441 0.259554 0.174350 -0.246481 0.056347 0.386065 0.420568 0.219471 -0.280146 0.338433 -0.411254 -0.333616 0.064219 0.386684 0.342983 -0.398430 -0.225002 -0.041905 0.497290 0.038506 0.466192 0.266954 -0.193252 0.037796 -0.042321 -0.154551 -0.401169 -0.214686 0.430432 -0.330390
-0.127833 0.149498 0.155066 0.348602 0.065365 0.042091 -0.170146 -0.203876 -0.308316 -0.249816 -0.093626 -0.401686 0.101406 -0.132440 0.092388 0.458804 -0.087464 -0.450243 0.468091 0.331318 -0.177252 -0.250812 -0.036952 -0.245175 0.172179 -0.041011 0.350850 0.112552 0.288085 -0.038231 -0.391700 0.301029 0.235017 0.293810 -0.094570 -0.355712 -0.179612 -0.019715 0.411655 0.157434 -0.024585 0.134447 0.110779 0.108660 -0.287936 -0.289606 0.466663 0.103913 0.156477 -0.299154 -0.437317 -0.107371 -0.187086 -0.467718 0.054878 0.192533 0.195880 0.406316 0.465052 -0.387208 -0.483567 0.400521 -0.183040 -0.052053 0.471989 0.071669 -0.303976 -0.291456 -0.248853 0.234407 -0.042191 0.330784 0.364319 -0.167981 0.474806 -0.267155 0.120022 -0.449521 0.483534 0.337500 -0.253213 -0.007630 0.048706 -0.251906 0.394245 0.142464 0.363359 -0.386833 0.274021 0.130290 0.464549 -0.433399 0.055321 0.085946 0.446106 -0.217536 0.321248 0.009583 0.422028 0.268100 -0.245875 -0.106662 -0.188394 0.002733 0.170152 -0.184549 -0.370928 0.387471 -0.149434 -0.101286 -0.161424 -0.474844 0.079321 0.003955 0.350557 -0.373924 -0.176186 -0.258881 -0.359855 0.038770 0.039167 -0.387778 -0.118705 0.420045 0.379966 0.042799 -0.282988 0.083767 0.150174 -0.475226 -0.277440 -0.021519 0.046397 0.023630 0.461095 0.368086 -0.117020 0.260940 -0.297967 -0.173682 -0.136346 0.269898 -0.400312 -0.056650 -0.064050 -0.026520 0.285302 0.426690 -0.404930 -0.424885 0.251036 0.053444 0.320632 0.042382 0.471235 -0.337159 0.446944 0.144628 -0.291156 -0.249457 0.300877 0.404833 -0.198352 0.053702 -0.169646 0.166849 -0.193036 -0.178274 0.417164 -0.358107 0.057924 -0.362031 -0.043283 0.439851 -0.289905 -0.230679 0.486614 0.232610 -0.246920 0.352250 0.407253 -0.111309 0.007952 0.105135 0.303184 0.130640 -0.467573 0.227365 0.076582 0.468514 0.319965 0.151508 -0.100469 -0.396159 0.256158 -0.328060 0.000412 0.177303 0.105613 0.278573 0.177531 -0.243083 0.475326 0.010906 0.349113 0.350835 -0.394572 -0.197761 -0.033683 0.313691 0.131051 0.184742 -0.127120 0.163778 -0.182471 -0.026275 0.098886 -0.247560 -0.474292 0.281156 -0.074801 0.167103 -0.141213 -0.056786 -0.174357 -0.497892 0.343034 0.258333 -0.068734 0.390787 0.123342 0.498634 0.305404 -0.411785 -0.158315 0.406048 -0.466079 -0.130615 0.475646 -0.022062 -0.075348 -0.037279 0.230290 0.199051 -0.025135 0.479895 -0.184681 0.270089 0.134739 0.006229 0.075979
-0.424621 -0.232685 0.321523 0.372547 -0.054194 0.492519 0.305231 0.344970 0.085142 -0.262254 0.476077 0.196080 0.265721 -0.400314 -0.324838 -0.430352 -0.433292 -0.470753 -0.360585 0.138592 -0.256620 0.141478 -0.278155 0.441147 0.432546 0.239602 0.220438 0.126655 0.284264 0.169483 0.357598 0.027331 -0.156802 -0.391064 -0.369229 0.056781 -0.431770 0.153099 -0.439190 0.288589 0.365918 0.236363 0.026806 -0.489311 0.020408 0.153370 -0.265535 0.454884 0.018979 -0.329789 0.385468 -0.346655 0.272757 0.005115 0.087173 -0.036675 -0.166194 -0.345340 0.113963 0.321392 0.410078 -0.454808 -0.417760 0.126732 0.373656 -0.225914 -0.181171 -0.348529 0.100362 0.190817 -0.101853 -0.075361 0.009169 -0.070485 -0.240821 0.172753 -0.230159 0.047325 -0.353961 -0.484813 0.087131 -0.050625 -0.236023 -0.183628 0.117293 -0.237439 0.322138 -0.090373 -0.384234 -0.397434 -0.304388 0.460130 0.479491 -0.183371 -0.197528 -0.280145 -0.254358 -0.268983 0.113266 -0.158801 0.346981 0.074299 0.342990 -0.136973 -0.062921 0.473744 0.134237 -0.114283 0.395551 0.335575 0.475670 0.220055 -0.115567 -0.367910 -0.127415 0.217151 -0.322985 -0.018829 0.173576 0.108913 0.260681 0.068749 -0.111251 -0.139609 0.409568 -0.190005 0.274448 0.331124 0.374375 -0.352561 0.458391 0.000248 0.023110 0.449524 0.313430 -0.141351 -0.358129 -0.235948 0.303546 0.005481 0.137639 -0.174731 0.097204 -0.283079 0.157804 -0.412932 0.187878 0.021091 -0.134774 -0.156759 0.433808 0.262637 0.357267 -0.004304 -0.009586 0.421908 0.465929 -0.144172 0.000099 -0.444944 -0.342286 -0.423024 0.452889 -0.460835 0.277106 -0.079575 -0.120988 -0.495468 0.276822 -0.004691 -0.093657 0.180589 0.301378 0.055445 0.367395 0.126588 -0.486063 -0.436010 0.234758 -0.380211 -0.370824 -0.470260 -0.410692 0.443833 0.428230 0.269461 -0.190595 -0.140557 -0.482951 0.438952 0.354066 0.478937 0.339918 -0.130436 0.489486 0.403446 -0.379142 -0.327655 -0.046022 0.340276 0.443870 -0.186785 -0.021729 0.021483 0.432211 -0.092086 0.372138 0.204797 0.077488 0.059979 0.040119 0.199926 -0.330980 0.002507 -0.498610 -0.377418 -0.179108 0.053668 0.355938 0.247088 -0.006419 -0.054921 0.467025 -0.064194 -0.455534 0.254126 0.193747 -0.401485 -0.459262 0.025047 0.202763 0.036883 0.431015 0.019560 -0.021440 -0.363808 0.023455 0.469831 0.216349 0.355722 0.149733 -0.310053 -0.015432 -0.109164 0.177548 0.049182 0.215170 -0.072277 0.267093 -0.484492 -0.425691
0.311830 -0.394492 -0.039472 -0.211237 -0.350471 0.478009 0.126174 -0.293080 0.179878 0.396518 -0.221257 0.169570 -0.270374 -0.347929 -0.251192 -0.291693 -0.143420 -0.268757 0.213078 0.442334 -0.015668 0.236769 -0.342524 -0.105120 0.292090 0.438292 0.267007 0.166086 0.464467 -0.004823 0.444014 0.479554 -0.093351 0.461152 -0.186525 -0.137433 -0.407444 -0.198066 0.268424 -0.218503 -0.150242 0.244775 0.417707 0.250407 0.342258 0.465817 -0.335720 -0.171474 -0.141874 0.334564 -0.259973 0.074896 0.214106 -0.142514 0.202657 0.099333 0.039474 0.144219 0.495097 0.009973 -0.206568 0.043155 0.284264 0.494216 0.172238 0.356053 0.217064 0.140869 -0.498385 0.433086 0.003894 -0.144631 -0.195177 0.154641 0.180458 -0.409459 -0.335686 0.144476 -0.172608 0.113506 -0.291008 0.189025 0.449487 0.128863 -0.314265 -0.135178 -0.203620 -0.014001 -0.363923 -0.383902 -0.167685 0.490911 -0.460677 -0.161055 -0.330011 0.413663 -0.272193 -0.487623 -0.237999 0.069027 0.292931 -0.015224 0.052261 0.028818 0.333454 0.350301 0.270777 0.290635 0.052868 0.382872 0.443684 0.122761 0.081502 -0.376229 0.417423 -0.211250 0.023924 0.478994 0.145818 0.367376 0.157001 0.355304 -0.403902 -0.431742 0.313052 0.482463 0.227212 0.461807 -0.253579 -0.378922 0.012123 -0.253494 0.100404 -0.058350 0.149951 0.209476 0.489423 0.179145 -0.370273 0.280795 0.447219 -0.090099 -0.184775 0.246684 0.347695 -0.035452 0.133848 0.421727 0.279115 0.210471 0.255590 0.224010 0.091070 -0.473763 -0.164375 -0.159456 0.245961 -0.486959 0.353495 -0.441979 0.262278 -0.251160 -0.150673 -0.005632 0.218662 -0.020578 -0.126973 -0.353553 -0.073755 0.013453 0.008999 -0.040889 0.488490 -0.133911 -0.039295 0.116375 -0.020344 -0.437089 -0.017091 0.214017 0.496206 0.497671 0.002583 0.131401 -0.079700 0.255834 0.245345 0.474244 -0.292386 0.027520 -0.206107 -0.039319 0.100885 0.182986 0.414450 0.386357 -0.369303 0.089256 -0.452658 0.181789 -0.456978 0.422401 -0.475560 0.474377 0.111751 0.312229 0.010519 -0.007334 -0.024112 0.439525 0.392702 -0.394138 -0.354285 -0.232661 0.170884 -0.496182 -0.339611 0.319445 -0.008198 -0.287697 -0.121557 -0.386932 0.082222 0.113767 -0.453261 0.182417 -0.032118 0.139534 -0.147075 0.284972 0.178076 -0.034966 -0.408598 0.272517 -0.030656 -0.111842 -0.374581 -0.292105 -0.046766 0.328676 -0.496028 0.426648 -0.053838 0.324255 -0.074154 0.150270 -0.120322 -0.169591 0.150022 -0.489915 -0.262060
-0.475000 0.462127 0.255152 0.375800 -0.463837 0.361521 -0.278739 0.247745 0.135522 0.187336 -0.477238 -0.162371 -0.176400 0.267784 0.162883 0.230131 -0.245657 0.291267 0.112523 0.184731 0.199481 -0.408935 -0.481489 -0.177465 -0.362149 -0.278716 0.086903 0.292106 -0.294979 -0.218631 -0.061811 0.061451 0.061025 0.009304 0.189171 -0.220916 -0.362697 0.291665 -0.338584 0.446314 -0.456662 -0.013914 -0.315974 0.403852 0.412641 -0.209101 -0.104832 -0.482160 -0.393923 -0.107461 -0.068676 -0.477197 -0.250579 -0.270492 -0.278050 -0.104798 -0.077851 -0.218118 -0.323035 -0.308427 -0.116869 -0.165322 0.333329 0.141911 0.416582 0.012992 -0.262009 0.261897 0.466968 -0.297696 -0.380068 0.157276 0.036729 -0.161616 -0.318604 0.410601 0.055039 0.362688 0.497026 0.162455 -0.199434 -0.152517 -0.045572 -0.170349 -0.233113 -0.037700 -0.019794 0.464793 -0.016032 -0.219444 0.251234 -0.491546 -0.149290 -0.450040 -0.425500 -0.488864 0.383356 0.073844 0.019959 0.001588 0.332241 -0.091460 -0.318729 0.230613 -0.370501 0.308258 0.431686 0.362756 0.453083 -0.031011 0.015032 -0.135645 -0.158475 0.225146 -0.255025 0.054241 -0.337365 -0.361070 -0.025116 -0.044174 -0.108906 -0.052114 0.484144 0.064607 0.101778 -0.186636 -0.391466 -0.428978 0.363025 0.009558 0.258746 0.259187 -0.026274 0.424465 -0.405460 -0.275773 0.359749 -0.282642 0.266051 -0.266696 0.487663 -0.095742 0.347892 -0.087071 0.338769 0.400612 0.475613 0.146833 0.131484 0.184419 -0.431513 -0.241336 0.380685 0.442843 0.288388 0.017549 -0.372586 -0.424011 -0.284704 0.076288 0.208645 0.343901 -0.092430 -0.278114 -0.162937 -0.499281 -0.309127 0.047428 -0.032820 0.209573 -0.218106 0.374056 0.101482 -0.393429 -0.244510 -0.289743 0.301223 -0.355549 0.138041 0.020598 0.029343 -0.303524 -0.281232 -0.018754 0.007314 0.136253 -0.280301 0.472498 0.380166 -0.487354 0.274659 -0.114688 0.266631 -0.350431 -0.058357 0.469810 -0.450541 0.425680 -0.484663 -0.420048 -0.010840 0.190143 0.301851 0.234404 0.274652 0.167885 -0.135353 0.202380 0.079529 0.015810 0.107664 0.065949 0.032674 -0.486205 -0.099106 -0.317447 -0.009754 -0.209786 0.371516 0.207208 -0.079033 -0.182755 -0.381316 0.247087 -0.101949 -0.157624 -0.446439 -0.176767 0.100120 -0.440050 -0.179762 -0.050618 0.473984 -0.030937 -0.381421 -0.079504 0.320155 0.445412 0.219793 0.096616 0.092977 -0.388767 -0.126719 -0.140270 0.249894 0.012345 0.194789 -0.458435 0.463163 0.030634 -0.021678
0.322026 0.242236 0.207384 0.393133 -0.122161 -0.312956 0.014026 -0.465389 0.299199 0.484742 0.364387 0.221848 -0.471050 -0.243131 -0.450143 0.320976 -0.335380 0.007994 -0.047221 -0.051151 0.138319 0.110327 -0.198772 -0.260871 0.253060 0.040803 0.264656 0.484581 -0.009475 -0.183811 0.072616 0.154330 -0.158237 0.436195 -0.084770 -0.061199 0.169355 -0.419801 -0.276671 0.132078 -0.480345 0.133403 0.350778 -0.161576 -0.389196 -0.480957 0.044334 0.134594 0.128041 -0.308074 0.389767 -0.028064 0.348575 -0.188744 -0.167560 0.261375 -0.338495 -0.335127 0.235035 -0.387125 0.248173 0.196012 -0.347357 -0.127294 0.461160 -0.250716 -0.328445 -0.128385 0.351054 0.402307 0.401090 -0.390080 -0.347269 0.342432 -0.478348 0.385572 -0.466053 -0.000303 -0.026720 0.397267 -0.179068 -0.081184 0.357305 -0.377164 0.006743 -0.279739 -0.376789 -0.285287 0.418844 0.440928 -0.362534 -0.155347 -0.445506 0.466816 -0.169723 0.333807 0.108277 0.051645 -0.451301 -0.071344 -0.364194 -0.203456 -0.374839 -0.340029 -0.396660 -0.425226 -0.179778 -0.427685 -0.344645 0.001292 -0.232945 -0.152531 -0.424999 -0.170033 0.166909 0.366199 -0.244344 0.182027 -0.498721 0.180935 -0.239406 -0.399653 -0.398224 0.031983 -0.482353 -0.068790 -0.481160 0.287492 0.402350 -0.078640 0.188756 0.440757 0.234152 0.085057 0.056580 -0.034222 0.241363 -0.064713 -0.368870 0.256046 0.166033 -0.192277 0.448956 0.304474 -0.217917 0.374361 0.037055 0.430198 0.345357 -0.407535 -0.128213 0.493503 0.175338 -0.376528 -0.355349 -0.250082 0.097443 -0.003073 0.220347 -0.417452 -0.395856 0.207530 -0.456996 -0.208873 0.249659 -0.261226 -0.078242 -0.184096 0.378618 0.482315 -0.207591 0.349978 0.346248 0.255742 -0.397650 -0.025138 -0.227384 -0.478990 0.393123 0.259317 0.213896 -0.464013 0.092899 0.254134 0.473005 0.386096 0.268935 0.403574 0.197629 0.327695 -0.005306 0.040816 0.459423 0.300005 -0.485506 -0.227216 -0.094454 -0.351045 0.030837 0.361045 -0.181422 -0.045434 0.156439 0.004577 0.076819 0.226095 0.048929 0.452331 -0.113811 0.202066 -0.123408 -0.190229 0.226333 0.099494 -0.138096 0.235887 -0.244266 0.055404 0.029194 0.425781 0.353362 -0.434508 -0.261757 -0.041665 0.197112 0.373649 -0.113211 -0.163180 0.271776 0.180667 0.334723 -0.203138 0.042181 -0.326439 -0.051731 0.235578 -0.330135 0.317743 -0.059923 0.239836 0.276952 -0.298165 0.256901 -0.013116 -0.454792 0.178626 -0.462240 -0.284369 -0.040700 -0.064822 -0.024630
0.316911 0.472742 0.190468 0.138363 0.259727 -0.188715 0.315050 -0.360920 0.155969 0.191176 -0.045334 -0.313201 -0.140330 -0.085798 -0.103597 -0.071156 0.431217 0.417063 0.307168 0.259271 0.376053 0.366069 -0.282103 -0.070227 -0.458211 0.060914 -0.242827 -0.350003 0.307614 0.395971 -0.259199 0.485933 0.127622 0.467070 -0.383966 0.415921 -0.424841 -0.093200 -0.426260 -0.335841 -0.448852 -0.406288 -0.152002 -0.248677 -0.082776 -0.400317 -0.377402 0.217051 -0.492069 0.369780 -0.169087 0.410062 0.374309 0.316570 0.106302 0.243183 0.380696 -0.184160 -0.431665 0.351478 -0.467184 -0.258521 -0.102692 0.301224 0.016033 -0.073032 -0.099035 0.110677 0.448297 0.298829 -0.061840 -0.008441 0.038474 0.251949 -0.448358 -0.135346 -0.428667 -0.250999 -0.084348 -0.311533 0.401735 0.173776 0.022080 0.124457 0.095821 -0.056712 0.111138 0.201280 0.329120 -0.463449 0.269007 0.495960 0.145787 0.065066 -0.098704 0.365798 -0.374847 0.022453 0.318773 -0.314966 0.231014 0.388399 0.195622 -0.171271 0.144468 0.209740 0.328752 0.403896 -0.235526 -0.122007 -0.290910 -0.117528 0.245415 0.164620 0.337110 -0.281131 0.194567 0.111869 0.121615 0.004118 0.429437 -0.046154 -0.044434 0.318733 0.427999 0.317128 -0.330500 -0.009644 -0.196349 0.085861 0.010233 0.243576 0.411129 -0.075889 -0.133700 -0.264411 -0.245062 -0.239678 -0.277180 -0.376456 -0.172262 -0.099914 -0.169737 -0.375320 -0.326219 0.282949 -0.439326 -0.080619 0.291609 -0.416388 0.158533 -0.008265 -0.127133 -0.113545 0.034547 -0.112527 -0.472610 -0.441266 -0.253172 -0.389592 -0.238441 0.274207 -0.283611 0.008465 0.441135 -0.140875 -0.489892 -0.299508 0.227684 -0.137143 0.105435 -0.015653 -0.199519 -0.100159 -0.204837 -0.072385 -0.166238 -0.220012 -0.275782 0.215104 -0.012074 -0.120875 -0.314877 -0.239714 0.103483 -0.308554 -0.430588 0.392123 -0.478848 0.264571 -0.255417 0.176372 -0.033587 0.177920 -0.185134 0.334332 -0.371696 -0.060867 -0.032702 0.026856 -0.018212 0.305723 0.107380 0.033565 -0.001850 -0.164072 -0.124834 0.103070 0.139177 -0.381361 -0.413522 0.227718 -0.354980 0.389473 0.062668 -0.186706 -0.010402 0.452513 -0.363608 -0.201090 0.293803 0.256482 0.041367 0.356375 0.091471 0.181051 0.152390 -0.352714 0.470759 0.042577 -0.120676 -0.394324 0.291339 0.489056 0.089546 0.137199 0.156739 -0.477613 -0.060720 -0.180308 -0.348002 -0.436923 -0.052206 0.112582 0.041095 0.131738 0.357937 0.064555 -0.377108 -0.150108 -0.169486
-0.489723 0.060044 -0.000536 -0.216663 0.192595 0.151943 -0.305845 -0.297740 0.471954 -0.139726 0.246302 0.480005 0.045547 -0.434019 0.451735 0.452727 -0.461827 0.070893 0.041603 0.187357 -0.236527 0.193623 -0.385476 -0.446330 -0.238622 -0.332359 0.431580 -0.111661 -0.248104 0.493085 -0.369337 -0.124212 -0.420665 0.086064 -0.169043 -0.455771 -0.192514 -0.222045 -0.204603 -0.049998 -0.356178 -0.333946 0.060358 -0.302625 -0.285114 0.180051 0.103869 -0.129247 -0.056776 0.194768 -0.411431 -0.000425 0.205983 -0.165101 0.459431 0.185923 0.038430 0.278258 -0.103670 0.333124 0.030150 0.216396 0.139175 -0.166043 -0.461354 0.425801 -0.455889 -0.076632 0.138142 -0.286603 0.276025 0.350565 -0.499766 -0.458093 0.239410 -0.148393 -0.357521 -0.141013 -0.004175 -0.435954 0.236064 0.468600 -0.048218 -0.278528 -0.238070 -0.497073 -0.384188 0.207528 -0.326862 -0.071026 0.446095 -0.416198 0.356922 0.358798 -0.120542 0.001520 0.148718 0.341859 -0.477196 0.157760 -0.126664 -0.433188 -0.226378 0.381450 -0.023566 -0.426093 -0.343564 -0.472381 0.051429 0.155786 0.216717 -0.021971 -0.374903 0.449297 -0.307532 0.252207 0.459335 -0.139400 0.145844 -0.185224 0.132643 -0.493771 0.498959 0.449500 0.318050 0.388023 0.335424 -0.395869 -0.323281 -0.471994 0.126882 -0.155599 -0.191756 0.483612 -0.319402 -0.359497 -0.376766 -0.267168 -0.408638 0.147938 0.315366 -0.057531 0.260041 -0.482586 -0.145531 -0.372795 0.446495 -0.324447 0.072902 -0.426084 -0.107164 -0.037101 -0.169339 0.282521 -0.160136 -0.330730 0.482373 0.061082 -0.400299 -0.265903 0.156039 0.415006 0.028291 -0.015627 -0.148448 0.109529 -0.099487 0.419532 -0.465760 -0.394198 -0.193914 -0.319343 0.204740 0.065081 0.101837 -0.252604 -0.011320 -0.426709 0.208906 0.219291 0.232620 0.292752 0.234570 -0.043869 -0.387885 0.441374 -0.170064 0.043399 -0.046355 0.267474 0.106639 0.286878 0.460045 -0.165897 0.009805 -0.487381 -0.418573 -0.121085 -0.267960 -0.072733 -0.258572 -0.402380 -0.021855 -0.414130 -0.395969 -0.044127 -0.167347 -0.464811 -0.122160 -0.396814 0.410875 -0.344544 0.452501 -0.019960 0.134828 -0.158786 0.228985 -0.103979 -0.103997 0.364224 -0.049723 -0.096620 0.112316 -0.207840 0.259606 0.295203 0.277664 -0.358163 0.005471 -0.219778 -0.016956 0.116506 -0.364652 -0.474351 -0.311363 -0.263527 -0.372933 -0.102159 0.311791 -0.036694 -0.136115 0.005043 0.260841 -0.049998 -0.146203 -0.408708 0.251799 -0.404593 -0.331446 0.128305 -0.343723
-0.264532 0.481894 -0.484589 -0.276013 0.326924 -0.485432 0.346006 0.233712 -0.473375 -0.194855 -0.323835 0.185472 -0.495658 -0.201269 -0.208201 -0.115963 0.038200 -0.137931 0.062289 0.372066 -0.268669 -0.431180 0.390493 -0.342170 0.468315 -0.480796 -0.175152 -0.444515 0.422236 0.277243 0.243708 0.441843 -0.049314 0.351158 -0.199326 -0.011967 0.166313 0.058849 -0.213778 -0.246857 -0.199574 0.417154 0.249638 -0.397277 -0.495253 -0.274219 0.134969 0.250218 0.434170 -0.412090 0.150522 -0.279625 0.338345 0.209797 -0.190488 0.279240 0.433732 -0.166372 -0.442821 0.036608 0.341094 -0.295483 0.272492 0.364648 -0.411054 -0.363743 0.404899 0.284147 -0.241650 -0.340435 0.224549 -0.376310 -0.210115 -0.054099 0.067265 0.113215 0.134002 0.204782 0.442264 -0.155267 -0.148688 -0.002615 -0.481349 -0.110953 0.056658 0.294148 -0.079491 -0.448134 -0.417784 -0.022792 0.193422 -0.021900 0.262288 -0.103065 0.049763 0.169483 -0.222544 -0.498713 0.211010 -0.470589 -0.441569 0.481152 -0.454095 -0.153032 0.164577 0.202624 -0.037018 -0.050845 -0.297204 -0.298820 0.299153 0.327377 0.020777 -0.119286 -0.147537 0.059060 0.343535 -0.379652 0.389781 -0.290957 -0.055240 0.318804 -0.063236 0.151745 0.353219 0.287916 0.347738 0.094200 -0.340228 0.074626 -0.251313 -0.135061 -0.347401 -0.356118 -0.196903 0.437387 0.317900 -0.254641 -0.288486 0.427562 0.003136 -0.316907 -0.099432 0.452376 -0.062595 0.015187 0.078315 -0.445854 -0.216791 -0.462906 0.317775 0.102744 -0.196580 0.029182 -0.392124 -0.210388 -0.349497 -0.165335 -0.310930 0.430977 0.319171 -0.451051 0.372592 0.077292 -0.483784 -0.355734 0.252252 0.195323 -0.338249 0.164903 -0.432032 -0.487793 -0.419731 -0.486737 -0.083335 0.033311 0.461174 -0.180812 0.226222 -0.006816 0.332361 -0.445309 -0.005692 -0.473021 -0.314433 0.329917 0.173720 -0.332939 -0.480592 -0.107379 -0.158562 0.159430 0.029202 0.475970 0.202247 0.125092 0.246571 0.437346 0.009878 -0.402451 -0.337457 0.494337 -0.070343 -0.440180 -0.238187 -0.388093 -0.339907 0.448420 -0.367742 -0.203061 0.449857 -0.156284 -0.020788 0.257978 0.353483 -0.489704 0.479653 -0.253750 0.082050 0.043632 0.164666 -0.008854 -0.092856 0.331229 0.011046 0.426677 -0.192896 0.488436 -0.313451 0.300873 -0.451550 -0.130373 0.003932 -0.063423 0.340663 -0.003885 0.086413 -0.473692 -0.160584 0.348728 0.352408 -0.023252 -0.254638 0.302025 0.209145 0.461418 -0.177577 0.325083 -0.253607 -0.407419 -0.236862
0.293737 -0.277683 -0.260180 -0.069322 -0.384972 0.239550 -0.245360 -0.140595 -0.322666 0.125866 0.011737 0.117642 0.372385 -0.226945 0.129891 0.250512 0.148279 -0.107764 0.178775 0.243799 -0.270211 -0.432605 0.235188 0.325473 0.254381 -0.359122 -0.143240 -0.286206 -0.221669 -0.068744 -0.347914 0.217272 0.498531 -0.092032 0.103995 -0.249440 -0.364845 -0.106427 -0.086278 -0.170269 0.415789 0.286209 -0.306056 -0.487948 0.299743 0.291045 0.483702 -0.128879 0.285188 0.269904 0.181579 0.491446 -0.045120 -0.260453 0.097253 0.132365 0.470263 0.389406 0.484214 -0.335297 -0.149601 0.324415 -0.225428 0.468348 0.117164 -0.497151 0.183344 -0.175673 -0.070728 0.199123 0.403174 0.486343 -0.315936 -0.278299 -0.379224 0.434382 0.496620 -0.026844 -0.353002 0.103334 0.173002 -0.308584 0.014982 0.345143 -0.457574 0.053172 -0.180367 0.296028 0.330308 0.028192 -0.181901 -0.321464 0.133074 -0.358995 -0.201299 -0.343742 -0.199856 -0.443418 -0.377530 -0.170517 0.460041 0.425739 -0.453927 -0.008070 0.292713 -0.060343 0.116627 0.460733 -0.166773 0.448571 0.221263 -0.423320 0.025721 0.224233 -0.175277 0.333901 0.007380 0.248855 0.230720 0.179028 -0.176160 0.411568 0.252181 0.212304 0.001869 0.370692 0.120393 0.334155 -0.071454 0.105423 0.285073 0.383367 -0.048452 -0.033661 0.302087 0.146964 0.337522 -0.067252 0.497729 -0.115020 -0.448730 0.160604 -0.103013 0.186465 -0.099300 0.007067 0.466100 0.169866 -0.102149 0.301170 -0.415449 -0.006066 -0.047503 -0.103194 0.480513 0.371312 -0.272455 0.350651 -0.348813 0.184935 -0.251567 0.053136 -0.209444 -0.184297 -0.003454 0.459902 -0.211841 -0.188991 0.210277 0.306319 -0.117802 -0.023546 -0.149243 0.316759 -0.094103 -0.314889 0.277298 -0.102650 0.056479 -0.459303 0.146072 -0.185606 0.233096 0.451963 0.344873 -0.027728 0.312795 -0.222299 -0.419222 0.406067 0.322140 -0.120926 0.182700 0.240290 0.215960 0.099865 0.037669 0.030241 -0.214540 -0.244159 0.026743 -0.425915 0.393508 0.298587 -0.420300 -0.148382 0.164595 0.484745 0.454388 -0.068562 0.057392 -0.158149 -0.440872 -0.365810 -0.379993 0.413920 0.309902 0.369458 0.482851 0.137742 0.189235 -0.107576 -0.443097 0.254675 0.421399 0.293360 -0.376943 -0.016000 -0.414629 -0.053854 0.384948 -0.244335 0.024832 -0.130996 -0.444824 -0.049169 0.292228 -0.171510 -0.163469 -0.127891 -0.387745 -0.421127 -0.039910 -0.260452 0.126816 -0.152634 -0.485820 0.131410 0.461169 -0.380186 0.332820
-0.298653 -0.459878 0.223530 -0.180109 -0.422909 0.418278 -0.172739 0.208020 -0.214558 0.344772 -0.471157 0.110976 0.343044 -0.406719 -0.028275 -0.494179 -0.055268 0.387743 -0.247464 0.224646 0.151239 0.045865 0.263359 0.416060 -0.193666 0.357856 0.154660 0.466776 -0.288631 -0.429294 -0.482774 0.006201 -0.121215 0.083630 0.498522 -0.128721 -0.208354 -0.040141 -0.104969 0.154932 -0.291302 0.076362 0.442949 0.376666 0.336724 0.473609 0.333708 -0.111941 -0.406750 0.124956 -0.413453 -0.428525 0.188232 -0.291408 0.282706 -0.457511 -0.161282 0.029352 0.444997 0.133359 -0.113043 -0.457117 0.225887 0.087335 -0.402834 -0.123769 -0.495530 0.417592 -0.103925 -0.284137 -0.102624 -0.280221 0.449965 0.018768 0.013316 0.218396 0.099101 0.111796 0.215337 0.256170 0.094642 0.355687 0.383638 0.403549 0.282443 -0.169116 0.248419 0.173997 0.346493 0.201445 0.090130 -0.231338 0.459118 0.315430 -0.150082 0.202710 0.451853 0.132595 0.224556 -0.334404 0.114518 0.122133 0.455011 -0.179455 -0.301911 0.302247 -0.357023 -0.197691 0.227553 0.278722 0.439456 0.481689 0.437375 -0.227355 0.034405 0.028990 -0.324143 0.391757 0.453057 -0.427431 0.260809 0.029626 0.209528 -0.290981 -0.300613 -0.359619 -0.308978 0.320465 0.183999 -0.133783 -0.144833 0.333019 -0.262883 0.273216 -0.178301 -0.099452 0.084918 0.390158 0.246296 0.430814 -0.356410 0.357401 0.007807 -0.126949 -0.305928 -0.175758 -0.183629 0.209684 -0.281892 -0.446835 0.369117 0.337969 0.478006 0.279012 -0.276443 0.089158 0.476308 0.307497 -0.406777 -0.050791 -0.189924 -0.202096 -0.250189 0.225851 -0.071819 -0.165155 0.122462 -0.174360 0.416122 -0.223027 0.263820 -0.479693 -0.105301 -0.187134 -0.250921 0.413806 0.299887 0.035088 -0.273713 0.313178 0.095639 -0.014641 -0.293304 0.107716 0.174873 0.497418 -0.037187 -0.444595 0.445100 0.431712 0.305786 -0.288147 0.395558 0.136416 0.415722 0.387761 0.245121 -0.478499 0.230010 -0.055969 0.068666 -0.177694 0.037096 0.021295 -0.050680 0.012484 0.434837 0.328139 -0.274357 -0.175246 -0.428738 0.192666 0.025513 0.087880 -0.067198 0.078964 0.285822 0.480025 0.176087 0.438291 0.443120 0.299535 -0.253216 -0.268616 0.311006 -0.470054 0.210558 0.158289 0.224864 -0.323599 -0.225700 -0.405150 -0.194382 0.002973 0.317636 -0.275040 0.201437 -0.420356 -0.008600 0.426733 -0.281073 0.266243 -0.362025 0.300273 -0.301011 0.125995 -0.321134 0.241314 -0.031595 0.255702 0.279221
0.043327 -0.080174 -0.124907 0.373439 -0.354130 0.309362 0.073348 0.294204 0.400139 -0.051954 -0.104260 -0.367655 0.277960 0.212105 -0.290094 -0.355379 0.246557 -0.347550 -0.287007 0.373425 -0.262027 0.396529 0.123498 -0.473708 -0.193343 -0.285478 0.300428 -0.157172 0.373566 0.333395 -0.471183 0.231057 0.284337 -0.160433 0.318999 0.270393 -0.029462 0.175368 -0.425294 0.405434 -0.440989 0.057685 0.038486 -0.161252 -0.055693 -0.017122 0.384434 0.126404 -0.181573 0.476702 -0.378548 0.120110 0.213623 -0.253050 -0.497590 0.318344 0.465691 0.038463 0.093070 -0.479620 0.219798 0.183558 0.351993 -0.297291 0.410820 -0.394606 -0.387233 -0.092274 -0.279367 0.401114 -0.216645 -0.431163 0.183614 -0.192189 -0.081663 0.171483 -0.139586 -0.404329 -0.054539 -0.346662 -0.111201 -0.018824 -0.368067 0.424523 -0.101666 -0.121620 -0.202085 0.247375 -0.452831 0.215861 0.265283 0.309248 0.067420 0.443076 0.114304 -0.496501 0.115029 -0.090368 0.337295 0.466898 -0.415420 0.292343 -0.057020 0.168500 0.273143 -0.072411 0.203062 0.333058 0.024036 0.144831 0.464721 -0.468669 0.395026 0.479903 -0.092367 0.010339 0.431010 -0.007351 -0.479773 -0.253387 0.267258 -0.054610 -0.388851 -0.316176 -0.367556 0.007874 -0.295131 0.029304 0.116572 -0.381637 0.281109 0.418599 0.245784 -0.140740 -0.032744 -0.209198 -0.346353 -0.210002 0.153786 -0.154614 -0.379869 0.359288 0.492475 -0.433453 -0.060084 -0.305066 -0.017556 0.384522 -0.181792 0.185680 0.111216 -0.101466 0.379150 0.322138 0.437339 -0.234721 -0.493483 0.231855 0.101248 -0.196644 0.091598 0.126893 -0.406866 0.013206 0.202499 -0.154557 0.306244 0.127630 -0.404383 0.441959 -0.423956 0.351131 -0.343412 0.263565 0.459474 0.067505 0.413035 -0.324547 -0.460861 -0.165487 -0.128858 -0.042204 0.384831 0.255515 0.499385 -0.064555 0.130779 0.065432 0.302731 0.120009 0.079808 -0.231845 -0.410990 0.449765 0.283733 0.044606 -0.091411 0.346473 0.370876 -0.370780 0.485298 0.167204 0.304242 0.457517 0.335975 -0.179757 0.428803 -0.416624 0.126538 -0.279450 -0.225695 -0.024474 -0.393154 0.345218 -0.112736 0.408469 -0.165403 0.333083 -0.084945 0.382377 0.111499 -0.003818 -0.293344 -0.215092 0.089803 -0.416057 0.120931 -0.296382 -0.413742 0.084102 0.384199 0.115703 -0.147030 -0.305624 -0.498076 0.069513 0.201985 -0.462019 0.397868 -0.468240 -0.469481 0.337786 -0.052283 -0.136882 0.466217 0.157522 0.112305 -0.375975 0.131441 0.307767 0.069660
0.242738 -0.081491 0.158649 0.355042 -0.016551 0.309541 0.083073 -0.372993 0.384011 0.159856 -0.275017 -0.300196 0.336272 -0.417803 0.388242 -0.042871 -0.295436 0.378456 -0.432848 -0.244815 0.228689 0.086332 -0.451936 -0.388700 0.468039 0.241279 0.311757 0.139367 -0.196999 -0.392460 0.118962 0.075157 0.207289 0.435403 0.009499 -0.401449 0.484865 0.105227 0.052895 0.112112 -0.216923 -0.440267 0.234695 0.265569 0.149723 -0.185786 0.049379 0.470075 -0.288679 0.159863 0.321643 0.150265 0.435313 0.030719 -0.257333 0.109908 -0.048301 -0.063419 0.483773 -0.342779 0.335414 0.123511 0.412847 -0.294950 0.073709 0.110323 -0.032184 -0.168122 0.128172 0.451665 -0.161767 -0.419688 0.241293 -0.005066 0.185660 0.122996 0.425324 -0.169624 -0.232100 0.423183 -0.390375 0.038401 -0.126458 -0.490289 -0.459173 -0.298645 0.349777 0.253736 -0.283419 -0.493175 -0.407363 -0.465739 0.246027 -0.314008 -0.257628 0.239453 0.231315 0.067348 -0.153534 -0.134331 -0.481469 0.071882 -0.340613 0.328353 0.203842 0.233839 0.442326 -0.328014 0.214165 -0.418247 0.189740 0.013418 0.439523 0.283908 -0.150943 0.144331 -0.048558 -0.115296 -0.296583 0.446868 0.141057 -0.066381 -0.060639 -0.052056 -0.259181 -0.039145 0.149840 -0.214865 -0.119725 0.263127 0.332761 -0.308555 -0.342447 0.266761 0.304728 0.253656 0.429353 0.189479 0.040928 -0.304095 0.132498 0.014860 -0.263436 0.421198 0.325162 -0.473481 0.145005 0.450399 -0.248084 0.200367 -0.421817 0.132816 -0.440932 0.185307 0.330026 0.376232 0.009057 0.197618 -0.431837 0.296387 0.426949 0.485061 0.209422 0.351222 -0.067242 0.135755 0.486974 0.338544 -0.183332 -0.209511 0.373772 -0.282736 -0.129419 -0.451936 -0.148215 0.145895 0.035983 0.128262 -0.025286 -0.347432 -0.465222 0.468006 -0.190686 -0.203835 -0.181464 -0.165985 -0.417863 0.379132 -0.347754 -0.286117 -0.310713 0.234393 0.014451 -0.035322 -0.279121 -0.402436 -0.140367 -0.300428 0.326880 0.336968 0.212801 -0.137020 -0.301675 -0.105093 -0.398041 -0.256980 0.440340 -0.167536 -0.183229 0.334189 0.049675 -0.041953 0.216214 -0.398800 0.111956 -0.494866 0.397523 -0.366169 -0.247923 0.367260 0.163567 -0.238584 0.300682 -0.343004 0.004416 -0.290999 -0.401195 -0.142652 -0.324701 0.418504 -0.061112 -0.461169 -0.219767 0.110882 -0.074741 0.455681 -0.188293 0.373738 -0.317218 0.077776 -0.151441 -0.452257 0.039852 -0.009938 -0.060568 0.477785 0.347477 -0.474499 -0.161272 0.307085 -0.467325
0.387656 0.184292 -0.444998 0.441941 0.185936 -0.436777 -0.049740 -0.460050 0.198756 0.485018 -0.079404 -0.368999 0.383114 0.344181 -0.291980 -0.415390 0.022665 0.015781 0.006223 0.164095 -0.186763 -0.241347 0.499958 -0.412477 0.059457 -0.268356 0.439623 -0.381124 -0.357830 0.331225 0.219235 0.051859 0.274880 0.279383 0.128233 -0.373833 0.193300 0.069999 -0.056186 0.107082 -0.049327 0.165022 0.413634 0.446215 0.037676 0.014410 -0.285245 0.486714 0.019569 -0.096615 0.427343 -0.118284 -0.295316 0.019828 -0.118129 0.104009 0.395817 0.464457 0.021707 0.115584 -0.071512 -0.365941 -0.496957 0.267644 -0.092859 -0.224009 0.112067 -0.446109 0.036207 -0.322184 -0.054900 0.231167 0.111804 0.099682 0.015495 -0.463033 -0.385313 0.052172 -0.342996 0.043895 0.321019 0.349295 0.367791 -0.403166 0.166776 0.010765 -0.021869 0.430317 -0.488411 -0.043847 0.059276 0.103271 0.325735 -0.020708 -0.435694 -0.258798 0.476930 0.227359 0.284506 -0.199687 -0.193700 -0.451472 0.278759 0.211454 0.018027 -0.465480 -0.232630 0.491613 0.244249 0.150646 -0.159153 0.216325 -0.075395 -0.088067 -0.496824 0.135600 -0.087237 0.182797 -0.121866 -0.305001 0.333799 -0.380402 0.013407 0.307229 0.241338 -0.382222 0.044226 0.234799 0.181096 -0.255317 -0.036400 0.183088 0.456083 0.150301 0.418387 0.390778 -0.240187 -0.129103 -0.002526 0.496483 0.396819 0.017578 -0.249946 -0.440962 -0.177330 0.177048 -0.107250 -0.438446 -0.477829 0.119199 -0.493254 -0.461259 0.276662 0.465654 -0.065248 0.480735 -0.199009 -0.268356 0.455600 0.393748 -0.391447 -0.484348 -0.168810 0.066559 0.433760 0.208328 0.184076 -0.396575 -0.257421 0.267987 0.496091 0.002175 -0.019644 -0.300726 0.497652 0.409957 -0.358533 0.355452 0.069026 -0.343985 -0.082713 -0.318730 -0.195878 0.318744 -0.104872 0.412158 -0.145174 0.170332 0.491618 -0.325212 -0.072960 -0.331352 0.346170 -0.365434 0.347536 -0.439520 0.123150 -0.371549 -0.249345 -0.470256 -0.460387 -0.475130 0.205745 0.055243 -0.415298 0.335652 -0.130079 -0.242656 -0.354325 0.428935 -0.318216 0.496557 -0.009167 -0.269322 -0.067431 0.212904 0.066019 -0.041011 0.394479 -0.449950 0.023595 0.450219 0.239647 -0.464136 0.351450 0.001580 0.478539 0.317429 -0.480690 0.119598 -0.356097 0.147851 -0.311906 0.074151 -0.216113 -0.189370 -0.230485 0.141250 -0.145491 0.092728 0.054805 -0.151912 0.147798 -0.048670 0.361865 0.436939 -0.267842 -0.488231 0.428306 -0.426032 -0.257054
0.305972 -0.464852 0.017538 0.260647 0.395380 -0.381490 -0.281785 -0.248676 0.387316 0.279834 0.403712 -0.159609 0.324729 -0.368140 0.279997 0.147566 0.071875 -0.476177 -0.254206 -0.080205 0.400238 -0.007333 0.090019 -0.462947 0.388632 0.139191 -0.050790 0.301635 0.211923 -0.258715 0.301557 -0.053987 -0.400736 0.011794 -0.407389 0.060982 0.345661 0.263299 0.362210 -0.020463 0.340010 -0.194345 0.482078 -0.276292 -0.384916 0.389917 0.375718 0.437678 -0.316034 -0.327545 -0.077464 -0.248170 -0.096208 -0.330276 0.264918 -0.477713 -0.458781 -0.156211 -0.468680 -0.080445 0.362244 0.194434 -0.120776 0.005471 0.277686 -0.121034 -0.215926 -0.180384 -0.426711 -0.499216 0.122042 -0.043948 -0.180975 -0.378350 0.033083 -0.220244 0.268665 0.483625 0.138676 -0.066737 -0.146355 -0.062221 -0.225244 0.490983 0.202869 -0.045734 -0.150881 -0.399524 0.378746 0.165148 -0.437234 -0.441490 0.324939 0.110039 -0.091889 -0.330648 0.305772 -0.252725 0.446933 -0.395961 -0.386275 0.254802 -0.050692 0.083389 0.303525 0.267984 0.368802 -0.206651 -0.333332 -0.358445 0.030467 -0.488695 0.112821 0.170299 0.468665 0.343110 0.348279 0.346693 -0.152606 -0.152836 -0.319756 0.436226 0.012018 -0.061441 -0.426110 -0.288468 -0.174019 0.081807 0.165469 0.140635 0.201886 -0.050374 -0.266694 0.144517 -0.113591 -0.218983 -0.406723 -0.078990 -0.249524 0.196781 0.301918 -0.031497 -0.027904 0.436356 -0.370057 -0.364575 -0.079476 -0.238694 -0.436704 -0.244550 0.483921 0.301546 -0.438323 0.263077 -0.366827 0.295568 0.386906 0.444832 0.474434 0.357450 -0.263397 -0.349835 0.349078 -0.094311 -0.436346 -0.263593 0.353510 0.481685 -0.294151 -0.259377 0.145390 0.403554 0.018572 -0.207484 -0.394083 0.202694 -0.169968 0.430126 -0.115402 -0.385291 0.394964 0.375578 -0.049753 0.257674 0.292215 0.172390 0.434580 -0.063937 -0.143512 -0.208625 0.312770 -0.303657 0.397081 -0.174052 0.438193 0.209895 -0.039497 -0.021275 0.309895 -0.341736 -0.385701 -0.267216 0.056300 0.080305 0.130639 0.358708 0.405938 -0.467579 0.003581 0.416312 -0.142950 0.313878 0.329926 0.263649 0.327345 -0.182466 0.074792 -0.300982 0.033717 -0.149937 0.144786 0.068373 -0.239898 -0.242372 0.331490 -0.299003 0.229130 -0.350306 -0.228516 0.031680 0.459887 -0.268602 -0.107206 -0.298721 -0.092726 0.174765 -0.331335 -0.064202 0.026328 0.445751 -0.096852 -0.309112 0.471826 0.144864 0.481330 0.334220 0.231173 -0.392721 0.349463 0.145363 0.194495
-0.478183 -0.308329 0.167347 -0.200899 0.498932 -0.354674 -0.481042 0.184715 0.416724 -0.236009 -0.399928 0.309558 0.070800 0.057266 0.460105 0.230206 0.059741 -0.219309 -0.381317 0.411034 0.049711 -0.090447 -0.174790 0.281161 0.161569 -0.385445 0.341138 0.392647 0.102116 -0.383803 -0.015356 0.498316 0.309434 -0.494699 0.274436 0.032568 0.255712 -0.016778 0.012549 0.388260 0.036164 0.314799 0.204314 0.283742 0.045716 0.097624 -0.109145 0.248787 0.056784 0.273005 0.442484 0.358832 -0.037542 -0.262163 -0.019647 -0.345453 0.490420 0.324814 0.309916 0.121151 -0.121638 -0.317374 0.064515 0.222888 -0.377035 -0.263533 0.237989 0.318712 -0.438663 -0.223340 0.453474 0.265247 0.183923 -0.439139 0.112740 -0.141828 -0.456542 0.281458 0.379910 0.342745 0.193046 -0.019667 0.390274 0.395192 -0.177475 0.267533 0.245136 -0.448116 0.047028 0.241944 0.497845 -0.410302 -0.390949 0.409016 -0.180835 -0.374685 0.256208 0.013070 0.198879 -0.406052 -0.023407 0.263302 -0.373092 -0.019290 0.468125 0.363373 0.003552 0.415714 -0.428934 -0.330987 0.395551 -0.271266 0.255072 0.463880 0.062358 0.399818 -0.045095 0.371874 -0.360753 -0.213041 0.426610 -0.449040 0.443434 0.230812 -0.245930 -0.212324 -0.123769 -0.359092 -0.365413 -0.334061 -0.253121 0.353791 -0.056871 -0.153183 -0.164506 0.321002 -0.042314 -0.415563 -0.252047 -0.327636 -0.497168 -0.468954 -0.128589 -0.160930 0.304415 0.314986 -0.098940 -0.360353 -0.392263 -0.387291 0.469719 0.215805 -0.121662 0.444060 0.464786 -0.239801 0.485666 0.390605 0.394590 0.411386 -0.244700 -0.279843 0.358192 -0.413533 0.137823 0.362174 -0.334934 -0.112540 -0.159272 0.382111 -0.241801 0.316557 0.285662 -0.408071 0.342004 -0.117025 0.286821 -0.397889 -0.222996 0.057596 -0.153613 -0.252228 0.093661 0.070733 -0.387290 0.328486 0.083911 0.117878 -0.193266 -0.256305 0.101703 -0.375928 0.265021 -0.299926 -0.031804 -0.429609 -0.014104 -0.018604 -0.416232 0.152432 -0.414290 -0.194296 0.305361 0.386182 -0.495823 0.277318 -0.051961 0.425406 -0.075929 -0.444994 0.085178 0.193851 0.408431 0.139650 -0.474919 0.053447 0.238640 -0.402404 0.451730 0.309705 0.372835 -0.498898 -0.115810 0.245102 0.131756 0.337738 -0.467315 -0.225756 -0.249458 0.165764 -0.175806 -0.473947 0.407992 0.356433 0.028975 0.378275 0.242561 -0.403138 -0.096234 0.358168 -0.209079 -0.380983 -0.133160 0.331971 -0.057307 -0.079247 -0.335941 0.309352 0.147788 0.095326 0.369466
-0.322075 0.477238 0.013317 -0.093683 0.405931 -0.009247 0.498953 -0.265679 -0.401280 0.286616 -0.001713 -0.122448 0.496115 -0.465878 0.486473 -0.287832 0.333177 -0.076914 0.465439 -0.267966 0.091954 -0.020530 0.335151 0.376732 -0.208204 0.360980 -0.341546 0.091560 0.170614 0.009855 0.304563 -0.496335 0.386658 0.477845 0.340245 0.077334 0.133053 -0.455344 0.481589 -0.093068 0.181213 0.314373 -0.199331 -0.246566 0.466208 -0.164447 0.016343 -0.078731 -0.079147 -0.077482 -0.001943 -0.419973 -0.034887 -0.276210 0.258653 -0.475963 -0.411461 0.425309 0.129289 0.362456 0.067093 -0.073733 -0.007768 0.266687 0.101692 0.363593 0.390700 0.132408 -0.435259 -0.304185 -0.067275 -0.414691 -0.130550 0.480011 0.293438 0.404070 0.162750 0.244975 0.014836 -0.077283 -0.319020 0.386839 -0.204053 -0.094538 -0.385311 0.301684 -0.101839 0.290396 0.140092 -0.316125 0.019561 0.358717 0.196419 0.336123 -0.049217 0.372829 -0.312914 0.024675 -0.462444 -0.358675 -0.421446 -0.310978 -0.341425 -0.081910 -0.269899 -0.323290 0.039840 0.207896 -0.184740 0.013487 0.129946 0.451781 -0.200990 0.178529 0.497824 0.307009 -0.002473 0.086297 0.081000 0.452153 0.003588 0.042384 0.108725 -0.390107 -0.265719 -0.162304 0.141216 0.004027 0.378742 -0.446048 0.433693 0.296721 0.210116 0.301414 -0.384657 0.157706 -0.465429 0.190153 -0.221632 -0.142965 -0.278242 -0.066821 -0.155281 -0.413309 0.143536 -0.202820 0.432895 -0.125838 -0.425001 -0.282782 -0.093745 0.264346 -0.042301 -0.362875 0.060518 0.244888 0.121651 -0.396947 0.386055 0.204371 -0.022416 0.067170 0.353705 -0.372036 -0.213903 0.368322 -0.397530 0.420820 0.366983 0.121363 -0.288884 0.097795 0.052481 -0.272331 -0.297675 -0.025988 -0.371178 0.177817 -0.116932 -0.047103 0.472114 0.163648 -0.185013 0.496843 0.496597 0.010359 -0.404125 0.316146 -0.082026 0.417851 -0.209997 0.313286 0.455493 0.410618 -0.119420 0.145428 0.378169 -0.233709 0.433866 0.099733 0.260792 0.194706 -0.337753 -0.091743 -0.379713 0.242977 -0.175238 -0.278900 -0.256066 0.081372 -0.440695 0.166613 -0.464403 0.236399 -0.451929 -0.285199 -0.387104 -0.098538 -0.318455 0.261423 0.109444 0.326410 -0.209194 0.118386 -0.078039 -0.428293 0.456694 0.456988 -0.124524 -0.295908 -0.123335 0.192057 0.493886 -0.126060 0.229178 -0.419416 -0.270064 -0.190211 -0.284140 0.132759 -0.234828 -0.218329 -0.437583 -0.196903 -0.430642 0.265699 0.302231 -0.096636 0.117927 0.036654 0.217871
-0.169000 -0.152947 0.248238 -0.236266 0.067924 0.345062 -0.082583 -0.440037 0.460832 0.010987 0.465212 -0.048352 0.432755 -0.237555 0.284582 0.182995 -0.326899 -0.151686 0.119386 0.122351 0.260746 -0.258391 0.408119 -0.436283 -0.281166 0.070612 -0.223950 0.139657 0.182009 -0.142870 -0.084566 0.453406 0.109837 -0.206769 0.022452 0.366565 0.145102 -0.337830 -0.349455 0.199483 -0.029863 -0.058731 0.020544 -0.229353 -0.187191 0.231009 -0.453404 -0.268090 0.341268 -0.487807 -0.265895 0.134356 0.120398 -0.469126 0.189513 -0.349289 -0.474769 -0.432644 -0.015620 -0.438512 -0.415874 0.047415 -0.047893 0.081785 -0.046644 0.468638 -0.183134 0.069170 0.095681 -0.173558 -0.466977 0.029115 -0.086321 -0.269290 0.361970 0.018750 -0.191605 -0.392210 0.277356 -0.292371 -0.342757 0.014726 -0.423747 0.169014 -0.431740 0.401289 -0.300770 -0.150873 -0.316860 -0.307928 0.066850 0.255491 0.439504 -0.342140 0.202478 0.476103 0.277678 -0.095778 0.087945 -0.373547 0.121742 0.006026 -0.186183 0.199962 0.164410 0.033015 -0.261942 0.006125 0.360251 -0.301576 0.345969 -0.332019 -0.173353 -0.248150 -0.232463 0.263154 -0.136911 0.375341 -0.446453 -0.064531 -0.415429 0.221972 -0.444811 0.068427 0.164095 0.460515 -0.331595 -0.386752 -0.196269 -0.399588 0.323242 0.178569 0.135579 0.352560 0.440837 -0.029490 -0.422224 0.231953 -0.386038 0.304122 0.161864 -0.155664 0.161337 -0.167804 -0.223972 -0.419576 -0.427239 0.213653 -0.262837 0.217045 0.001051 0.290559 -0.042907 0.315410 0.195294 0.431884 0.028517 -0.328016 0.340268 -0.245545 0.380423 0.018672 0.306365 -0.361432 -0.136031 0.214364 0.466053 -0.173209 -0.022668 0.286530 -0.498912 0.185939 0.279396 0.216304 -0.127723 0.081190 0.271390 0.316643 0.097231 -0.323002 -0.389901 0.388948 0.394457 0.484167 -0.007279 0.397909 -0.148981 -0.258888 0.410995 -0.374709 0.264565 0.361780 -0.383299 -0.274256 0.437686 -0.196875 -0.011543 -0.130559 -0.152480 0.235728 -0.007320 0.499767 -0.139934 -0.056935 0.357758 -0.264489 -0.094191 -0.168125 0.057649 -0.323901 0.055633 -0.322597 0.065478 -0.262120 -0.021361 0.128291 -0.453100 -0.114709 0.135286 0.099320 -0.470543 -0.435562 0.093493 -0.192333 -0.266466 -0.395747 -0.097047 0.335418 0.013097 0.325613 -0.361972 -0.365414 -0.340789 -0.417247 -0.306219 -0.226108 -0.019070 0.368097 -0.386594 -0.007950 0.135924 0.008569 -0.320968 -0.213289 0.086448 0.028041 -0.274470 -0.014141 -0.464688 0.024824 -0.150657
-0.249273 0.338358 -0.023387 -0.341366 0.219074 0.455006 0.226221 0.038675 0.258780 -0.395470 0.013147 0.189076 -0.317620 -0.131154 -0.052027 -0.083388 -0.193351 0.194043 0.276979 -0.130397 -0.092796 0.108759 0.130522 -0.162234 0.327767 0.396438 0.374314 0.146355 0.326616 0.120284 -0.166884 -0.491066 -0.167552 0.056190 0.097159 0.185533 0.381818 -0.007328 -0.157955 0.470335 0.452679 0.250768 0.314420 -0.218888 -0.443363 -0.083998 0.308027 0.037197 0.480713 0.220857 -0.336696 0.269454 -0.252937 -0.213417 -0.286395 0.273642 -0.490450 -0.233301 0.282592 0.328330 0.286364 0.400166 0.113649 0.183057 0.095117 0.018561 -0.169848 -0.224257 0.028071 0.053693 -0.384523 -0.389126 -0.198550 -0.262341 -0.388244 0.448705 -0.332760 0.049819 -0.368061 -0.198651 -0.475542 -0.129798 0.473678 -0.186321 -0.413472 -0.157714 0.373159 -0.014056 -0.136437 -0.341572 0.088160 -0.342133 -0.149820 0.348530 -0.420983 0.071779 0.277009 -0.290829 -0.200125 -0.094244 -0.476779 -0.228505 -0.375335 -0.468448 -0.136042 0.206314 -0.390881 0.188503 -0.344503 0.311208 -0.034398 -0.378971 0.383978 0.489781 0.165949 -0.166030 -0.289909 0.457835 0.388422 0.359272 -0.167859 0.445817 -0.308767 -0.040253 -0.099229 0.456784 -0.496603 -0.087571 -0.298892 0.404588 0.218963 -0.151548 -0.002785 -0.411947 0.094938 0.494148 -0.291658 0.055575 -0.414970 0.400563 -0.356390 0.188530 -0.431253 0.176528 0.093767 -0.088036 0.212099 0.108042 -0.064006 -0.468466 0.407258 -0.311893 0.261486 0.463677 -0.269626 0.268868 -0.373059 0.261444 0.149684 -0.250792 -0.206782 -0.467428 0.341957 0.350951 -0.030353 -0.244605 0.344294 -0.074825 -0.363717 -0.001682 -0.412296 -0.006612 0.353556 -0.296093 -0.238364 0.152499 -0.491861 0.293720 -0.477985 0.363847 0.221564 -0.397413 -0.198594 0.146614 0.269329 -0.013672 0.224413 -0.040287 0.385251 -0.214683 -0.157013 0.356239 0.388919 -0.239080 -0.268952 -0.304404 -0.286777 0.108241 -0.191724 -0.411220 0.193887 0.169167 0.375258 -0.100280 0.288380 -0.196070 0.338253 -0.148615 0.454521 -0.089839 0.309371 -0.469842 -0.198348 0.200073 -0.001802 0.140476 0.169804 -0.009940 0.107215 -0.292557 -0.086332 0.402546 0.165043 -0.141748 0.067115 0.006580 -0.069452 -0.292259 -0.108653 0.117319 -0.120909 -0.263510 -0.008414 -0.327066 -0.359133 0.182475 0.244320 0.175232 0.108696 -0.400022 0.378125 -0.488670 -0.288660 0.208758 -0.121849 0.045973 -0.184421 0.385661 0.244080 0.228676 -0.298475
0.412789 -0.389092 0.036775 0.042099 -0.447705 0.444476 0.083207 -0.031102 0.495189 -0.483452 -0.424346 -0.097194 0.168037 -0.066639 -0.453776 0.130811 0.195558 -0.008591 0.368805 0.171295 -0.468212 -0.328326 -0.047980 -0.291863 -0.432624 0.348590 0.122735 0.134748 0.041564 0.096806 0.452073 0.105235 0.047896 0.294630 0.195466 -0.402511 0.112918 0.255946 0.187392 -0.104808 -0.160201 0.116165 0.488150 -0.434874 0.402189 0.197040 0.424074 0.069826 -0.181134 -0.364786 -0.394508 0.430140 -0.039894 0.280333 -0.014590 -0.433272 0.081586 -0.250885 0.029464 0.047374 -0.329123 -0.062575 -0.351441 0.178695 -0.476774 -0.254096 0.347962 0.340804 -0.037875 -0.289368 0.125477 0.164242 0.306664 -0.304713 -0.398354 0.035022 0.051870 -0.478078 0.114668 -0.499844 -0.459804 -0.205202 -0.016391 -0.019007 0.213131 -0.358385 -0.100722 -0.391404 -0.325967 0.110370 0.020750 -0.140012 0.388890 -0.059239 -0.442858 -0.103847 0.466770 0.449204 0.160993 -0.346001 0.453264 -0.384052 -0.055991 -0.311420 -0.436797 0.455366 -0.325308 0.187378 -0.476551 -0.321562 -0.445656 0.498652 0.179705 0.297165 -0.325808 0.176250 -0.428998 0.023338 -0.214216 0.221617 0.113147 0.191900 -0.410930 0.227046 0.334975 0.353019 -0.025149 -0.238328 -0.493403 0.355859 0.446491 -0.129449 0.041494 0.325083 0.138048 -0.316287 0.008270 0.056654 0.459645 0.010466 0.324397 0.367519 0.350090 -0.196533 -0.000499 -0.487441 0.284802 -0.309663 -0.033633 -0.394695 -0.247758 -0.471334 0.429075 0.287521 -0.186951 -0.353188 0.019263 0.469976 0.433887 0.005208 -0.433088 0.074180 0.434233 -0.274049 -0.399274 0.195643 -0.023236 0.185822 0.004519 -0.218297 0.167619 0.254989 0.011263 0.312569 0.392396 -0.329690 -0.141581 0.184158 0.378207 0.392790 -0.304034 0.438423 -0.195708 -0.017967 0.361565 -0.072838 -0.438256 -0.106537 0.467041 -0.070301 -0.112307 -0.310133 -0.485257 0.455025 -0.440755 -0.369313 0.113783 -0.284478 -0.466172 -0.064666 -0.417502 0.225173 -0.227852 -0.002544 0.199685 -0.483974 -0.146764 0.253478 -0.086555 0.264729 0.115360 -0.051696 -0.116393 0.208477 -0.494148 0.479212 0.118217 -0.384789 0.434056 0.156456 -0.002307 -0.340282 0.335023 -0.466189 0.361956 -0.476331 0.023352 -0.307610 0.215089 -0.231617 -0.107871 0.088170 -0.232923 -0.019597 0.067865 -0.255256 -0.099850 0.134573 -0.070945 0.385661 0.215115 0.277869 -0.205670 0.449027 0.109948 0.128042 0.457310 -0.486634 -0.483300 -0.173904 -0.334666
0.334808 -0.360411 -0.142182 -0.084760 0.375638 0.175619 0.442200 0.319710 -0.258642 -0.129283 0.482581 0.040514 0.268218 0.122021 -0.072487 0.025034 0.254187 0.133099 -0.386540 0.293167 0.051466 -0.437945 0.133229 0.164916 0.114955 -0.161459 0.256769 -0.037172 0.274056 0.136353 0.479869 0.204506 0.363598 0.470642 0.027370 0.001515 0.138983 -0.484257 0.007215 -0.112780 -0.499133 0.016515 0.301236 -0.250593 0.333069 0.089420 -0.126865 -0.127353 -0.149675 -0.256893 0.336362 0.353721 -0.430104 0.458677 0.029077 0.353726 -0.455527 0.312766 0.237122 -0.410133 -0.143654 -0.100567 -0.125969 0.159486 0.237634 -0.079987 0.419668 0.320144 -0.222578 -0.279787 -0.153446 -0.085744 -0.231512 -0.173762 -0.294247 -0.454949 -0.316216 -0.425477 -0.375122 0.367680 0.040021 0.001129 0.476523 -0.153167 -0.312958 0.163942 -0.224773 -0.056071 -0.051517 -0.218319 -0.113736 0.291959 0.043908 -0.070106 0.270254 -0.482317 -0.443642 0.177641 -0.207686 0.173721 -0.172432 -0.175460 -0.498512 0.241346 0.021238 0.266635 0.079085 -0.289051 -0.054680 0.469101 0.172690 0.071079 0.209688 0.191402 -0.058576 0.264211 0.203505 0.333003 -0.473880 -0.421463 -0.024594 0.372296 -0.228033 0.466432 -0.402163 -0.192149 0.130413 0.378607 0.065455 -0.294368 0.049147 -0.388178 0.440802 -0.318277 -0.346139 0.247856 0.243724 -0.390019 -0.093476 0.093262 0.434129 -0.156536 -0.290252 0.186759 0.138329 0.355365 -0.167769 0.103480 0.433137 -0.385398 -0.497603 -0.349866 0.045482 0.203524 0.198211 0.331150 -0.059215 -0.489102 -0.433519 0.270908 0.174124 -0.238972 -0.413816 -0.297900 0.257443 -0.362993 -0.199924 0.495613 -0.069950 -0.094126 0.202295 0.303056 0.161862 -0.163228 -0.208896 -0.167031 -0.290565 -0.111398 0.069501 0.366528 0.329419 0.268343 0.132455 0.264376 -0.433701 0.401123 -0.426296 0.111805 0.414764 0.281443 -0.222667 -0.264043 -0.165133 -0.428566 0.296003 0.480687 0.482889 0.116462 -0.068496 -0.158067 0.436229 0.400409 0.392057 -0.127418 -0.283783 0.488447 0.303989 0.316377 0.349119 0.103444 -0.027892 -0.228104 0.153987 -0.314711 -0.342959 -0.420905 0.308264 -0.136760 0.389147 0.077466 -0.243506 -0.257919 0.045624 -0.290422 0.074283 -0.029277 0.325464 0.029670 -0.473579 -0.010193 -0.315271 -0.146960 -0.295257 0.248364 -0.085109 -0.021728 0.132762 -0.304477 -0.096265 0.026722 0.075238 0.204220 -0.111390 -0.131073 0.240589 -0.097098 -0.341908 -0.415265 -0.414923 -0.425201 -0.176406
0.274426 -0.461120 -0.034050 -0.208872 -0.162031 0.423359 -0.407286 0.192297 0.439050 -0.299423 0.367902 -0.006244 0.275248 0.358570 0.301296 -0.347178 -0.363574 -0.206455 0.252262 -0.386951 0.101666 -0.353067 -0.391588 0.493902 0.311407 0.102397 -0.287057 -0.478226 -0.216559 0.202596 -0.496706 0.101587 0.142389 -0.273785 0.222781 -0.163904 0.480238 0.351730 -0.499423 0.355495 0.010909 0.126518 -0.009692 -0.482303 -0.369059 -0.117309 -0.080088 0.068784 -0.129194 0.170265 0.232660 0.232538 -0.338312 -0.046222 0.081624 -0.300242 -0.335737 0.057686 0.383558 0.423524 -0.232486 -0.444397 0.000130 0.208051 -0.131791 -0.491893 0.094885 0.111735 0.095093 -0.139415 0.244267 -0.430260 -0.180598 -0.385660 0.041420 0.317054 0.090582 -0.057659 0.041205 0.254536 0.069995 0.377025 0.251403 0.341282 -0.424818 -0.069125 -0.087696 -0.488197 -0.265722 0.286894 -0.178926 -0.049465 0.219063 0.106448 0.298678 0.359969 -0.159318 0.475467 0.214519 -0.366016 0.111681 0.034917 -0.487005 0.202902 -0.155050 0.455041 -0.345357 0.171663 -0.011581 0.053933 -0.093612 0.125731 -0.494003 0.077340 0.412607 -0.162964 -0.153583 -0.214207 -0.083504 0.295264 -0.228184 0.359945 -0.200290 0.312697 0.247098 -0.451251 -0.335551 0.298173 0.102453 -0.357679 0.057272 -0.096469 0.007040 0.075050 0.265471 0.180712 0.047502 -0.015729 -0.203358 0.332989 -0.198043 0.351229 0.446680 -0.482307 0.325111 -0.279393 -0.251207 -0.026912 -0.032623 0.445178 -0.201442 0.108796 0.438801 0.179313 0.112231 -0.422025 0.251951 0.064322 0.269541 0.344964 0.118938 0.029879 0.368680 0.290654 0.105661 0.056461 0.008532 0.163902 0.420420 -0.458148 0.379517 -0.407440 0.190731 0.218755 -0.254578 -0.351084 0.308777 0.426552 0.070830 -0.362368 0.216693 -0.187279 0.267994 0.017802 0.468102 -0.121525 -0.386659 0.497167 -0.280962 -0.269605 -0.442709 0.334170 0.434557 -0.235226 -0.012433 0.128702 0.392230 -0.215541 0.000762 0.471473 0.119392 -0.089221 0.436637 -0.476434 -0.499576 0.385254 -0.446864 0.023006 0.190569 0.363919 -0.004965 0.427083 -0.463211 0.313926 0.121421 0.360088 -0.080362 -0.279233 0.061848 -0.158365 -0.249546 -0.429283 -0.305651 0.244605 -0.124694 0.395998 -0.278935 0.040558 -0.483413 0.045400 -0.396143 0.338580 0.136407 0.354458 0.167679 0.178935 -0.075240 0.023329 -0.076041 0.121817 -0.341919 -0.346692 -0.306605 0.101813 0.229408 -0.063239 0.445552 0.103773 0.332819 -0.015534 0.177158
