0.119773 0.150116 -0.481678 0.390833 0.222379 0.165216 0.337298 0.368953 -0.252971 -0.300909 -0.402721 0.121986 0.411194 0.156228 -0.132043 0.114417 0.003832 0.174417 0.245341 -0.415965 -0.016366 0.142789 -0.318120 -0.373565 0.140002 -0.472471 -0.317658 0.143434 -0.181636 -0.094704 -0.142398 0.457707 -0.471420 -0.251218 -0.441027 0.352707 -0.395174 0.348840 -0.415916 -0.360609 -0.044418 0.052175 0.235249 0.082950 -0.110023 0.202757 0.187896 -0.093374 0.012344 -0.247953 -0.255611 -0.419167 0.406663 0.282226 0.038025 -0.468802 0.120379 0.065372 0.166434 0.057544 -0.219775 -0.107484 -0.141608 -0.044945 0.376846 0.472009 0.246937 -0.116389 -0.317059 0.054004 -0.219219 -0.114053 0.062136 0.057725 0.308554 0.393005 0.448256 -0.335690 0.083745 -0.149010 0.158140 0.355354 0.392111 0.407391 -0.230695 -0.238139 0.431957 0.412995 -0.030747 -0.340805 -0.125308 -0.455972 -0.086401 -0.244756 -0.136941 0.210846 -0.070895 -0.172563 0.141302 -0.293545 0.224177 0.382273 0.160558 0.015936 -0.440730 0.456686 0.137341 0.081265 0.244129 0.483306 0.317020 -0.189245 0.015554 0.269808 -0.063394 -0.260124 -0.418660 -0.007347 -0.275683 -0.015654 -0.194557 -0.083604 -0.046943 -0.273712 0.215438 -0.383957 0.003349 0.398201 -0.141286 -0.136805 -0.215335 -0.300937 -0.322343 0.056137 -0.096094 0.295845 -0.178655 0.371338 -0.049169 -0.210931 -0.092830 0.420095 0.252922 0.457210 0.041277 0.096645 0.293477 -0.228842 0.131800 -0.048408 0.017871 -0.241849 0.275821 0.274155 -0.020463 -0.180906 0.168206 -0.104818 0.087570 0.011460 -0.280707 -0.159076 0.188747 -0.393379 0.189262 -0.000962 0.477781 0.164262 -0.257785 0.293957 -0.081933 0.245852 -0.220896 0.470711 -0.131834 0.445366 -0.106480 -0.053199 0.461046 -0.208794 0.151569 -0.173938 -0.301521 0.374115 0.402215 -0.094499 -0.244569 0.261854 0.028840 -0.222894 0.252821 -0.169681 0.400077 0.373163 0.210207 -0.299748 0.072643 -0.422211 0.347467 0.374564 -0.055031 0.219897 -0.348237 -0.358360 0.241194 -0.210595 0.026270 -0.318627 -0.227867 0.472709 0.231442 0.208908 -0.101339 0.175579 0.354167 -0.054026 -0.327216 0.133214 -0.346288 0.474497 0.471382 0.443816 0.119940 0.375360 -0.013152 0.293852 -0.035457 0.334942 -0.448944 -0.257744 0.326113 0.190673 -0.304708 0.193270 -0.430792 0.325479 -0.040205 -0.063906 0.127000 -0.195587 0.124556 -0.309223 0.094065 -0.380466 -0.281100 0.331407 0.361007 -0.321656 0.231343 0.219752 -0.408492 -0.032510 -0.373013 -0.377462 -0.433302 0.482744 0.384029 -0.093370 -0.376602 -0.250784 0.038833 0.069322 0.402893 0.312650 0.240847 -0.250120 -0.449447 0.226412 0.102432 0.168261 -0.370765 0.330596 0.127283 -0.430103 -0.245736 0.146849 0.479784 -0.359127 0.165400 0.164957 -0.444121 0.438251 -0.385994 -0.106347 -0.442015 -0.291477 -0.349998 -0.006216 0.472105 -0.378084 -0.419629 0.224698 -0.183432 -0.133179 -0.324079 0.271301 -0.369076 -0.229262 -0.053903 -0.293290 0.353171 0.379645 -0.454279 -0.232003 -0.154129 0.002950 -0.163909 -0.270494 0.220952 0.199569 -0.349547 -0.083797 0.342779 -0.320441 -0.185261 -0.130822 -0.373332 -0.060007 -0.137672 0.429224 0.064592 -0.142730 -0.260879 -0.228260 -0.364328 0.464910 0.264577 -0.240516 0.019776 0.104415 -0.096552 -0.358907 -0.354159 -0.039479 0.071118 -0.478596 -0.225444 -0.410011 0.198906 -0.433478 0.228284 -0.417934 -0.209199 -0.355678 -0.033494 -0.247095 -0.457893 0.386048 -0.305455 -0.168812 0.007984 0.224653 0.318387 0.416416 -0.154145 -0.023937 -0.056163 0.215403 -0.003375 0.124777 -0.412490 -0.473782 -0.183648 -0.040542 0.089408 0.258285 0.123657 -0.308964 0.195623 -0.076607 -0.049088 -0.076257 -0.094833 -0.072881 -0.270569 0.480121 0.033988 -0.347435 0.247350 0.096940 0.226848 -0.139084 0.274723 -0.365856 -0.409389 0.262952 -0.484038 0.303611 -0.249695 -0.172917 -0.109436 0.479566 -0.005253 0.255408 -0.476262 0.251698 -0.112978 -0.355900 0.219488 0.428761 0.281219 0.384948 -0.074376 0.438112 0.479390 0.119410 0.019925 0.075165 0.448946 -0.110011 -0.413647 -0.035930 -0.048243 0.451539 0.426886 -0.419351 -0.408825 -0.424265 0.428288 0.016119 -0.432236 0.025545 0.457945 -0.284106 -0.183465 0.026334 -0.086529 0.343586 0.318481 0.452489 0.464582 0.436670 0.449050 -0.327498 0.461614 0.014993 0.026846 -0.448274 -0.405145 -0.425652 0.195483 0.328708 0.299936 -0.184551 0.295037 -0.429543 0.082340 0.291527 -0.372976 -0.088764 -0.345245 0.304641 0.298959 -0.003972 0.354338 -0.448978 0.071722 0.294370 -0.118418 0.408919 -0.298702 0.316275 0.017599 0.157864 0.276200 -0.420924 -0.060487 0.234506 0.185997 -0.256759 -0.293253 -0.481378 -0.379732 -0.201623 0.325884 -0.384925 0.396085 -0.395683 0.237393 0.132080 0.062842 0.459365 -0.290826 -0.404390 -0.367084 -0.119511 0.028475 -0.380780 0.462508 0.180769 0.228879 0.239182 -0.365140 0.420319 0.402576 0.117236 -0.345799 -0.318107 -0.093048 0.375548 -0.077516
-0.054504 0.325077 -0.093207 -0.179838 0.218145 -0.402437 0.305788 -0.348004 -0.387059 -0.468149 0.214318 -0.392535 -0.202120 0.246404 -0.390594 -0.444084 0.432956 0.385493 0.481681 -0.136769 -0.124013 -0.295881 -0.270415 0.218680 -0.006724 0.038267 -0.315973 0.048422 -0.268770 0.121844 0.049761 0.411047 -0.280962 -0.426278 -0.471384 0.026089 -0.449321 0.265078 0.102668 0.367212 -0.244422 0.467021 0.279660 -0.169978 -0.221951 0.405427 -0.134520 0.029200 -0.304874 -0.019538 -0.009550 -0.421037 -0.355079 0.224315 -0.353358 0.066296 0.267073 0.276089 -0.175645 0.454983 0.194792 -0.274528 -0.109145 -0.227753 0.487989 0.268284 -0.341793 -0.154156 0.144312 0.289182 -0.238303 0.328771 0.307890 -0.075135 -0.148735 0.481730 -0.382271 0.488282 0.345745 0.359049 0.377866 -0.251023 0.360503 0.161934 -0.032395 -0.323039 0.178800 0.153501 0.474968 0.350391 -0.203585 0.353166 0.288324 0.300344 -0.278087 -0.148834 0.041962 -0.019978 0.128528 -0.303834 0.176770 -0.106007 0.325313 -0.413347 0.467848 0.374486 0.398210 -0.434470 0.447158 0.121608 0.285662 -0.344917 -0.214080 -0.122808 -0.487348 0.420851 -0.202771 -0.157319 0.474019 0.355651 -0.356775 -0.278395 -0.230497 -0.382724 0.275123 0.185991 0.022988 -0.207863 0.010303 -0.426445 -0.200580 0.336969 -0.067945 -0.023277 -0.176926 -0.175620 0.317571 -0.352398 0.269083 -0.443938 0.063189 0.175313 -0.185347 -0.188702 0.467449 0.317447 -0.245815 -0.091663 0.402504 -0.373671 0.173795 -0.352842 0.413935 0.042858 0.041381 -0.118138 0.026165 -0.158007 0.383102 0.295449 -0.011787 -0.413851 0.084438 -0.249848 -0.468913 -0.419843 0.286341 -0.485049 0.264856 -0.222872 -0.359194 0.074576 -0.153325 -0.241532 -0.469802 0.151326 -0.421810 -0.237354 -0.490201 0.009850 0.379981 0.232092 -0.157249 0.411296 -0.361153 0.418046 0.091268 0.083005 -0.458351 0.394303 -0.379901 0.014629 -0.205778 -0.171053 0.237702 -0.419976 0.099971 -0.469908 0.474454 -0.203306 0.379432 0.393529 0.451280 0.396752 -0.258988 0.313829 -0.097221 0.473154 0.464791 -0.376446 -0.072749 -0.384986 -0.000541 0.277312 0.234845 -0.488143 0.111353 -0.277265 0.334954 0.050078 -0.468294 -0.374889 0.334677 0.092517 -0.374897 -0.411838 0.404706 -0.283501 -0.304865 -0.354007 -0.347232 0.399070 -0.346557 0.247293 -0.426720 0.372793 0.412903 0.166034 -0.259900 0.385839 -0.255236 0.176053 0.148042 0.199482 -0.482341 -0.327741 -0.107381 0.365047 -0.431934 0.394303 -0.220224 -0.045378 -0.156598 -0.485079 0.063005 -0.245066 -0.188099 0.086624 0.255246 -0.472799 -0.129245 -0.311273 0.042615 0.318993 0.341290 0.362502 -0.326404 -0.004690 0.093388 0.075294 -0.478982 -0.257496 -0.325252 0.398454 0.338939 0.200040 -0.433482 0.268711 -0.071288 0.286919 0.282723 -0.204783 -0.270909 -0.328449 -0.256183 0.391659 0.146118 -0.425004 -0.032569 -0.044807 0.151025 -0.294012 -0.299252 -0.171677 0.002819 0.340884 -0.408091 0.265242 -0.000159 -0.163170 -0.100001 0.387629 -0.445245 -0.272879 -0.231249 -0.284660 0.291662 0.399406 -0.308327 0.434905 0.441544 0.310482 0.014290 -0.069198 0.029031 0.349046 0.056805 -0.081054 0.231281 -0.161720 -0.000035 -0.203802 -0.208466 -0.257225 -0.312939 0.364423 -0.041073 0.374210 -0.231205 0.387199 -0.484641 0.123452 -0.329457 0.352071 0.352125 -0.143423 -0.319628 0.056142 0.409251 -0.490320 0.359003 0.372589 0.424946 -0.492574 -0.208750 -0.030429 0.245402 -0.100120 0.091513 -0.178605 0.004796 -0.240455 0.472753 0.096642 -0.124961 0.208878 -0.081289 0.057786 0.296621 0.213322 -0.352219 0.299641 0.393967 0.223203 0.463119 -0.486699 0.122107 0.445209 0.073828 0.097753 -0.036983 0.079823 0.214017 0.399783 -0.090654 0.079150 0.389473 0.436751 0.055446 0.190356 -0.332448 0.112929 -0.315307 -0.152833 0.005989 0.013681 -0.067568 0.158973 0.273026 -0.462967 0.491341 -0.476419 0.097670 -0.412570 0.285034 0.097352 0.362578 0.136703 0.129611 0.063989 0.479570 -0.130223 0.238206 0.168245 -0.010290 0.172608 0.331944 0.408291 0.328931 -0.216502 -0.058491 0.156480 -0.298052 -0.400180 0.462131 -0.340608 0.304726 0.088995 -0.036124 -0.121335 0.452437 0.369619 0.399955 0.260509 -0.146092 -0.245783 0.274734 -0.323628 -0.401465 0.320309 -0.336353 -0.431568 -0.360231 0.406055 0.456461 -0.394540 -0.210936 -0.428095 -0.279699 0.204582 -0.280536 0.138072 -0.381864 0.092502 0.218026 0.198604 -0.394803 0.169403 0.062242 -0.212839 0.430789 0.369828 -0.014639 0.239159 0.447817 0.462518 0.056734 0.249210 0.165787 0.119862 -0.017228 0.408830 0.431694 -0.021920 -0.143593 0.262642 0.009459 0.458596 -0.082979 0.418628 0.130889 -0.130497 -0.281259 0.331159 0.389840 -0.160690 0.023085 -0.197585 -0.370058 -0.018426 -0.414674 0.139706 0.155986 0.032470 0.456055 -0.437459 0.405945 -0.423198 -0.006545 -0.203802 -0.126624 -0.112760 0.265847 0.112526 0.365472 0.314926 -0.380896 0.189458 -0.463558 -0.022944 0.126395
-0.307443 -0.008024 -0.272812 0.434924 0.336639 -0.114011 -0.140198 0.294766 0.483466 0.157384 0.212401 0.209925 -0.182225 0.019001 0.042305 -0.035211 -0.342137 0.125739 -0.132505 0.429979 0.068929 -0.427693 -0.059622 -0.372925 -0.331646 -0.055620 -0.238349 -0.387007 -0.209136 0.042682 -0.296964 -0.280993 -0.050793 0.071739 0.433824 -0.195598 0.127455 -0.418626 0.077431 -0.015017 0.466570 0.155886 0.146993 0.068823 0.335324 -0.105848 0.430062 0.329778 -0.465455 -0.119292 -0.128185 -0.141483 -0.271703 -0.021793 -0.211458 -0.223905 0.114178 0.003405 0.234513 -0.416013 0.220116 0.341780 0.129921 0.264578 0.477130 -0.005594 -0.112866 0.413253 -0.171007 0.086442 0.274885 -0.272598 -0.151295 0.244121 -0.297247 0.130160 0.113826 0.338040 -0.297077 0.444863 -0.052124 0.360625 -0.267116 0.226628 -0.401423 -0.006667 -0.129371 0.362491 -0.413132 -0.023762 0.278484 -0.407418 -0.244642 0.318910 -0.391597 -0.435503 -0.143633 -0.118382 0.379274 -0.013922 0.274895 0.122722 -0.328547 -0.279293 -0.449690 0.347395 -0.097859 0.261497 -0.140413 -0.374004 0.370166 0.297819 0.347862 0.421730 -0.420245 0.076701 0.247892 -0.070077 0.443103 -0.247070 0.471752 0.246826 0.262752 -0.469195 0.264192 0.198366 0.099899 -0.149487 -0.138742 0.378755 0.348619 0.122840 0.167173 0.017078 0.218388 -0.320145 -0.030935 -0.193690 -0.049287 -0.031080 -0.019244 -0.078861 -0.286372 -0.244953 0.074248 0.483711 -0.131914 0.276368 -0.386554 0.375197 -0.022971 0.093579 -0.058242 0.172853 0.361364 -0.418496 0.417007 -0.086394 -0.464159 -0.040584 0.172517 -0.289846 0.422445 -0.416148 0.314581 -0.047259 0.381751 0.212990 0.127042 0.098777 -0.387143 -0.320617 0.479225 0.217607 -0.332752 0.242668 0.391746 -0.232927 0.227617 -0.066165 0.208798 0.106701 -0.294965 0.078333 0.429444 0.159759 -0.135573 0.289373 0.355682 0.268058 0.257665 0.076123 -0.270965 0.031178 -0.069502 0.063697 -0.021661 -0.280281 -0.197529 -0.430889 0.022320 0.449384 0.056615 0.401373 0.458527 0.180310 -0.395851 -0.334563 -0.405246 0.162681 0.116439 0.491240 0.356829 -0.057213 0.253276 -0.352373 -0.255499 -0.109839 0.305446 0.241017 -0.290146 0.449904 0.031785 0.322195 0.020617 0.073935 0.373208 -0.488324 -0.278270 -0.312823 0.243525 0.350318 -0.038048 -0.036812 -0.264585 0.056102 0.444562 -0.411168 -0.260087 -0.297831 -0.047392 0.413709 0.195628 -0.188449 0.038367 0.160250 -0.044733 0.380462 -0.349192 -0.440895 0.430446 0.106684 -0.401908 -0.152288 0.304695 -0.409585 0.286984 -0.393132 -0.069835 -0.213078 -0.285670 -0.298244 -0.354345 -0.255449 -0.313350 0.447257 -0.268141 0.427629 0.466533 0.414715 -0.045081 -0.346639 -0.165272 0.489438 0.386850 -0.014767 0.220479 -0.371758 0.335495 -0.348634 -0.331620 0.303237 0.254726 0.202713 -0.351880 0.209474 0.318962 0.100293 -0.382506 -0.069149 0.223380 0.094736 0.280694 0.352580 -0.059939 0.375598 0.351974 -0.072731 -0.430601 0.211144 0.482416 0.228425 0.379518 0.051981 -0.438209 -0.029622 0.136901 -0.324214 -0.091128 0.041042 0.468562 -0.115417 -0.412816 -0.287247 0.131212 -0.010176 -0.007106 -0.098419 -0.449951 0.198140 -0.478850 0.098714 0.203200 0.440080 0.323562 0.316771 -0.033988 -0.366632 0.309079 0.108501 -0.211878 0.278969 -0.224765 0.316877 -0.174280 -0.266280 0.105324 -0.256602 0.224060 -0.024683 0.164503 0.224340 0.027192 0.476939 -0.096746 0.017105 0.234607 0.306915 -0.487949 -0.296041 -0.341833 0.042203 0.240774 0.410622 -0.234155 -0.081125 -0.093336 -0.011342 0.015569 0.297492 -0.486199 -0.454778 -0.169792 -0.098612 -0.109337 -0.230092 -0.287510 0.033212 0.295178 0.128740 0.088161 -0.350835 -0.277208 -0.409201 -0.167335 -0.151116 0.463098 -0.158506 -0.196838 -0.357377 -0.211005 0.034428 -0.267518 -0.346413 0.130611 0.407399 -0.466456 -0.396176 0.200264 -0.101982 -0.489081 0.338321 -0.240420 -0.431575 -0.127557 0.123162 -0.407630 0.242217 -0.481261 0.197147 0.419515 0.211835 -0.095748 -0.456648 -0.244363 0.116219 0.467431 0.068096 -0.033459 0.309610 0.281155 -0.056011 -0.091465 0.491983 0.192148 -0.018107 0.414829 0.358887 -0.027565 -0.204566 -0.153997 -0.358196 0.366613 0.402049 -0.181433 -0.348242 0.233406 0.360284 -0.352381 -0.410544 0.127204 0.421604 -0.144599 -0.228032 0.387081 0.111617 -0.072953 -0.471460 -0.392769 -0.342089 -0.256229 -0.453599 0.353620 0.211569 0.423500 0.327595 -0.081098 0.257585 -0.464507 0.034277 -0.377458 0.417921 0.036166 -0.413606 -0.152591 0.421773 -0.111115 -0.159376 0.062231 -0.034969 -0.201935 -0.097694 -0.199782 0.024955 -0.312462 -0.144953 -0.173137 0.433107 0.106662 0.206142 0.271255 -0.308759 0.392273 -0.209076 0.006357 0.050893 -0.324832 0.139543 0.467996 -0.269968 -0.124484 0.056835 -0.028918 0.067970 -0.079715 -0.413496 -0.353094 0.475473 0.215850 -0.424333 -0.025204 0.214129 0.374376 0.009123 0.072067 -0.417167 0.098091 -0.286456 0.395760 -0.162692 0.126645
-0.183261 -0.208673 -0.061588 0.126769 -0.177473 -0.218920 0.391358 0.004713 0.118359 0.010573 0.347190 0.257700 -0.149367 -0.113388 -0.003033 0.034844 -0.070342 -0.260121 0.400888 0.357280 -0.229757 -0.287048 -0.432126 -0.252652 -0.390680 0.270041 0.302521 -0.243830 -0.033095 0.193334 -0.453100 0.002015 -0.448295 -0.286809 -0.268953 -0.080475 -0.112315 -0.394619 0.478825 0.415637 -0.172066 -0.002815 0.428386 -0.364467 0.321812 0.446515 -0.471188 0.129184 -0.144602 -0.104565 0.197799 0.468406 0.455726 0.062768 -0.056350 0.360238 0.356612 -0.388086 0.320509 0.235435 -0.190012 0.031727 0.399063 0.165428 -0.262402 -0.287636 -0.475515 -0.089640 -0.099904 -0.023526 -0.060593 0.376223 0.353175 -0.190959 -0.005057 -0.172005 0.007191 0.172721 -0.426114 -0.459917 0.094137 -0.231337 0.105999 -0.332512 0.263721 0.228561 0.341200 -0.376759 0.397270 -0.147162 0.173767 -0.362739 0.216713 -0.345897 0.469527 0.224965 -0.396121 -0.102291 -0.168242 0.278376 0.292192 -0.076347 0.405032 0.232493 -0.228506 -0.473042 0.292224 -0.242206 0.225198 0.204888 -0.041726 0.297017 0.376649 0.309685 -0.470710 0.221880 0.421560 -0.097586 -0.274104 0.492005 -0.353997 0.424954 -0.282017 -0.253610 0.347099 -0.009876 -0.374985 -0.153713 0.423253 -0.132954 0.228130 -0.092739 -0.314055 -0.192967 0.227015 0.379460 0.348054 0.368916 0.053254 -0.137821 -0.148682 0.285564 0.170554 -0.443425 -0.425391 0.335213 -0.049114 0.332746 -0.322126 0.193732 -0.489146 0.018742 -0.367056 0.020818 -0.455478 0.386229 0.232234 0.212742 0.052610 -0.406667 0.384654 -0.100260 -0.357420 0.414382 -0.324127 0.416644 0.051537 0.291753 0.194220 0.176612 0.212835 0.318714 0.488854 0.458784 0.366407 -0.437921 0.145356 -0.396938 -0.361237 -0.168517 -0.196106 0.446662 0.238605 0.273757 -0.228923 0.435106 -0.089432 -0.262301 -0.275032 0.262058 0.318332 0.125134 0.345465 -0.406679 -0.216400 -0.466522 -0.118510 0.412789 -0.368845 -0.388421 -0.139099 0.241910 0.360784 0.280489 0.195855 -0.027093 -0.042177 0.377790 -0.068464 0.162724 -0.106972 0.235577 -0.322682 -0.097026 0.334692 0.214811 -0.485297 0.452519 0.050982 0.022387 0.246732 0.415034 0.257766 -0.217218 -0.295591 -0.315893 -0.408931 0.386189 0.329754 -0.470510 -0.220567 -0.479917 -0.064996 -0.124570 -0.386558 0.149116 0.353188 0.015541 -0.317986 -0.428345 -0.354480 0.355652 -0.231578 0.063600 -0.001608 0.399111 -0.393993 0.363026 0.279681 0.300524 -0.130841 0.156147 -0.026943 -0.321082 0.050986 0.226816 0.489033 -0.220949 0.219164 0.059405 0.288758 -0.382387 -0.220709 0.266912 -0.374963 -0.388078 0.415952 -0.022323 0.462390 -0.196906 -0.448606 -0.245328 0.299645 0.350795 0.366267 0.415308 -0.409919 0.163284 -0.400966 -0.018148 -0.395105 0.361375 -0.167193 -0.263032 -0.207193 -0.412276 0.265106 0.043623 0.452692 0.063765 0.014082 -0.068316 0.463867 -0.061805 -0.142480 -0.170404 -0.162647 0.078860 -0.450808 -0.151142 -0.330376 -0.392870 0.141744 -0.338586 0.346318 -0.267013 -0.300355 -0.116017 0.122947 -0.102248 0.148935 0.337075 0.395644 0.298681 0.381843 -0.287237 0.369264 -0.173758 -0.358711 -0.048648 -0.320702 -0.443647 -0.062909 -0.379413 0.071253 0.382639 -0.075067 -0.127934 -0.468331 -0.411902 0.207806 -0.133092 0.251354 0.288050 0.240795 0.046740 -0.003579 -0.311473 -0.172542 0.471601 0.198725 -0.014196 0.373516 0.261556 -0.086220 0.389367 0.257405 0.322419 0.269886 0.093851 -0.153351 -0.277652 -0.179953 0.398699 0.044060 -0.047795 0.475121 -0.435624 -0.180255 -0.205403 0.272184 -0.046655 0.426213 0.258512 -0.023449 0.222998 0.407824 -0.003612 0.297686 0.016031 0.180055 0.155256 0.116810 -0.070869 -0.256065 0.324040 0.467560 -0.085410 -0.276709 0.033808 0.159611 -0.141916 0.396941 0.156870 0.380618 -0.172204 -0.044135 0.057158 -0.139720 -0.174622 -0.050050 0.445216 -0.465680 0.420836 -0.481435 0.477460 0.092314 -0.198659 -0.197193 -0.201984 -0.457973 0.427293 -0.210457 0.346362 -0.303339 -0.105422 -0.247396 0.135186 0.008342 0.209906 0.035455 -0.270874 0.430316 0.387123 0.151600 0.304251 0.342688 0.488188 -0.479447 -0.338222 0.208534 -0.157855 0.352772 -0.091244 -0.360138 0.252487 -0.367411 0.234945 -0.303845 -0.209095 0.187041 -0.193972 -0.389925 -0.021976 -0.333301 -0.309206 0.093637 0.035892 -0.137503 0.067614 -0.371276 -0.255418 0.472207 -0.183845 0.299566 -0.267312 0.016056 0.360663 0.165204 0.278917 0.398446 0.297476 -0.143023 -0.392875 -0.255684 -0.142985 0.130614 0.440513 -0.021657 -0.437408 -0.392293 0.009721 -0.373346 -0.017355 0.366362 -0.068219 -0.249505 0.175576 -0.203829 -0.141743 0.341935 0.127952 -0.456180 0.061436 0.170991 -0.378478 0.423652 0.017441 -0.346295 -0.108300 -0.250376 -0.177019 -0.018396 0.043935 0.441348 0.138271 0.072377 -0.467585 -0.085887 -0.028342 -0.124398 0.034170 0.351143 0.256003 -0.480890 0.064992 0.252724 -0.492018 0.180436 -0.079455 0.483321
0.269837 0.222729 -0.391033 -0.312778 0.143224 -0.028015 -0.197947 0.147182 0.190569 -0.229827 0.079294 -0.355395 0.172194 -0.441293 -0.210303 0.102431 0.142118 0.038099 -0.185463 0.312641 0.272818 0.446758 0.346920 0.049088 -0.111272 -0.009073 -0.134685 -0.491173 0.425703 -0.159842 0.241357 0.033557 0.076979 -0.299166 -0.264555 0.273691 -0.161410 0.079122 0.087391 -0.393703 0.183141 0.074465 0.297328 -0.037957 0.097911 -0.116754 -0.258874 -0.171475 -0.039649 0.049968 0.173471 -0.202699 -0.305196 0.421997 -0.194506 -0.083021 -0.485887 0.467349 0.263757 -0.201657 -0.311077 0.210699 -0.294667 0.396870 0.073817 -0.129668 -0.249764 0.434907 0.205929 0.082902 -0.013060 -0.037465 -0.439211 -0.051484 0.410278 0.090164 -0.372603 0.105297 0.395000 -0.446779 -0.186983 0.246991 0.232484 -0.084424 0.474425 -0.100349 -0.378133 0.332927 -0.156100 -0.008437 0.006939 0.150389 0.246936 -0.098479 -0.184477 -0.248195 0.410608 -0.224346 -0.436663 -0.139461 -0.031661 -0.153945 -0.311717 -0.310908 -0.036845 -0.191703 -0.359933 0.308937 0.255536 -0.282453 0.068985 0.370841 -0.329872 -0.435167 0.393049 -0.109652 0.345644 -0.299970 0.335636 -0.150575 0.230632 0.141689 -0.066290 0.116356 -0.293556 0.325518 -0.334226 0.470245 0.161803 -0.038595 0.156850 0.175182 -0.409966 -0.219748 0.212145 -0.215333 -0.274388 0.425735 -0.118940 0.434987 -0.194778 -0.177206 -0.250286 0.053071 -0.079254 -0.128083 0.282795 0.409871 0.412379 0.243659 0.370336 -0.059882 -0.281121 0.202006 0.432669 -0.325441 -0.238136 0.169499 0.002487 -0.364356 0.284385 0.281260 -0.071687 0.385171 0.345414 -0.312907 0.230747 -0.181309 0.241447 0.228328 0.260299 0.482552 -0.343010 -0.083209 0.176654 -0.301674 0.273816 -0.299366 0.119668 -0.206115 0.205612 -0.133624 -0.000197 0.250259 -0.332829 -0.117635 -0.304043 -0.401299 -0.480529 -0.180754 -0.199186 -0.188377 -0.063468 -0.038270 -0.101425 0.023671 0.016621 0.169168 0.139757 0.117063 -0.256022 -0.325071 0.318476 0.169433 -0.415966 -0.369476 -0.134856 -0.304932 -0.221489 0.410551 0.451062 -0.007401 0.389565 0.431144 0.444463 -0.359750 0.305100 -0.468394 0.392797 0.234473 0.088386 -0.384295 -0.267178 -0.425876 0.314774 -0.367839 -0.387522 0.126214 -0.171099 -0.140028 -0.246358 0.337540 0.393352 -0.342483 0.469908 -0.378369 0.136269 0.358275 0.242764 -0.034244 0.023509 -0.155061 0.393298 0.003847 0.463749 -0.251749 0.295544 0.415293 -0.484668 0.400515 0.266782 0.010411 0.026727 -0.257886 -0.008064 0.225351 0.295741 0.037861 0.093306 -0.182757 -0.309183 0.224309 0.019901 -0.176802 -0.198875 0.400479 -0.384043 0.403742 0.335363 -0.307778 0.026838 -0.085778 -0.079757 0.010300 -0.042787 0.003672 0.080457 0.157397 -0.473903 0.465922 -0.090987 -0.031890 -0.199800 -0.372720 0.433686 -0.315993 0.222380 -0.210657 0.148855 -0.341834 -0.435088 0.038094 0.125678 -0.222088 0.076814 -0.009375 -0.440819 0.343311 -0.036654 -0.398264 0.057973 -0.304318 0.261617 0.256384 -0.457527 0.054753 0.452584 -0.427932 0.193152 -0.099438 -0.311930 -0.489396 0.030820 0.339265 -0.365953 -0.137710 -0.263354 0.311841 -0.169568 -0.211051 0.411308 -0.367639 -0.193696 0.384333 0.363406 -0.154084 0.433581 0.481358 -0.174624 -0.195818 0.121234 -0.415598 -0.248430 -0.417850 -0.249909 0.453749 -0.443434 -0.001862 0.127057 -0.095246 -0.007624 0.396482 -0.364550 0.161944 -0.448494 0.115637 0.171806 0.255639 -0.358259 -0.310402 0.026147 -0.200703 0.353219 0.176933 -0.162691 0.087880 -0.450611 -0.457938 -0.328504 0.094618 0.257418 -0.135429 0.449257 0.282411 0.226669 0.308110 0.237201 -0.195062 0.310404 -0.469345 -0.013477 -0.374225 0.202192 -0.002934 -0.346308 0.459673 -0.063310 -0.338256 -0.037332 0.258867 -0.474015 -0.248757 0.079404 0.315929 -0.311787 -0.069907 0.375638 0.159441 -0.242467 -0.275067 -0.397447 -0.354592 0.214236 -0.212258 -0.140535 0.137249 0.376639 0.185338 -0.466026 0.224320 0.307432 -0.041943 0.487429 -0.473947 -0.308963 0.438393 0.107092 -0.486557 0.457096 0.066096 -0.357820 0.258806 0.364754 -0.350510 0.244583 -0.080703 -0.015826 0.311056 -0.262209 0.195541 0.481194 -0.098617 -0.199689 -0.323628 -0.381569 -0.172542 -0.100194 0.470831 -0.341843 0.220738 -0.464135 -0.268203 -0.442778 0.324523 -0.418816 -0.088826 -0.380537 0.222372 -0.071872 0.022908 0.383452 -0.015492 0.309123 -0.181150 0.137295 -0.398261 0.295612 -0.447073 0.146590 0.455551 -0.262402 -0.396178 -0.241328 -0.158583 -0.070394 -0.277601 -0.308215 -0.218736 0.403131 -0.318879 -0.389100 -0.424420 -0.396953 0.382497 -0.307812 -0.227403 0.445074 0.299428 -0.435070 -0.175899 -0.202177 0.023678 0.348909 -0.293847 -0.138533 -0.073837 0.390467 0.191331 -0.205182 -0.317938 0.380164 0.438538 -0.429066 -0.315005 0.239399 -0.301945 -0.067511 -0.350505 0.046822 -0.078458 -0.314277 -0.440183 0.167300 0.201111 -0.401869 0.199673 0.122713 0.272862 0.486537 0.362594 0.215632
0.443248 -0.404953 0.380075 -0.302049 0.268102 0.246102 -0.453084 0.211170 0.050215 0.095512 0.340921 0.370715 -0.052240 -0.141192 0.232672 -0.009194 0.094079 0.159909 -0.241028 -0.151217 -0.383120 -0.233475 -0.098408 -0.030532 -0.477857 -0.385911 -0.121277 0.197777 0.332307 -0.362490 0.335398 0.012745 0.078683 0.256819 -0.131256 -0.306651 0.321078 0.161014 -0.028497 0.383276 0.377533 0.386511 -0.090929 0.089150 0.018496 0.460352 -0.442860 -0.307555 0.426806 -0.418835 0.332890 0.027474 0.381513 0.375552 0.157192 -0.012275 -0.301736 0.099508 0.206043 0.205381 0.445878 0.395917 -0.247295 0.345671 0.125968 0.456838 0.480976 -0.383140 -0.199508 0.071030 -0.470407 0.429007 0.344661 0.102321 -0.080593 0.315473 -0.210008 0.300360 -0.346110 -0.231442 0.118342 -0.417401 -0.451234 0.335592 0.421469 -0.283920 -0.119937 0.078794 0.376815 0.085701 0.300810 -0.180442 0.280278 0.178905 0.025284 0.063150 -0.105712 -0.136999 0.275802 0.021940 0.304379 0.099440 0.181531 -0.173509 -0.069440 -0.426836 -0.252596 -0.409764 0.459934 0.427513 0.088964 -0.290789 0.150177 0.197391 -0.044037 -0.476180 -0.169923 -0.077484 -0.010522 -0.321953 0.473331 0.338704 -0.337497 -0.009352 0.306173 -0.071266 -0.312823 -0.363470 -0.126660 0.207287 -0.436132 0.081070 0.306421 0.175318 0.364731 0.284896 0.064078 0.352417 -0.249220 0.097665 0.072728 0.061382 -0.017212 -0.079969 -0.406492 0.026430 -0.313187 -0.383687 -0.478501 -0.170090 -0.447276 0.305956 -0.038851 0.212414 0.268490 -0.221940 -0.143465 0.194017 -0.189781 -0.023983 0.177138 -0.150352 0.104090 0.419282 0.020859 -0.200419 -0.237863 0.174884 -0.463628 -0.151118 0.066287 -0.435311 -0.076091 0.403942 0.331647 -0.032554 -0.109460 0.407447 0.145710 -0.244092 -0.102493 0.043966 0.286297 -0.204235 -0.414819 -0.330218 0.225168 0.045803 0.124220 -0.452085 0.274079 -0.280416 -0.425443 -0.115216 0.119894 0.288314 -0.209711 -0.067563 0.395356 -0.123674 -0.148560 0.053804 -0.258403 0.489172 0.240940 0.260377 0.201774 -0.392219 -0.335855 0.228719 0.352613 -0.328391 0.056604 -0.462552 0.482798 -0.213459 0.163339 -0.331440 0.310215 0.169754 -0.197251 0.138534 -0.302584 -0.372758 0.228246 -0.084071 -0.380656 -0.396133 0.272953 -0.045648 -0.088388 -0.428103 -0.393176 0.225721 -0.346925 0.442099 -0.308912 -0.451687 0.097317 0.192366 0.448425 0.171052 0.375129 -0.461002 -0.389656 -0.443591 0.232002 0.462851 -0.047353 0.069534 0.171599 -0.440892 0.442025 0.474931 -0.288156 -0.440971 -0.399743 -0.191376 -0.031366 0.375110 -0.325364 -0.013005 -0.180429 -0.400592 -0.327053 0.423231 -0.341290 -0.397202 -0.291750 0.073416 -0.397291 -0.107909 -0.055332 0.127967 0.002196 -0.320896 0.224650 0.042959 -0.115856 0.367224 0.322598 0.010233 -0.389354 -0.401259 0.339303 0.389768 0.033620 -0.041235 0.332138 0.202789 -0.447214 -0.475771 0.295639 0.040670 -0.155722 0.018094 0.075529 -0.097841 0.448643 -0.294381 -0.039578 -0.194267 -0.116352 -0.405897 0.368567 0.065222 0.064458 -0.301047 0.065489 0.071043 -0.215170 -0.479280 -0.433795 -0.470186 -0.027490 -0.059331 -0.440906 0.055290 -0.235972 0.149144 -0.035097 0.101472 0.169197 0.323345 0.196565 0.168865 -0.290165 0.047738 0.345465 0.346006 0.281883 0.473610 -0.039895 0.450691 -0.461293 0.195724 -0.185873 0.403547 -0.328240 -0.152938 -0.193744 0.377813 -0.200484 -0.319066 -0.260277 0.040556 -0.477739 -0.217916 0.010275 0.191271 0.109169 0.490080 0.148773 -0.480614 -0.139442 -0.160727 -0.441469 -0.452710 -0.128096 0.124525 -0.388171 -0.195731 -0.202905 0.466576 -0.026736 0.386280 0.219281 0.304461 0.388176 0.332037 0.217570 -0.004621 -0.286243 -0.102551 -0.344864 -0.121357 0.398387 -0.116912 0.161070 -0.252595 0.380730 0.287501 0.401314 0.129111 -0.221099 -0.188475 0.287576 0.301690 0.157355 0.156820 0.243478 -0.172469 0.165083 0.128016 0.331107 0.460684 0.401517 -0.037729 -0.297361 -0.019867 0.328688 -0.262147 0.243290 -0.228751 0.463691 0.128018 0.221685 -0.389604 -0.340909 0.201645 -0.202073 -0.331952 -0.109486 -0.428864 -0.342341 0.007201 0.010060 -0.412466 -0.340222 -0.373743 0.361105 -0.059003 0.200086 -0.152662 -0.207599 0.481745 0.467914 -0.141314 -0.423444 -0.241823 -0.397136 -0.388850 -0.214874 0.463827 -0.346612 0.226368 0.432400 0.212750 0.419900 0.402037 -0.208406 0.457066 -0.397733 -0.066520 -0.007909 0.467702 -0.133266 -0.476419 -0.376400 0.475290 0.360274 0.472379 0.020111 0.057240 -0.445808 0.213657 0.185708 -0.402134 -0.458113 0.151064 -0.104605 0.213394 0.338743 -0.120651 -0.418913 0.079109 -0.086384 0.343215 -0.326118 -0.352630 -0.267741 -0.163763 -0.372180 -0.324790 0.415128 -0.162661 -0.471337 0.176329 0.143651 -0.142988 -0.439329 -0.098862 0.314026 0.174913 -0.474504 -0.093028 -0.051841 0.109090 -0.208534 0.436981 0.388610 0.190477 0.255545 -0.022224 -0.296519 0.158059 -0.389998 0.090712 0.223312 0.295734 0.297632
-0.348395 -0.341877 0.492590 0.276278 -0.119918 -0.298876 -0.457145 -0.314417 -0.170590 -0.457515 0.382559 -0.261537 -0.210433 0.087440 0.013864 0.481521 0.487801 0.214162 -0.124261 -0.378501 0.087858 0.302143 -0.436085 0.184270 0.093368 -0.207131 -0.235508 0.363899 0.373334 -0.016729 0.339246 -0.165320 -0.227061 -0.173892 0.135961 -0.338318 -0.026530 0.481898 -0.358023 0.410289 0.397768 0.058179 -0.368945 -0.336264 0.050587 0.173423 -0.320967 0.227031 -0.146172 0.472732 0.419196 0.084382 0.381154 0.416286 0.480748 0.087900 0.283155 0.473960 0.192994 -0.156484 0.069645 0.072186 0.446515 0.145031 0.176674 -0.004507 0.051379 -0.480117 -0.281751 -0.035803 -0.136710 -0.132539 -0.449402 0.134303 0.258765 0.172023 0.367653 -0.034403 -0.422509 0.286750 -0.106823 -0.017045 0.115796 -0.489953 0.467985 0.177148 -0.070253 -0.350316 -0.315672 -0.114432 -0.279008 0.247614 0.294847 -0.116778 0.005936 -0.115477 -0.463565 -0.188910 -0.291739 0.484399 0.047452 -0.092986 0.313986 -0.417556 -0.346296 0.003837 0.067769 0.421457 -0.481013 -0.290318 -0.106873 0.000315 0.458491 -0.278808 0.268632 0.183815 0.252295 0.311133 -0.097210 0.320980 0.426216 -0.186365 -0.350336 -0.146219 -0.260309 0.081660 0.384373 -0.231813 0.165423 0.138673 0.235809 -0.056930 -0.216290 -0.311212 -0.051644 0.401805 -0.110671 0.377031 0.290605 -0.011738 0.117292 -0.281354 -0.306837 0.295328 -0.111045 0.326763 -0.345769 -0.395950 0.425923 0.042218 -0.204411 0.278241 -0.273826 -0.219524 -0.184223 -0.233297 0.084090 -0.016197 0.093301 0.436917 -0.202241 -0.292460 0.069429 0.338688 0.406611 -0.342220 -0.215200 0.210649 -0.083643 0.252767 -0.388666 0.426854 -0.367175 -0.287547 0.154363 -0.019632 -0.005036 -0.143799 0.020392 -0.419801 -0.106764 -0.273753 -0.453923 0.284375 -0.022575 -0.308558 0.112138 0.230283 -0.357113 0.004746 -0.425070 0.071771 -0.312703 -0.109070 0.453880 -0.336495 0.084486 0.423587 -0.411438 -0.418060 0.387055 -0.071838 0.029561 0.106036 -0.307065 0.306535 0.254279 -0.167382 0.457083 0.175521 -0.111126 0.467240 0.156959 0.290111 -0.179753 0.257139 0.082179 -0.197094 -0.303873 -0.109784 -0.480960 -0.131811 -0.410109 -0.211482 -0.251360 0.421462 -0.181259 0.209489 -0.375669 0.461055 -0.419011 0.142990 0.032051 0.199702 0.152809 -0.467475 -0.387445 -0.231131 0.045152 0.433600 0.279299 0.005364 0.484237 0.309408 0.121708 0.297592 0.207398 -0.208886 -0.168486 0.096380 0.344829 -0.450156 0.081028 -0.045609 -0.397043 0.054065 -0.203505 0.059346 0.306987 0.405074 0.315232 -0.036495 -0.462638 0.380535 -0.455554 -0.116428 -0.133121 -0.010566 0.430307 -0.144909 -0.465139 -0.326482 -0.321073 0.485974 0.298106 0.074160 -0.194470 0.138097 -0.428460 0.275945 0.462393 -0.315065 0.192315 -0.184349 0.359399 0.038810 -0.371527 -0.006186 0.416307 0.237496 -0.289290 0.029451 0.281058 -0.004047 -0.487664 -0.244819 0.279053 0.177716 -0.191043 -0.083705 0.453831 -0.266097 -0.223916 -0.140001 0.052250 0.459924 -0.413360 -0.113790 -0.308725 -0.174024 -0.369857 -0.131220 0.484033 0.226223 0.368557 0.006539 0.297470 -0.470763 -0.011565 -0.354469 0.115569 -0.082547 0.087405 0.449638 -0.190983 0.454120 0.176405 0.488646 0.263969 -0.459251 -0.301566 -0.395206 0.321154 -0.283968 0.150579 -0.210043 0.371698 -0.359202 -0.123390 -0.275985 -0.322719 0.167480 0.204237 0.382605 -0.002648 0.427555 0.124089 0.386695 0.040603 -0.271965 -0.091852 -0.117697 -0.001104 0.161798 -0.364339 0.129788 0.427211 -0.026754 0.327259 -0.157126 0.485304 -0.429421 -0.187600 0.018238 0.329167 -0.342021 0.067102 0.110091 -0.066038 0.073906 0.068600 -0.089711 -0.417149 0.097611 0.134840 0.197077 0.008537 0.035983 0.082866 0.245668 0.051181 -0.397938 -0.213024 0.332094 0.041904 -0.209241 0.020544 -0.362577 -0.334765 0.485443 0.361368 -0.458829 0.359652 -0.348644 0.177456 -0.186486 -0.486517 -0.158222 -0.418925 0.308605 -0.258281 0.334527 -0.286237 0.052423 0.230716 0.446142 -0.407919 0.318765 0.134447 -0.148157 0.367508 -0.234892 0.260423 0.456822 0.199817 0.008051 -0.131360 -0.476817 -0.315220 0.337894 -0.354293 0.155622 -0.294158 -0.416471 0.227123 0.129911 -0.143167 0.190062 0.404875 -0.480781 -0.228968 -0.106335 0.402373 0.055947 -0.307205 0.358286 -0.186473 -0.220740 -0.084158 0.286867 -0.347355 -0.476318 -0.087691 0.461703 -0.442604 0.231041 -0.336532 -0.082150 0.130080 0.025911 -0.203287 0.490924 -0.309608 0.321844 0.488733 -0.339383 -0.451494 -0.177924 0.254246 -0.045353 -0.284940 0.122184 -0.277847 0.207539 -0.384470 -0.156255 0.343637 0.223422 -0.245499 0.277217 -0.345233 0.084540 -0.235381 -0.142771 -0.266536 0.312660 0.240344 -0.227281 -0.102665 -0.441845 -0.076336 -0.060385 -0.436653 0.185875 0.146295 0.399360 0.003985 -0.089957 0.234694 -0.064570 0.400512 -0.428846 -0.412804 0.079935 -0.061071 0.163221 0.242206 -0.337557 -0.052769 -0.326078 0.262319
-0.243403 0.169821 -0.429760 -0.230177 -0.131754 0.169106 -0.432853 0.434531 -0.380612 0.026325 0.134093 -0.199821 0.386371 -0.342876 -0.177566 0.357912 0.437232 -0.166397 -0.125980 -0.144387 -0.252882 0.030245 0.157742 0.483302 0.217338 -0.024263 0.172569 0.383277 -0.396612 0.096585 0.381571 0.008924 -0.422881 0.095301 -0.190658 0.063763 -0.232612 -0.054751 -0.398515 0.489463 -0.346396 -0.208457 -0.322036 -0.249075 -0.101584 0.023804 -0.122076 -0.245179 0.129277 0.464932 -0.223082 -0.032913 -0.068333 -0.349043 0.281808 0.035497 0.132455 -0.448452 -0.279634 0.162490 0.148879 0.055697 -0.455658 -0.099200 0.411376 -0.375514 0.037781 -0.010816 0.318857 -0.313641 -0.392899 -0.264029 -0.145641 -0.316207 0.162024 -0.328944 -0.156999 -0.233458 -0.194821 0.355882 -0.329595 -0.187189 -0.326028 -0.347295 -0.089964 0.467739 -0.132036 -0.015228 -0.376290 -0.115959 -0.072107 -0.302333 -0.419960 0.142200 -0.306425 -0.202186 0.265921 -0.410834 0.191911 0.379832 0.247953 -0.250953 0.417402 0.003900 -0.373719 0.023956 0.241759 0.455121 -0.447117 -0.157972 -0.325226 -0.239133 0.239248 0.103823 0.262461 -0.238057 -0.016423 0.163407 -0.077669 0.338591 -0.388576 0.273170 0.425554 0.000382 0.163453 0.336598 -0.069233 0.287798 -0.232747 0.153633 -0.431856 0.279198 0.414739 -0.022751 0.238705 -0.436294 -0.020544 0.343545 0.034079 -0.139180 -0.075064 0.053049 0.453577 0.019395 -0.305684 0.121735 -0.027950 -0.425028 -0.454335 0.337693 -0.135221 -0.322371 0.341830 -0.213316 -0.019909 0.269610 -0.179570 0.320235 0.236922 0.005798 0.362433 0.188250 0.385195 0.212689 -0.419460 0.448736 0.331286 -0.119981 -0.219812 -0.247192 -0.256562 0.439999 0.480651 0.312847 0.175346 -0.384450 0.067716 0.143035 -0.274488 0.400220 -0.109561 -0.207198 -0.200003 -0.222076 0.025533 0.058228 0.231861 -0.462949 -0.465062 -0.390444 0.228789 -0.097569 0.011445 -0.018034 -0.379557 -0.278748 -0.294565 -0.317484 0.096153 -0.248853 -0.300969 0.152689 -0.072785 0.074062 -0.123586 0.215313 0.166246 0.153724 0.099626 -0.117489 0.297452 -0.404748 -0.420538 -0.216450 -0.469251 0.375449 0.137994 0.040931 -0.326997 0.310046 0.139617 -0.252729 -0.489175 -0.124369 -0.296622 -0.437888 -0.063636 -0.128563 -0.414559 -0.246788 0.072357 0.055638 -0.063313 0.121894 -0.478487 -0.164355 0.486975 -0.226538 -0.278981 -0.055189 -0.112353 0.133922 -0.323836 0.045304 0.400368 -0.245277 0.053285 -0.486841 -0.335325 0.344844 0.463801 -0.109309 -0.176861 -0.099131 0.244238 0.479850 0.394736 0.490010 0.411248 0.117701 0.014194 0.116970 0.328214 0.483702 0.339214 -0.035497 -0.465562 0.103645 0.364074 -0.151582 0.250274 -0.136339 0.459570 0.427305 -0.337298 -0.238894 0.196331 0.088479 -0.150609 -0.023199 -0.454378 0.261606 0.252990 -0.134772 -0.449924 0.078555 0.361189 -0.334573 0.164696 -0.087599 0.410918 0.033388 -0.387240 -0.413183 0.049700 0.358076 -0.252262 -0.251097 -0.483765 -0.219111 0.354047 -0.171678 -0.404033 0.270004 0.149496 -0.061004 0.092689 0.411021 -0.320756 0.410286 -0.034984 -0.122418 0.260447 0.163245 0.140349 0.001738 0.285287 0.386456 -0.230590 0.208484 0.388697 -0.413837 -0.050821 -0.445837 -0.347640 -0.135501 0.469003 0.476057 -0.353359 0.022300 0.148625 0.342423 0.289398 0.274303 -0.096209 -0.067104 0.443683 -0.342246 0.250250 -0.266352 0.036620 0.052430 0.326025 0.122184 -0.270093 -0.465529 0.225384 -0.132503 0.332006 0.368496 -0.271107 -0.185978 -0.047786 0.134937 0.040331 0.047483 -0.323727 -0.014382 0.413062 -0.300159 -0.433231 0.188676 -0.216016 -0.265358 -0.153861 0.445090 0.271890 -0.036829 -0.376767 -0.070095 0.343770 -0.481950 0.048017 0.453233 -0.085556 -0.226097 0.415069 -0.075011 0.339455 -0.256786 -0.492462 -0.075574 0.472591 0.177949 0.012370 0.010080 -0.369315 0.095163 -0.006545 -0.411791 0.348144 0.249620 0.086662 0.145538 -0.203824 -0.175713 0.071985 0.400586 -0.131413 -0.452590 -0.407046 0.129905 -0.307493 0.439428 0.247091 -0.343144 -0.424956 0.181335 0.263053 0.487019 -0.460059 0.066236 -0.158949 0.438687 0.202290 -0.181818 0.265273 -0.203035 -0.282083 0.151360 0.125912 -0.102222 0.060905 -0.486199 -0.165958 -0.317894 -0.100258 -0.004334 0.421356 -0.147660 0.119404 -0.040471 -0.027836 -0.407688 0.006155 -0.080236 0.487706 -0.315063 0.437106 0.105658 0.151256 0.008204 0.199750 0.061456 0.328025 0.222871 -0.369089 -0.369991 -0.020286 -0.178393 0.345106 -0.434175 0.464508 -0.424303 -0.251299 -0.112276 -0.127061 -0.259338 -0.218238 0.065015 0.201258 0.120705 0.149046 -0.328672 -0.475857 0.033126 -0.246263 -0.140325 0.282363 0.228994 -0.064891 0.315867 -0.413533 -0.198869 0.311056 0.203628 -0.483131 0.166855 0.236972 -0.174306 0.050825 -0.180321 0.144216 0.201215 -0.244228 0.052451 -0.276901 -0.087010 -0.407328 0.453426 -0.205872 0.359884 -0.252041 0.244379 0.050803 -0.355271 0.167003 0.138349 -0.305796 0.469474 -0.043947
0.450248 -0.195609 -0.113903 0.050803 -0.069735 0.463109 0.261065 0.218974 -0.194450 0.417880 0.365313 -0.121641 -0.008777 -0.192654 0.378925 -0.159754 -0.417727 0.091449 -0.358528 -0.392655 0.333213 0.180887 0.458773 0.269654 0.125663 -0.176865 -0.005048 0.154691 0.109617 0.441333 -0.394538 -0.399489 0.188718 0.319632 0.261093 0.104235 -0.213082 0.443586 0.293509 -0.118580 0.188382 -0.078549 -0.201406 -0.417760 0.281231 0.138877 -0.368984 -0.452181 0.025920 -0.276129 -0.073913 0.273204 -0.359458 0.005303 0.054678 0.381760 -0.320569 -0.427609 -0.103547 0.149807 0.191364 -0.075996 0.484919 0.268999 0.041736 -0.310395 0.106854 -0.110421 -0.390136 -0.446471 0.420586 -0.089280 -0.103609 -0.017768 0.280601 0.367443 0.203404 0.200988 -0.237579 0.086910 -0.265238 0.009917 -0.066558 -0.455245 0.488550 -0.043506 0.250668 0.046325 0.099461 -0.474121 0.347090 0.419201 0.308548 0.198245 0.339515 0.160304 -0.195755 -0.298259 -0.336317 0.248851 -0.000322 -0.068099 -0.474012 -0.453607 -0.023102 -0.418597 0.043336 0.378068 -0.158761 -0.465626 -0.259717 0.272687 -0.410629 0.368861 0.458420 0.464810 0.011384 -0.000944 0.432741 0.208362 0.214750 -0.417438 0.010147 0.069390 -0.063874 -0.257016 -0.351331 -0.461093 -0.486487 -0.333728 -0.218908 0.065304 -0.077603 -0.031386 0.095551 -0.043332 0.285556 0.384761 0.299033 -0.122869 0.418285 0.408578 -0.326729 -0.086537 0.160414 0.057398 -0.330184 0.226143 -0.244438 0.150972 -0.010631 0.375792 -0.370616 -0.140606 -0.095296 -0.301620 -0.149020 0.271448 -0.118531 -0.388234 0.396644 0.334752 -0.430626 -0.249112 0.428039 0.464075 0.057940 0.243704 -0.007751 -0.163238 -0.283433 -0.131315 0.314345 -0.136183 -0.131446 -0.189436 0.260570 0.347084 -0.000721 -0.260141 -0.250039 0.418976 -0.003004 0.394526 0.157247 0.347576 0.421762 -0.338156 0.370143 0.299777 0.268868 -0.119504 0.324944 0.286285 -0.170168 -0.006879 0.366357 -0.050955 -0.241694 0.061989 -0.208455 0.310586 -0.155841 0.329832 -0.290774 0.263895 0.229890 -0.135008 0.004955 -0.112055 0.139447 -0.231820 0.226668 -0.202886 -0.454781 -0.169291 0.029830 0.487092 -0.064121 -0.279360 0.289743 0.392305 -0.306705 0.331193 0.325471 0.160786 0.348723 -0.404253 -0.156279 0.244072 -0.103284 0.396692 -0.419607 0.227110 0.346470 -0.362888 0.299996 -0.362266 -0.230856 -0.482360 -0.314092 0.321122 0.393507 0.251682 0.362190 -0.449193 0.111437 0.435268 0.468162 -0.178423 -0.400547 0.417529 -0.264321 0.473282 -0.013496 0.416205 0.086695 0.264152 0.442393 0.288562 -0.210349 -0.019267 0.302845 0.134125 -0.240197 -0.384240 -0.178576 -0.136981 -0.066944 -0.464111 0.003722 0.363150 -0.099510 -0.412085 0.231266 -0.458522 0.137139 0.263691 -0.039341 -0.158948 -0.244418 0.280623 -0.005551 0.049080 -0.141121 -0.262415 -0.047646 -0.010960 -0.305853 0.456056 0.061972 -0.465982 -0.375650 -0.421440 0.212153 0.168343 -0.007901 -0.197401 0.104989 0.477221 0.011110 0.299640 -0.403263 0.372345 -0.281574 0.203658 0.399866 -0.378013 0.492199 0.163233 0.120279 0.440603 -0.034623 -0.059463 -0.028756 -0.080423 0.257933 0.430821 0.278331 -0.409800 -0.055118 0.234121 0.128374 -0.197933 0.432628 -0.413152 -0.017266 0.086845 0.306856 -0.359579 0.338065 -0.018864 -0.020164 -0.253098 -0.291412 -0.067176 -0.178149 -0.402825 0.342146 -0.080966 0.241850 -0.278133 -0.084811 -0.288498 -0.257591 0.440279 0.292333 -0.234246 -0.082266 0.209221 0.427187 -0.090697 0.422127 0.001861 0.110939 -0.488612 -0.045913 0.178051 0.306784 -0.071812 0.306247 -0.287028 0.014219 -0.483665 0.397357 0.406979 -0.101089 -0.114352 -0.407206 -0.153297 -0.153767 -0.282817 0.162688 0.458672 -0.315596 0.035778 0.309018 0.360860 -0.429802 0.277456 -0.297437 -0.266941 -0.040150 0.400005 0.274812 0.299857 0.415439 -0.142734 0.136847 0.416147 -0.454768 0.101419 -0.130176 -0.154142 -0.468650 0.228962 0.477501 0.113720 0.219471 0.416654 0.266315 0.180391 0.018006 0.237261 0.313117 0.048617 0.373332 -0.087838 0.357653 0.402877 -0.031344 -0.398857 -0.285157 0.404384 -0.278753 -0.361577 0.337561 -0.303809 -0.128334 -0.386854 0.072523 0.042385 -0.488345 0.281565 0.419918 -0.301436 -0.113117 0.187580 -0.033783 0.294462 0.368893 -0.204131 -0.139859 -0.492088 0.439854 -0.337096 0.477392 -0.056848 -0.117666 -0.134627 0.223844 -0.169667 -0.289732 0.399196 0.361227 -0.468965 0.202793 0.427107 -0.348983 0.019094 -0.082937 0.289142 0.121560 0.032433 0.299600 -0.039540 -0.124581 0.441795 -0.201831 0.254807 0.198587 0.015646 -0.307032 -0.258722 0.031798 -0.415722 -0.031270 0.293590 0.053400 0.155899 -0.274447 -0.295663 -0.399958 0.310629 0.421252 0.159351 0.349849 0.366755 -0.421188 0.016019 0.464317 0.392312 0.018148 0.302266 0.076309 0.212887 0.017131 -0.389878 0.465728 -0.219162 -0.374768 0.014763 0.065943 0.348617 -0.207676 -0.417347 0.028751 -0.291132 -0.191942 -0.295784 -0.127765
-0.007339 -0.407115 -0.028130 -0.440122 -0.191587 -0.130890 -0.416277 -0.291046 -0.205006 0.112258 -0.325542 0.332703 0.348198 0.075017 -0.053442 0.446728 -0.086588 0.066856 0.072305 0.449722 -0.412055 -0.302417 0.267784 -0.085829 -0.418188 0.081144 -0.317856 0.134790 -0.303264 0.097237 0.201569 0.385742 0.239815 0.400102 -0.171606 0.225503 0.380092 -0.260958 -0.104885 0.273187 0.187568 -0.402162 -0.480976 -0.099826 0.352873 -0.466113 0.008877 -0.101911 -0.058525 -0.262661 0.266434 -0.291206 0.475225 -0.016347 0.456909 -0.480646 0.000545 0.424460 0.133608 0.088614 0.310954 -0.271413 -0.190860 0.156874 0.336174 0.063645 -0.406023 -0.361997 -0.067611 -0.172500 0.140435 -0.122648 0.431399 0.010161 -0.392888 -0.221203 -0.011817 0.474215 0.351015 -0.090409 -0.361393 -0.329646 -0.173046 -0.218287 -0.222651 0.377846 0.133633 0.210561 -0.221562 0.319644 0.220259 -0.114697 -0.344775 -0.148108 0.165863 0.170020 0.186872 0.298354 0.183204 -0.139570 -0.036583 0.338483 0.489835 -0.388891 -0.048015 0.329871 0.336399 -0.271063 -0.235291 0.251919 -0.408357 -0.135040 -0.273575 -0.194500 0.490950 -0.462601 0.035349 0.316912 0.437167 -0.354284 -0.023736 -0.066017 -0.441822 0.147339 0.234153 -0.063055 -0.470048 0.389527 -0.407384 0.089909 0.216614 0.395200 -0.474387 0.412327 0.372769 0.234603 -0.042644 -0.046998 -0.342069 -0.100443 -0.483650 0.138244 0.082164 0.102679 -0.001387 0.150019 0.198195 -0.062416 -0.489928 -0.005622 -0.103061 -0.421576 -0.120793 0.369285 -0.358697 0.392484 -0.376319 0.471747 0.370435 0.244872 0.474732 -0.121704 -0.024181 -0.065067 0.492950 0.115767 0.295204 0.429440 -0.398702 -0.063341 -0.240680 0.017126 0.237559 -0.428646 -0.355100 0.114737 0.013243 -0.189823 -0.347257 -0.110802 0.423134 0.098065 0.491079 0.388195 0.246143 0.328530 0.390215 -0.354534 -0.052664 -0.142526 0.038180 -0.238946 0.136159 -0.147185 -0.297414 0.417660 0.084121 0.349975 -0.082307 -0.484910 -0.122796 0.106912 -0.332447 -0.475028 0.258733 -0.444229 0.155507 0.469025 -0.176815 -0.258685 0.177240 -0.388803 0.218395 0.010379 0.420369 -0.034103 -0.080557 0.069445 -0.188139 0.017110 0.163941 -0.267071 -0.044214 -0.206778 0.398108 -0.445483 0.112265 0.178599 -0.185205 0.046308 -0.268078 0.112402 0.418448 0.246208 -0.255550 0.176998 0.290382 -0.362564 0.262013 -0.027407 0.086397 -0.332660 -0.278633 0.176040 0.432292 -0.345752 0.483339 0.003625 -0.349744 -0.332622 -0.072911 0.312130 0.334814 -0.492913 0.173657 -0.110943 -0.296069 0.434079 -0.337397 -0.226438 0.465862 -0.325722 -0.316010 0.275956 0.053727 0.471260 -0.276245 -0.008803 0.053634 -0.008444 -0.079244 0.060771 -0.192021 -0.302522 -0.412142 0.225351 -0.341084 0.404744 0.195174 -0.029998 -0.488846 -0.402288 -0.487963 0.316983 -0.023478 0.224042 -0.346570 0.335791 -0.471126 -0.402381 -0.280009 0.100677 -0.443056 0.381946 -0.273672 0.003374 0.133808 0.418138 0.168886 -0.314624 0.000317 -0.231167 0.146509 0.264168 0.084718 -0.000804 0.078572 -0.287176 0.311440 0.215476 0.264964 -0.273823 -0.044793 0.287119 -0.103848 0.278536 0.344910 0.355452 -0.393804 -0.105672 -0.248874 0.361941 -0.350116 -0.053576 0.139034 -0.385700 -0.146935 0.033010 -0.131039 -0.322686 -0.218510 0.360482 -0.433649 -0.025273 0.189374 0.246494 -0.393074 0.241779 -0.237831 0.086063 -0.059597 0.294249 0.336054 0.213577 -0.142663 0.358346 -0.163262 0.079760 -0.180525 0.162161 0.415733 0.178944 -0.079663 -0.019732 -0.163819 -0.024490 -0.389080 -0.199289 -0.458931 0.067420 -0.338867 -0.214663 -0.474228 0.071353 0.254236 -0.161980 0.047538 -0.443410 0.229044 0.026197 0.323699 -0.035646 -0.146143 0.299706 -0.388855 0.164675 -0.391245 -0.138187 0.392997 0.095701 0.379508 -0.128700 -0.486038 -0.350873 -0.074965 0.288596 0.061248 -0.184898 -0.265613 -0.148084 -0.345349 -0.192925 0.383276 0.090298 0.129922 0.062926 -0.263548 -0.457173 0.460584 -0.151032 -0.258512 0.489005 -0.398253 0.257703 0.096425 -0.326282 0.381719 0.351294 -0.081376 0.470163 -0.353476 -0.016439 -0.210587 -0.142611 -0.381379 0.051672 0.482424 0.013062 -0.308058 -0.133681 -0.244401 0.102046 -0.117260 -0.074546 0.268346 -0.068430 0.354670 0.056482 -0.227368 0.126375 -0.410344 -0.320085 0.474194 -0.411389 -0.443480 0.302750 0.375168 0.048350 0.452288 0.071286 -0.418301 0.085784 0.364774 0.452631 -0.005059 -0.474165 0.397593 -0.477060 -0.328852 0.291873 -0.396916 0.267939 0.463927 -0.237360 -0.334054 -0.475798 0.108796 0.159258 -0.381799 0.161181 -0.202738 0.142280 -0.183756 -0.334734 0.313975 -0.252604 -0.205705 0.025780 -0.066911 -0.059223 -0.371580 -0.307599 0.264405 -0.177325 -0.472395 -0.203984 0.124697 0.194147 0.174504 0.042992 -0.168164 -0.207863 0.140912 -0.084111 0.264122 -0.272485 -0.079499 0.355324 -0.014220 0.332220 0.270485 0.042250 -0.423899 0.271204 -0.282277 -0.217556 -0.231553 -0.081698 0.475582 -0.289015 -0.466431
-0.274120 -0.035749 0.216062 -0.122291 -0.302538 -0.181069 0.400284 -0.157010 -0.257477 -0.385202 0.310395 -0.492763 -0.417461 -0.027078 0.373517 0.388563 -0.284564 0.217994 -0.232317 -0.150528 -0.050208 -0.019959 -0.103842 0.039555 -0.385628 0.051954 -0.143923 0.097423 0.414914 0.176711 0.285547 0.341966 0.100098 -0.276116 0.409689 0.400080 -0.034304 0.222735 -0.172021 0.073475 0.179065 -0.208502 0.334544 0.310195 0.200263 0.018933 -0.089693 -0.409856 0.280528 0.480177 0.442569 0.198237 0.406826 -0.192787 -0.266997 -0.340307 -0.361846 -0.231603 0.217898 -0.349773 -0.266876 -0.002384 -0.266438 -0.069288 0.398136 0.015217 -0.324645 -0.168663 -0.330160 -0.316899 0.367410 -0.291231 -0.219422 -0.230346 0.307218 0.226750 0.025213 -0.062335 -0.418247 0.039999 0.402845 -0.194741 -0.191627 0.252047 0.457262 0.282855 -0.115329 0.115920 0.425626 -0.243210 0.006879 0.019419 0.437803 -0.257193 0.292231 -0.423459 0.089577 0.205574 0.123917 0.459731 0.213981 -0.371313 0.095540 0.047211 0.205053 0.212535 0.291293 -0.191732 -0.290587 -0.254471 0.134620 -0.118510 -0.127115 -0.016912 -0.264983 -0.136048 -0.483249 -0.145283 0.453452 0.262086 -0.481888 0.237111 0.329815 -0.013541 -0.379517 0.319575 -0.033770 0.358910 -0.216390 -0.042077 0.185397 -0.283456 0.340362 -0.015208 0.015808 0.197269 -0.143335 -0.354625 -0.300283 0.343865 0.245726 0.333401 0.246768 0.393413 -0.241689 0.223733 -0.204951 0.319064 -0.053333 -0.137371 -0.250234 0.312195 0.449410 0.093405 -0.145624 -0.299623 -0.114143 -0.215508 -0.227852 -0.414163 -0.343740 -0.406507 -0.074758 -0.080223 -0.418476 0.095554 0.075926 0.397057 0.152194 -0.464739 -0.457632 -0.034586 -0.137353 0.266449 0.135007 0.078822 -0.358928 0.431374 0.433384 0.216000 0.154563 -0.126834 0.181034 0.407085 0.146760 -0.244886 -0.149579 0.372468 -0.048993 0.433017 0.001997 -0.359673 -0.093191 -0.390153 0.256264 -0.317964 0.330423 0.360031 -0.386388 -0.303283 -0.164162 -0.065557 0.171442 0.322586 -0.191572 -0.348813 -0.296809 0.235434 0.435980 0.154883 -0.160712 -0.108987 -0.102592 -0.448299 -0.016417 -0.090910 -0.370618 0.357481 -0.164628 0.383961 0.072003 -0.334828 -0.060279 0.069733 0.147552 0.114336 0.054750 -0.230586 -0.329889 0.062110 0.079165 0.269590 0.096138 -0.212123 -0.422085 0.311614 0.012653 -0.254038 -0.408466 0.389311 0.145844 -0.366888 -0.252060 0.264276 -0.230030 0.408249 0.195595 0.302935 -0.059173 -0.110301 -0.400955 -0.457071 0.354527 0.114089 0.031057 -0.491667 0.477530 -0.464025 0.068314 0.490410 0.364672 -0.146716 0.125025 0.344831 -0.135338 -0.096363 -0.208258 -0.118503 -0.200963 0.412715 0.008345 0.331917 -0.490871 -0.386947 0.460298 0.330291 0.119543 0.362926 -0.345829 -0.089428 -0.212760 -0.203560 -0.284175 0.274152 0.088925 -0.162287 -0.458172 -0.146021 -0.339110 -0.262755 -0.123016 -0.211610 0.265857 0.405483 0.250152 -0.469903 -0.066114 0.153646 0.140360 0.008379 -0.185027 0.348433 0.133359 -0.134462 0.289970 -0.126834 0.188950 0.299743 0.015365 -0.469013 -0.358948 -0.026181 -0.191070 0.011022 0.239012 0.375380 -0.445959 0.046782 -0.055341 0.012474 -0.052497 -0.202308 -0.192225 -0.284719 -0.478209 0.430528 -0.077537 0.434012 -0.251033 -0.363585 -0.428250 0.263495 -0.097937 0.062763 -0.310100 0.337433 -0.315796 -0.246378 -0.390837 -0.396796 -0.411098 0.249557 0.300157 0.282240 -0.186617 0.286952 -0.326330 0.161168 -0.428792 -0.472760 0.181465 0.423112 0.323193 -0.350692 0.318053 0.275554 -0.412267 0.153704 -0.065540 -0.266812 0.212169 -0.150329 0.253344 0.276152 -0.005050 0.363630 0.218788 -0.130234 -0.243718 -0.314247 -0.460519 0.386083 0.422997 0.459798 -0.249724 -0.482518 0.384186 -0.130106 -0.283804 0.178706 0.445516 0.396005 0.492638 -0.415664 -0.093534 0.045897 0.048416 -0.347369 -0.089063 -0.275843 -0.397687 -0.247819 -0.219451 0.291914 -0.001491 -0.407357 -0.127281 -0.043844 0.247993 0.448805 -0.104255 -0.075102 -0.064438 -0.085584 -0.224241 -0.165366 -0.413718 0.295257 -0.190653 -0.207595 0.038772 0.411827 0.054359 0.418197 0.136920 0.008944 -0.448829 -0.283950 -0.051122 0.376295 -0.068735 0.058856 -0.234903 0.266588 0.445783 0.465216 0.337334 -0.189065 -0.128678 0.047761 -0.289501 0.216086 0.236660 -0.191340 -0.083127 -0.097055 -0.370721 0.081142 -0.376149 0.030826 -0.251224 -0.162897 -0.178207 0.413199 0.018995 -0.086151 0.424067 0.200039 0.407792 -0.381924 -0.030601 -0.304104 -0.264336 -0.462642 0.005423 0.221829 0.229224 0.184654 -0.180190 -0.227576 -0.465559 0.000418 -0.404823 0.180535 -0.372474 0.370561 0.225395 -0.336578 -0.323826 -0.006788 -0.298375 -0.285788 -0.084096 -0.410519 0.285724 0.315430 0.152091 0.214425 0.329414 -0.158494 -0.457223 -0.337443 0.068219 0.453018 -0.277667 0.001736 -0.314436 0.172126 0.232697 0.115611 0.240055 -0.489025 -0.289551 0.274388 -0.416836 0.381987 -0.379203 0.308581 -0.465688 -0.167307 0.350385
0.256628 0.483977 0.407612 0.072787 -0.153652 0.144495 -0.135660 -0.297747 -0.363380 0.291629 -0.426959 0.243249 0.367286 0.489470 0.040194 0.171394 0.118564 -0.448715 0.013251 0.444412 -0.033074 -0.191462 0.448834 0.319027 -0.406024 -0.327070 -0.478326 -0.298481 -0.307305 -0.060721 0.241696 0.339796 -0.459844 0.374966 0.460697 -0.043604 0.199845 -0.389065 -0.260030 -0.285080 0.095407 0.036010 -0.090962 0.396920 0.327874 -0.054590 0.211745 0.110735 0.017576 -0.043350 0.095498 0.442342 -0.132581 -0.018765 -0.282992 -0.041720 -0.232327 -0.127909 0.167282 -0.121507 0.127539 0.219188 -0.237511 -0.094377 0.056553 -0.379619 0.195623 -0.051268 -0.487520 0.393767 -0.207318 -0.091648 -0.209364 0.219151 -0.201234 0.153119 0.389303 0.335119 -0.043039 -0.260856 0.451708 -0.171275 0.316395 0.286969 -0.394787 0.157101 -0.361189 -0.268310 0.261895 -0.236023 0.227014 0.237385 -0.357249 -0.115355 -0.488960 0.464686 -0.430462 -0.034650 0.328103 0.469998 0.177680 0.358679 -0.371341 0.159655 0.472378 -0.136079 -0.129692 0.101219 0.142114 -0.420368 0.075909 -0.031431 -0.074376 -0.401293 -0.004770 0.080187 -0.226607 0.418732 0.227564 0.084504 0.245188 -0.007425 0.404252 -0.121150 0.302271 -0.467066 0.404479 0.276908 0.090240 -0.350371 0.223242 -0.026287 0.333023 -0.206950 -0.081169 0.407220 -0.230145 -0.284470 0.275267 -0.285958 0.200560 -0.273003 0.360534 -0.240921 0.207810 -0.018844 0.339063 0.150077 -0.139727 -0.116072 -0.341793 -0.250404 0.444102 -0.008548 -0.110673 0.039927 0.067139 -0.399628 0.143746 -0.384273 -0.279484 0.038929 0.063602 -0.226680 -0.085516 -0.091471 0.284149 -0.043552 0.466801 0.459499 -0.059643 0.256908 0.359580 0.077386 0.411838 -0.265784 0.183785 0.046060 0.427481 0.168415 -0.294487 -0.007018 -0.018147 -0.007421 -0.189330 -0.033152 -0.337983 0.154710 0.424554 0.236766 -0.425020 0.087927 0.045216 -0.249124 -0.114606 -0.202988 0.364812 -0.285563 0.039026 -0.014188 0.258571 -0.213764 -0.381510 0.305341 -0.149305 0.058442 -0.211290 -0.210344 0.010194 0.130871 0.488282 -0.085187 0.223518 0.053191 -0.399768 -0.073324 0.222082 -0.180356 0.088514 0.197133 0.332373 0.454996 0.068744 0.329314 -0.440352 -0.175876 -0.125465 -0.328029 -0.053754 -0.480711 0.231360 0.223609 0.271949 0.005886 -0.187702 0.151457 0.263211 -0.159440 0.324600 -0.265005 -0.021228 0.470278 -0.380148 0.471476 0.302142 0.326140 0.214614 -0.214888 0.191349 -0.402233 -0.053942 0.012393 0.349731 0.060204 0.450997 0.253048 0.462862 -0.172532 -0.042477 0.138759 0.070988 0.035820 -0.182175 0.271012 -0.286165 -0.073227 -0.436383 0.144646 0.263173 -0.331152 -0.361882 0.010371 0.217584 0.112781 0.401808 0.225195 -0.329430 0.031093 0.105638 -0.126213 0.391447 0.415034 0.111821 0.437173 -0.133564 0.111198 0.230801 0.331686 0.021527 -0.356412 -0.064829 -0.084714 0.083417 -0.077951 -0.093043 0.326796 -0.263639 -0.323883 -0.293914 0.241262 0.107381 0.342215 0.168023 0.361640 -0.003473 -0.436508 -0.249622 0.403343 0.219145 0.021241 0.442053 -0.427984 0.132863 -0.281389 -0.309633 0.128015 -0.154743 0.365085 0.083986 0.477616 -0.329493 0.392613 -0.216127 -0.070800 0.042878 0.266938 -0.361142 -0.386139 0.115625 -0.237328 0.002485 -0.460439 -0.139070 -0.356606 0.013612 -0.038042 -0.430197 -0.409327 0.189142 -0.109710 0.412314 -0.319427 0.196582 0.072813 0.146999 -0.069710 0.238073 -0.020664 0.237859 0.486086 -0.292990 0.202809 -0.294176 0.187431 0.389126 0.485762 -0.222645 0.407090 0.152130 -0.176446 0.052185 0.383620 -0.470329 -0.384750 -0.323130 -0.293554 -0.152392 -0.143432 0.154947 0.094870 0.253439 0.427788 -0.281730 0.045479 0.468704 0.472816 0.139721 0.103368 -0.231452 -0.212443 -0.195540 -0.274425 -0.190257 -0.026218 -0.423230 -0.232593 0.448861 0.134482 -0.075335 0.476533 0.436606 -0.014458 0.137052 -0.136502 0.077795 -0.337881 0.397647 0.372026 0.416419 -0.307643 0.098553 0.025652 -0.252167 -0.399292 0.198270 -0.235426 -0.337781 0.326398 0.193035 0.249372 0.224600 0.025415 0.145900 -0.181622 0.230227 -0.055766 -0.106345 0.301129 -0.195285 -0.042017 -0.287651 0.088230 -0.002953 0.447246 0.410021 -0.397684 0.484825 0.300184 -0.041392 0.195642 0.129626 -0.153952 -0.015642 0.254885 0.046427 -0.168019 -0.277068 -0.438771 -0.165723 0.082160 0.366015 -0.226678 -0.122925 -0.380263 -0.356150 0.223392 0.406370 -0.261878 0.035971 -0.473895 0.195592 -0.327302 0.229305 0.002429 -0.480798 -0.486710 -0.294536 0.322592 0.295089 0.247545 -0.388692 -0.180706 -0.217617 0.030026 0.475037 0.204204 -0.172673 -0.478098 0.148375 -0.159174 0.230168 0.209885 0.392302 0.272273 0.361152 0.294809 -0.407114 0.432146 -0.429658 0.050549 0.076510 0.196396 0.065797 0.156596 0.286729 -0.358921 0.414934 -0.026215 0.343256 0.249921 -0.378871 -0.240205 -0.460971 -0.110948 -0.361369 -0.382325 0.173322 0.429163 0.367433 -0.067618 0.183891
0.229138 -0.317362 -0.065123 -0.462196 -0.187705 -0.448743 0.446926 -0.264063 -0.292788 0.437938 0.094921 -0.104770 -0.011284 0.071604 -0.013958 -0.004182 0.341566 0.059471 -0.472637 -0.267618 -0.070880 -0.317920 -0.230345 -0.448193 -0.169790 0.459520 0.146007 -0.083524 -0.344247 0.411755 -0.012721 -0.261218 -0.160920 -0.108406 -0.404618 0.192011 0.012001 0.229643 0.149493 0.381033 -0.263626 -0.270732 0.183622 -0.102575 0.222307 -0.243413 0.463394 0.471035 -0.405042 0.178856 -0.021663 -0.400574 -0.049268 0.027197 -0.345996 0.367669 -0.186358 0.422951 0.004299 -0.226419 0.083465 -0.378088 -0.404259 -0.167432 -0.132051 0.016387 -0.084396 -0.095532 -0.449708 -0.391364 0.313761 -0.251457 0.187385 -0.262036 -0.301445 0.294993 0.458739 -0.118593 -0.479919 -0.349101 -0.467799 -0.058665 -0.161862 -0.406140 0.232051 0.360769 0.034626 0.070603 0.091868 -0.439849 0.204452 0.437031 -0.204181 0.411306 0.348498 0.257300 -0.446155 0.154992 -0.035773 -0.418236 -0.481277 -0.279636 -0.005112 -0.211644 -0.074172 -0.079773 0.060748 -0.165608 -0.459749 0.379369 0.187537 0.285286 0.488889 0.310452 0.282006 0.134363 -0.062927 -0.114030 -0.091010 -0.146014 -0.414819 -0.210384 -0.004317 0.318283 0.362433 -0.395534 -0.204763 0.035696 0.244744 -0.381457 0.188933 -0.046544 0.271682 -0.045546 0.398159 0.237213 -0.122988 -0.304215 0.277475 0.219256 0.252270 -0.404612 -0.328408 -0.033406 0.249421 -0.258965 0.244348 0.022036 0.175091 0.285028 0.162257 -0.281149 -0.006191 0.253691 0.460939 -0.268676 -0.432869 0.326147 -0.324388 -0.414495 -0.183418 0.104167 0.456181 -0.417210 -0.093354 0.398014 0.428427 0.270445 0.085840 0.167256 0.017203 -0.098782 -0.018049 0.012674 0.087669 -0.110892 0.232792 -0.279195 -0.293807 -0.113017 -0.232054 0.107148 0.063921 0.270418 -0.077642 -0.028110 0.045540 0.428275 -0.045289 0.435693 0.285325 -0.086285 0.029863 -0.097918 0.214891 -0.342221 -0.050831 -0.029528 -0.197637 0.474859 -0.257468 0.438326 0.110277 -0.119821 0.154110 -0.049520 -0.155170 -0.000048 -0.166051 0.239749 -0.141577 0.213311 -0.323186 -0.284254 0.157195 -0.177021 -0.086604 -0.446465 -0.274741 0.322818 -0.013752 0.297503 -0.138479 0.359020 0.309434 -0.020634 -0.255701 0.380728 -0.237498 -0.333810 0.057653 -0.013764 0.148675 0.033100 0.460226 -0.420425 0.119115 0.286296 0.145048 -0.018219 0.396448 -0.452593 0.092165 0.468406 -0.418371 -0.024284 0.103241 -0.307701 -0.267272 0.282287 -0.041534 -0.299678 0.472112 -0.353049 0.238406 0.391617 -0.416814 -0.105559 -0.418509 -0.333828 -0.377124 -0.203408 0.468924 0.185979 -0.397926 -0.243176 -0.074630 0.198302 -0.484829 -0.115393 0.051518 -0.269981 -0.382538 -0.380637 0.216904 0.199399 -0.362061 -0.057842 -0.481386 -0.208354 0.439657 0.146375 0.301002 -0.104267 0.484201 -0.292926 0.139859 -0.014742 -0.475989 0.206281 -0.176308 -0.060238 -0.155575 -0.411739 -0.423555 0.158524 0.179135 0.147854 0.461293 -0.471464 0.001872 0.462219 -0.439341 -0.414893 -0.142231 0.225257 0.288379 0.340959 0.309650 -0.367357 0.378195 0.082216 -0.333282 -0.262093 0.201163 -0.139698 -0.386201 -0.123793 0.169446 0.480592 -0.139319 0.165782 0.114068 0.351040 -0.415593 -0.077360 -0.334121 -0.457881 -0.460950 -0.263744 0.323904 -0.235950 0.017952 0.309435 -0.003746 0.356152 -0.184053 0.096059 0.042188 -0.217803 -0.238047 -0.485176 -0.059457 -0.054809 0.388406 0.488989 0.247108 0.288634 0.169165 -0.311775 0.059661 -0.482302 0.152509 -0.126977 0.446934 0.173506 0.070255 -0.053646 0.292821 -0.186028 -0.429917 -0.018417 -0.244416 0.441756 -0.122270 -0.046232 0.317692 0.387071 -0.446657 -0.480250 -0.351062 0.143293 0.433084 -0.475926 0.031916 -0.147076 0.462999 -0.420430 0.210846 0.123565 0.020466 0.173946 0.106486 -0.453131 0.278826 -0.002181 0.153015 0.105681 0.031028 -0.440617 -0.233653 0.308721 -0.256646 -0.227732 -0.331093 0.266933 0.351366 0.173390 -0.047958 -0.305326 0.144222 -0.253023 0.401012 0.087343 -0.289234 -0.371469 0.252614 0.055763 -0.226324 0.345436 -0.301413 -0.026863 -0.224972 -0.402760 -0.423850 -0.214062 -0.314553 -0.229890 -0.399249 -0.243809 0.324826 -0.395673 0.220023 -0.275525 0.434832 -0.334414 0.411496 0.079247 0.336028 -0.209404 -0.204536 0.039527 -0.299299 -0.361762 0.259492 -0.464538 -0.121874 -0.135037 0.416188 -0.090692 0.421108 0.177147 0.159632 0.403462 -0.463445 0.322624 0.078151 -0.326478 -0.114331 0.182086 -0.107145 -0.262184 0.381236 -0.079459 -0.013198 0.412076 -0.099103 -0.215741 0.142867 -0.253307 0.274387 0.165460 0.199393 -0.062230 -0.010798 0.273182 -0.260611 -0.222680 -0.319034 -0.429180 0.482821 0.398598 -0.393844 -0.052348 -0.428199 -0.293231 -0.059051 0.028453 0.218864 -0.466586 0.096728 -0.446133 -0.426235 -0.487875 0.039529 -0.299933 -0.182066 0.159220 0.112185 0.362979 -0.276875 -0.351530 0.280192 -0.230685 0.222411 -0.077130 -0.056940 -0.379323 -0.084446 0.100906 0.335324
-0.121994 -0.228866 -0.257171 -0.216779 -0.007286 0.436643 0.429180 0.013093 -0.271123 -0.279343 0.408858 0.314662 0.104607 -0.263050 0.201652 0.278848 0.351462 0.166087 0.099532 0.432461 -0.187411 -0.482782 0.332573 -0.057095 -0.409011 0.163771 -0.354009 -0.490600 -0.403016 0.185441 0.055152 -0.118010 0.081417 -0.416654 0.092563 0.333092 -0.143500 0.133151 0.375055 0.439290 0.485808 -0.036203 -0.013004 -0.226126 0.054169 -0.331624 -0.285453 0.316469 0.051979 -0.095528 0.144829 0.110610 0.203519 0.225722 0.071788 -0.459474 -0.094219 0.270571 -0.037811 0.455721 0.224517 0.261977 -0.006121 0.357142 0.432562 -0.238781 0.310708 0.440302 0.333400 0.060522 0.021241 -0.485491 -0.081805 0.077073 0.353624 -0.091197 0.051835 0.017970 0.233119 -0.009132 -0.341165 -0.107071 0.362708 0.278618 -0.309840 0.190606 0.039518 -0.123297 0.191209 0.039994 0.182413 0.457478 0.292637 0.368289 -0.183293 0.154294 0.379537 -0.011065 -0.290457 0.013884 -0.261024 0.292792 -0.379193 0.308963 -0.271315 -0.161023 0.195977 -0.447078 0.385339 -0.155145 -0.444712 -0.239383 0.182726 0.177801 0.449499 -0.126372 -0.093990 0.416490 -0.193261 -0.066214 -0.190636 -0.156087 -0.244252 0.251198 -0.120077 -0.077072 0.388231 -0.453802 0.219747 -0.381716 -0.454435 0.134778 -0.445128 0.402773 0.210356 -0.271989 0.479412 0.171897 -0.076392 0.383730 -0.343913 0.292430 -0.246184 -0.301316 -0.368671 -0.158630 -0.272343 0.416953 0.465873 0.350329 0.440936 0.374992 0.305714 -0.084399 0.456059 -0.081931 0.015233 0.364860 -0.170723 -0.374883 0.460573 0.185640 0.287381 -0.353701 0.381953 0.312998 -0.237334 -0.455366 0.382979 -0.373558 -0.372663 0.198544 0.323161 0.346430 -0.375231 0.472204 -0.272659 -0.132171 0.427427 -0.151920 0.355248 -0.441706 0.035119 0.065805 0.391497 0.343895 -0.051199 -0.080987 -0.281757 0.173580 0.279678 -0.136898 0.250031 -0.369199 -0.349327 -0.046703 0.263504 0.262420 -0.244645 0.332607 -0.117219 -0.390447 -0.049111 -0.399532 -0.033462 -0.052264 0.250913 0.206298 -0.085410 0.318486 -0.360419 -0.236259 -0.289445 0.116118 0.439952 0.097828 -0.432938 -0.366945 0.465511 0.217775 -0.340183 -0.084781 0.040075 -0.178052 0.126634 0.128744 0.092457 -0.414956 0.434743 0.083203 -0.137047 -0.013459 0.466203 -0.310647 0.001338 0.347472 0.197058 -0.000839 0.093518 0.195649 -0.138078 0.325836 0.060651 -0.064586 -0.210910 0.149338 -0.342963 -0.128696 0.095124 0.436098 0.353752 -0.226957 -0.223933 0.407937 -0.096794 -0.478965 0.259588 -0.303997 0.304675 0.221765 -0.028185 0.394201 0.020066 -0.259097 0.404688 0.051899 0.438785 0.219180 0.375805 -0.194388 -0.220972 0.076397 -0.075826 0.064431 -0.352309 -0.276692 -0.084017 -0.255770 -0.283455 0.136628 -0.237100 0.046573 0.220130 -0.155872 0.027623 -0.029916 -0.162063 0.026145 -0.199951 -0.456485 0.059637 0.118643 0.308969 -0.438257 0.482301 -0.378219 0.090262 -0.368686 -0.323045 0.048072 0.234099 -0.429096 0.407274 -0.024262 -0.094685 -0.272862 0.144999 -0.305719 0.321716 0.173805 -0.143636 -0.163469 -0.286249 -0.107886 0.492647 -0.229631 0.169940 -0.484610 0.181912 -0.204670 -0.155073 0.321578 0.045244 0.419692 -0.012290 -0.302437 0.210091 0.128133 0.044246 0.167211 0.058111 0.165359 -0.309197 -0.020287 0.334619 -0.421640 -0.289711 0.387949 -0.371581 -0.372182 0.289284 0.465693 -0.100316 0.075421 -0.011768 -0.106221 0.047524 -0.284899 0.158400 -0.029875 0.157184 -0.401088 0.164054 -0.247450 0.033721 0.114859 -0.418022 0.095406 -0.481317 -0.420278 0.210117 0.493075 -0.243018 -0.352620 0.346677 -0.360197 -0.274308 -0.311167 -0.465376 0.089214 -0.323653 0.398141 0.284955 -0.161905 -0.164426 -0.054894 -0.353426 0.095517 -0.456499 0.421051 0.122767 0.444643 -0.477102 0.428218 -0.360983 -0.349448 -0.083936 0.100466 0.224583 0.001312 0.325833 -0.405255 -0.084121 -0.413454 0.038903 0.446021 -0.139371 -0.383884 0.057475 0.357730 0.051643 0.089107 -0.119908 -0.070222 0.375755 0.470336 0.028745 0.030601 0.058434 -0.068294 0.078981 -0.166486 -0.135813 -0.338606 0.253015 -0.346648 0.015261 -0.369107 -0.109929 0.218742 -0.251773 0.067305 0.007815 0.332683 0.256594 0.405041 -0.317299 0.438354 0.117082 0.420930 0.472211 0.097077 -0.214136 0.413859 0.192999 -0.361749 -0.486096 0.140965 -0.382137 -0.484832 -0.290272 -0.245739 0.206896 -0.179920 0.389332 0.408329 -0.444056 -0.329606 0.427318 -0.312441 -0.236302 -0.467993 -0.140728 -0.337568 0.205236 0.185720 0.475771 -0.483280 -0.155651 -0.445161 0.088517 -0.236507 0.326404 -0.183418 -0.195139 0.476195 -0.403339 -0.378786 -0.028742 -0.095832 0.039529 0.037062 -0.105806 -0.291477 -0.242856 0.199207 0.234175 -0.287824 -0.012503 0.444860 -0.349145 0.357178 -0.199643 0.090727 -0.356608 -0.223012 0.019470 0.286519 0.273651 0.451013 -0.244766 0.283786 -0.152478 0.424453 0.274151 0.484458 -0.423526 0.371855 0.420854 -0.169962 0.476716
-0.345128 0.015598 -0.097021 0.033514 0.392746 -0.216286 -0.403511 -0.398660 0.427237 0.238383 -0.217532 0.482579 -0.081795 0.394926 -0.230034 0.343321 0.487727 -0.464810 0.102612 -0.041243 -0.338795 -0.098404 -0.063392 -0.390840 0.415817 -0.491445 -0.389646 0.310780 0.262219 -0.317557 0.272716 -0.309799 -0.137176 -0.106281 -0.267246 0.403528 -0.285904 -0.412087 0.171661 -0.214996 -0.117333 0.324364 -0.098696 0.235482 0.226074 0.405825 -0.107138 -0.285865 -0.138430 -0.416275 -0.378966 -0.248654 -0.387902 -0.350700 -0.445842 -0.454464 0.195196 0.289276 -0.451595 0.065502 0.228255 -0.286879 -0.088459 0.006214 0.303072 -0.038185 0.173239 0.205202 0.030427 -0.407769 0.201740 -0.040969 -0.433805 0.202543 -0.255710 -0.279546 0.122179 -0.319143 -0.362507 0.074203 0.414205 -0.086117 -0.479856 0.061430 0.469847 -0.146266 -0.162783 -0.338892 0.348095 0.199112 0.344723 -0.054523 -0.241091 -0.293703 -0.276972 0.449885 0.403023 0.131977 0.318426 0.283064 0.213325 0.176630 0.284992 -0.280336 0.143396 -0.015367 0.165218 0.420285 -0.140925 0.312105 -0.490799 0.479839 0.422594 0.173360 0.196382 0.202898 0.457577 -0.380992 0.211860 -0.286489 -0.428945 0.260574 -0.400627 -0.181402 0.071361 -0.303390 -0.314034 -0.088520 0.100213 -0.202264 -0.340548 -0.231886 0.079509 -0.483698 -0.128912 -0.285501 -0.076263 0.152722 0.194953 0.019590 -0.268979 0.116237 -0.405177 0.380342 -0.171509 0.199024 0.049297 -0.394649 0.013261 0.404708 0.328450 -0.192988 0.197769 -0.174508 -0.092518 0.401662 -0.092306 0.319003 0.008095 0.102544 -0.332421 -0.147908 -0.467541 0.013237 -0.268634 -0.219614 0.021690 0.388878 0.318439 -0.048158 0.052786 -0.173978 0.100941 -0.416014 0.096313 0.044617 0.458192 0.290241 0.446769 -0.171065 -0.185773 -0.179035 -0.404255 -0.374689 -0.238262 -0.029946 0.024788 0.090905 -0.098758 -0.155211 -0.226157 -0.175314 0.025854 0.106913 -0.096174 0.050356 0.132216 0.020202 0.255400 0.248495 -0.209144 -0.141217 0.056745 -0.450157 -0.491034 0.274970 -0.379535 0.026820 0.327442 -0.406103 0.470368 -0.488412 -0.468302 -0.485612 -0.439353 -0.127872 0.385679 -0.342218 -0.284569 -0.254873 0.075107 0.034576 -0.451058 -0.040700 -0.456183 -0.225809 -0.487524 -0.284645 -0.162012 0.427871 0.089465 0.134005 0.481873 -0.133150 -0.455250 0.343665 -0.405137 -0.464281 -0.367172 0.363131 0.095848 -0.276423 0.320425 -0.370467 -0.385712 0.332770 -0.414255 0.215585 -0.402554 0.156546 -0.166173 -0.294404 -0.380894 0.282967 0.258725 0.105667 -0.335621 0.492938 0.078927 -0.080674 -0.172999 0.126284 0.164781 0.492527 0.217208 -0.386320 0.376152 -0.276485 0.463494 -0.446867 -0.136221 0.274370 0.448802 -0.482979 -0.107855 -0.336445 -0.078071 0.307545 -0.396395 -0.138878 0.145743 -0.338910 -0.430839 0.445910 0.129663 -0.361618 -0.389397 -0.171236 0.482549 -0.065970 -0.281532 -0.236673 0.109887 -0.146387 -0.245424 -0.093782 -0.465149 -0.163165 -0.184903 0.043558 0.286509 0.459271 0.249967 0.462129 0.307419 -0.355738 -0.438238 0.195611 -0.207129 0.250951 -0.088621 0.394932 -0.175490 -0.098111 -0.295483 -0.058417 -0.387657 -0.369599 0.465773 0.286506 -0.253433 -0.400385 -0.045316 0.154908 0.358031 -0.332385 0.115304 0.085784 0.492509 0.098493 0.239622 -0.199241 -0.219008 -0.012921 0.054602 0.104732 -0.192840 0.382265 -0.319674 -0.443185 -0.205043 0.335390 0.482284 -0.255556 0.286921 -0.264841 -0.207424 -0.262787 0.447538 -0.157178 0.474485 -0.193758 0.306714 0.117670 0.411087 0.082529 0.478330 -0.396812 -0.302928 -0.294949 -0.042451 0.369707 -0.157300 0.326650 0.023225 -0.481483 -0.462550 0.144957 0.396572 -0.172933 -0.296298 0.029964 -0.148848 -0.269495 0.155463 -0.339818 -0.057736 0.269170 -0.350156 -0.020420 0.217228 0.012188 0.390856 -0.206244 0.464549 -0.092182 -0.060332 0.493007 0.009461 0.041134 0.010882 -0.376023 -0.351085 0.441754 0.337523 0.362052 0.055090 0.465475 0.143203 -0.491870 -0.380265 -0.310480 0.348566 -0.388726 -0.200662 -0.027864 0.193431 0.332336 -0.345138 -0.257127 0.459889 -0.114517 -0.488769 0.187454 0.186330 -0.407078 -0.489210 -0.352822 0.136401 -0.168015 -0.280365 -0.291242 0.245256 -0.374577 0.094862 -0.275002 -0.196260 -0.304607 -0.095599 0.176794 -0.422416 -0.094779 0.344913 0.060366 -0.480039 0.422646 0.439869 -0.255376 -0.367819 -0.056541 -0.255491 0.101891 -0.310800 -0.467843 -0.143117 0.042120 -0.441580 0.141145 -0.223662 0.484764 0.005910 0.382905 -0.172692 -0.278327 -0.411897 0.466964 -0.107993 0.128944 0.312501 0.240281 0.331048 -0.475153 -0.386327 -0.344368 0.398202 -0.434397 -0.480693 -0.410307 -0.071540 0.490037 0.417699 0.298079 -0.377792 0.215799 0.221509 -0.481366 -0.020531 -0.079407 0.315953 0.268552 0.474728 0.469561 0.269943 0.152234 0.427924 0.464160 0.287339 0.239230 0.287628 -0.182873 0.429924 -0.415043 0.266609 -0.415565 -0.354741 0.260906 0.362744 -0.307114 -0.184752 0.219346 -0.338131
0.388605 -0.182132 -0.070141 0.334466 -0.123618 0.381779 0.082853 -0.251422 0.176557 0.465231 -0.314528 0.084481 0.361698 -0.335591 -0.053883 -0.397829 -0.138506 0.139625 0.418227 -0.122085 -0.192698 -0.272228 -0.017397 -0.142045 0.342966 0.161269 -0.418290 0.037309 -0.417632 -0.118951 0.285611 -0.141741 -0.251763 0.451923 -0.458934 0.177575 -0.224255 -0.302102 0.223325 0.089939 -0.356703 -0.310351 0.155208 0.153891 0.141120 0.025633 -0.042436 -0.425356 -0.293141 0.207341 0.153302 0.092958 -0.202536 0.036872 -0.249422 0.183988 -0.216315 -0.467906 -0.248292 -0.068736 0.256610 0.056163 -0.387408 -0.211147 0.298200 -0.436173 0.414474 -0.214453 -0.448146 -0.189855 0.389985 0.260463 -0.151655 0.120627 0.173026 -0.433534 0.177676 -0.157549 -0.341893 0.142019 -0.398336 -0.018985 -0.151537 -0.018749 -0.007920 0.120017 0.476110 0.397911 0.213042 -0.144358 0.051609 0.357775 -0.396225 0.453880 0.397311 0.055037 -0.449438 0.385106 0.031929 -0.145504 0.358345 0.178395 -0.262249 -0.365110 -0.173963 0.268531 -0.087970 0.080015 0.133329 -0.045658 0.137661 -0.314056 0.285369 -0.354847 -0.374765 0.409578 0.256818 -0.278941 -0.343039 -0.237061 0.198390 -0.448202 0.412203 0.150539 -0.443043 -0.236585 0.401594 -0.175558 0.119231 0.346191 -0.304370 -0.004935 -0.235645 0.051085 0.400212 -0.429451 -0.346347 -0.122312 0.491775 0.359202 -0.054106 -0.094368 0.187817 -0.165226 -0.424959 0.318445 0.155082 0.017371 0.438658 0.475905 -0.055365 -0.295043 0.177577 -0.223397 -0.188318 0.361218 -0.216668 -0.038210 0.410630 0.089382 0.078882 -0.366337 0.007597 -0.188450 -0.341986 0.309831 0.121545 -0.087436 0.100868 0.123794 -0.082082 0.480736 -0.228034 0.215539 0.483605 -0.223790 -0.172821 0.043967 -0.081260 0.074412 0.295449 0.208621 0.054339 0.334487 0.252539 0.119380 -0.060044 0.034799 0.171606 -0.023084 0.345002 0.137614 0.275114 0.231746 -0.288634 0.069484 0.053307 -0.067364 0.179096 0.448990 0.050585 -0.067427 0.328113 0.060594 0.408536 0.066400 0.214750 0.116910 0.294589 -0.006544 0.086577 0.216920 -0.482936 0.484705 -0.446397 0.006680 -0.060803 -0.236700 0.196554 0.142871 0.482583 -0.204209 0.072812 0.021667 -0.121171 0.178672 0.453661 -0.264961 0.305778 0.034604 -0.197062 0.469241 -0.109370 0.079369 -0.103233 -0.140944 0.455448 -0.248990 -0.125569 0.341481 -0.431575 0.446380 -0.353091 0.149617 -0.302570 -0.291944 -0.145896 -0.411940 -0.138671 0.129035 0.419182 0.106006 0.094980 -0.284192 0.043039 -0.363328 0.296503 0.136784 0.328320 0.372911 -0.065493 0.029178 -0.248964 0.330026 0.168227 -0.287692 -0.293961 -0.044363 0.353862 0.221598 -0.145359 0.381081 0.066650 0.262955 -0.134916 -0.048600 0.211808 -0.224091 0.290308 -0.185750 0.195684 -0.232358 0.479955 0.420008 -0.088438 -0.214326 -0.217195 -0.111838 -0.172762 0.042052 -0.487673 -0.289457 0.274514 0.382460 -0.081925 -0.316162 0.152324 -0.083617 -0.082502 -0.364613 -0.184330 -0.191985 -0.137912 0.100048 -0.366701 0.133053 -0.148280 -0.480799 -0.089751 -0.395673 0.118357 -0.047119 -0.460412 0.299050 0.400250 0.234862 -0.157406 -0.465005 0.467239 -0.393793 -0.163645 -0.387965 0.350191 -0.454266 0.130944 0.276810 0.063603 0.266202 0.194915 0.148503 -0.415196 0.131825 -0.294187 -0.388600 -0.218133 -0.048846 -0.433210 0.167244 0.226878 -0.492489 0.036299 0.184599 0.190509 0.138944 -0.181216 0.306162 0.488049 -0.477349 0.467806 0.218358 -0.019148 0.246810 0.342460 -0.268262 0.316955 -0.069961 -0.433668 -0.087715 0.217145 0.356076 -0.153356 -0.154329 0.160826 -0.288830 0.279119 0.362859 -0.368897 0.219268 -0.070068 0.067511 -0.255627 0.029036 0.455317 0.158121 -0.333529 -0.400501 -0.370376 -0.446146 0.207450 0.093059 0.313628 -0.224268 0.247305 0.254675 0.187517 0.358352 -0.209173 0.203725 -0.304096 0.091694 0.145750 -0.386073 -0.478130 -0.141052 -0.181073 -0.314778 0.462312 0.180686 -0.148507 0.154767 0.479433 0.329802 0.424040 -0.367123 -0.233233 -0.434675 -0.238902 -0.151368 0.368759 0.129686 0.433265 -0.428257 0.410405 -0.307074 0.008542 -0.012415 -0.011977 -0.377133 -0.248955 -0.429010 -0.160435 0.198900 0.284477 0.198899 0.265761 -0.488989 -0.427559 -0.418528 -0.469320 -0.337582 -0.048002 -0.105531 -0.082980 -0.393137 0.128784 -0.326045 0.243973 0.460146 0.276403 -0.424043 0.070549 -0.193105 0.344230 0.356629 0.133647 -0.332737 0.058776 -0.335107 -0.021063 -0.197550 0.176657 -0.287401 0.147636 0.415196 0.101418 -0.489060 -0.414152 -0.130263 -0.448663 -0.299006 0.301799 -0.415384 0.465490 0.108593 0.061082 0.306119 -0.433560 -0.327488 0.436320 -0.405853 0.347157 -0.153565 0.026067 -0.039160 -0.385652 -0.195533 -0.244117 -0.485618 -0.448134 0.475919 -0.270836 0.222851 0.439844 -0.321461 0.289210 -0.071172 0.417851 0.377496 -0.124048 0.033027 -0.199293 0.288632 -0.481580 0.133853 -0.441480 0.482671 0.077601 0.124437 0.209787 0.000014 -0.359658
0.154243 -0.053473 -0.209442 0.359698 0.033578 -0.025178 0.090830 -0.448533 0.262662 0.411050 -0.096922 -0.308507 -0.213981 0.486712 0.412019 -0.207450 0.014981 -0.403529 0.126816 0.113251 -0.448471 0.242151 0.257946 0.403836 -0.445187 -0.185420 0.462433 0.202947 0.205780 0.199346 -0.367841 0.029630 -0.035580 -0.138006 0.369619 0.481091 0.212151 0.281759 0.184465 0.286805 -0.410271 -0.452048 -0.296401 -0.303370 0.262761 0.119657 0.168109 -0.270461 0.426620 0.425355 0.289917 0.158047 -0.024071 -0.461760 -0.261907 -0.408244 -0.108305 -0.420387 0.447799 0.304268 0.036775 -0.218619 -0.227765 -0.267470 -0.450736 0.478555 -0.161998 0.399542 0.024110 0.220431 -0.281233 0.290326 0.412084 0.056450 -0.146130 0.116103 0.401584 0.222186 0.021885 -0.280006 0.264715 0.178137 -0.291314 0.107746 -0.439250 0.149985 -0.394058 -0.196993 0.432535 -0.096445 -0.166176 -0.430479 -0.283070 -0.444427 -0.220622 0.050176 0.463984 -0.471210 -0.063860 0.313799 -0.449536 0.129286 -0.312627 -0.417448 0.092801 -0.270867 -0.205143 -0.289830 0.420199 -0.096534 -0.278804 -0.288967 0.431415 0.073542 0.404647 0.032316 0.340104 0.132412 -0.345984 -0.058384 -0.372561 -0.131190 0.430559 0.140886 -0.059942 -0.128402 -0.181759 0.168442 -0.005218 -0.098221 0.420729 -0.323568 0.466228 0.229556 0.093433 0.021566 0.350953 -0.143772 0.416258 0.137729 -0.402002 -0.038780 0.084689 -0.134819 0.308164 -0.049996 0.435172 -0.090561 0.316658 -0.205073 -0.013420 0.282103 -0.401510 0.166636 -0.159720 -0.233445 0.383571 -0.015985 -0.439820 -0.103183 -0.490957 -0.266248 -0.466373 0.211792 0.024607 -0.093296 -0.161107 0.182257 0.106977 0.155311 0.079262 -0.351937 -0.215459 0.137745 -0.024413 -0.137316 -0.300652 -0.053153 -0.000271 0.041095 -0.382267 -0.056728 -0.389731 -0.294597 0.105110 0.125733 0.076132 0.126931 -0.251169 -0.031909 0.112186 -0.332480 0.316309 -0.028812 -0.220231 -0.367445 -0.433449 -0.473052 -0.455433 0.157143 0.289242 -0.443805 -0.109153 0.247663 -0.185085 -0.242249 0.280888 0.288399 -0.396640 -0.270619 -0.360053 0.475051 -0.026171 0.314024 0.140414 -0.362871 -0.237754 0.097398 -0.080571 0.055848 0.310496 0.284382 -0.239347 0.367020 0.046084 -0.200833 -0.065674 -0.065931 -0.183878 -0.304579 0.145854 0.355607 -0.460276 -0.343803 0.201454 0.419548 -0.489463 0.415087 0.367169 0.163393 0.318290 -0.369158 -0.406947 0.233484 -0.169182 -0.250932 0.066418 -0.250527 -0.137698 -0.442506 -0.287088 0.409216 0.201533 0.311660 -0.151350 0.404546 -0.234466 -0.306187 -0.014171 0.447739 0.452008 0.487998 0.344427 0.330188 -0.142463 -0.016125 -0.331738 0.118909 -0.169530 0.299114 0.322970 -0.169949 -0.192863 0.286422 0.205838 0.481077 -0.285241 0.181918 0.433804 0.353821 -0.358656 0.003727 -0.362498 0.400898 -0.250959 -0.061265 0.154131 0.135822 -0.381692 0.044501 -0.396489 0.246754 0.317883 -0.183346 -0.347403 -0.466342 0.055435 0.125384 0.314636 0.182042 0.449393 0.187558 -0.375984 0.437603 0.125677 0.220554 0.116104 0.379818 -0.486188 0.107836 -0.401222 0.111656 -0.196539 -0.282280 0.005715 -0.332156 0.405797 0.270193 0.282570 0.067855 -0.420930 0.115902 0.159456 0.145080 -0.043396 0.001391 -0.111571 0.290273 -0.186331 -0.109098 -0.470489 -0.417767 -0.278375 0.204298 -0.478251 0.303872 -0.047723 -0.475771 0.013866 -0.190836 -0.259846 0.297416 -0.353467 -0.256131 0.149291 -0.268565 0.457246 0.138838 0.047755 -0.163784 -0.161922 0.356101 -0.424026 0.166544 -0.036786 0.349383 0.014851 -0.025737 0.148952 -0.249401 -0.210640 -0.251628 0.225439 -0.382294 0.321467 0.276040 -0.056178 0.342082 0.428142 -0.470119 0.039591 -0.365127 -0.368980 0.358473 -0.085270 0.051619 0.258474 -0.048081 0.281682 0.104193 0.165685 0.291083 -0.383693 0.060509 0.070189 -0.429567 -0.128683 0.357372 0.138363 -0.381199 -0.155594 -0.004628 0.077302 -0.187499 -0.027352 0.063534 0.237943 0.411190 -0.276423 -0.206815 -0.033724 -0.061994 -0.298676 -0.456415 0.156935 0.480105 0.074272 0.388495 0.357659 0.121911 0.103021 -0.159922 0.162778 0.381912 0.064340 -0.157577 0.248752 -0.353214 -0.084613 -0.414043 0.203290 0.217638 -0.123917 0.160570 -0.042609 0.293446 -0.234016 0.347303 0.429490 0.165059 0.242417 0.087872 -0.259768 0.425137 -0.085970 0.371618 -0.437870 -0.050322 0.097468 -0.108831 0.260694 0.468175 -0.137245 0.267363 0.039111 0.238413 0.119010 0.264218 0.328850 -0.166648 -0.140731 -0.359026 0.336972 0.192953 -0.220835 -0.017991 -0.174387 -0.083950 0.021930 0.404374 -0.005250 -0.355828 -0.260976 0.210066 0.287131 0.220384 -0.368494 -0.185871 -0.316491 -0.080543 0.153976 0.027030 0.275554 0.223021 -0.011649 -0.088231 -0.492838 0.079703 -0.006936 -0.175013 0.492480 -0.451452 -0.480973 -0.218561 -0.043489 0.253730 0.429655 0.028609 0.010281 0.114451 -0.253385 0.232188 0.454057 0.469213 -0.293865 -0.095082 0.416941 0.000829 0.235028 -0.195092 -0.091982
0.492111 -0.350466 -0.156761 -0.350612 0.012813 0.301728 0.189487 0.460877 0.291047 -0.161311 -0.426609 0.118796 0.043441 -0.271927 -0.370516 -0.323473 -0.243736 0.352115 0.126398 0.097180 0.222797 0.026164 0.142506 0.144837 -0.400705 0.059976 -0.420239 0.276664 0.232775 0.090874 -0.448947 -0.113214 -0.025460 0.168949 0.117474 -0.274598 -0.023764 -0.201799 0.483530 0.465702 -0.279084 0.225928 0.315744 -0.455487 -0.139072 -0.291076 0.435037 0.018994 -0.442045 0.145006 0.378162 0.244924 -0.159963 -0.057373 0.120135 0.468711 -0.239117 0.260139 -0.046740 -0.353444 0.000232 -0.023750 0.013930 -0.465028 -0.198327 0.436223 0.222225 -0.261107 0.468643 0.204445 0.073489 -0.427151 0.222558 0.480358 0.277672 0.212228 0.158189 0.047759 0.363867 -0.128336 0.446147 -0.160593 0.329779 -0.207353 0.320366 -0.340714 -0.027964 -0.234354 0.102081 -0.361701 -0.413497 -0.308925 -0.020289 0.053684 0.461699 0.151052 -0.232820 -0.278040 0.432812 -0.303615 0.305923 -0.352435 -0.142734 -0.106521 0.491370 -0.328789 0.045405 -0.140707 0.382119 0.435992 -0.036760 0.325344 -0.241580 -0.156496 0.254216 0.157356 -0.171873 0.349776 -0.055134 -0.319675 0.384778 -0.453902 -0.182039 -0.009100 -0.490536 0.483988 0.147280 -0.464757 0.441621 -0.043908 0.159892 0.353144 0.098428 -0.204370 -0.381053 0.415495 0.237496 0.069791 0.211499 -0.407219 0.392183 -0.236686 -0.226833 -0.074876 0.152994 -0.125504 0.297979 -0.460623 0.490999 -0.190388 -0.312265 0.263136 -0.103200 -0.437216 0.455037 -0.327154 0.290172 -0.117277 0.354561 -0.469409 0.243771 0.275500 -0.167453 0.131829 -0.226729 0.307498 0.286434 -0.379395 0.439017 0.387009 0.240642 -0.337144 0.286714 0.459974 0.092849 0.471491 -0.010984 -0.204123 0.328053 -0.312493 0.476927 0.088180 0.245216 0.200486 -0.055038 0.267178 0.027385 -0.008608 -0.009428 0.234242 -0.357896 -0.302556 -0.481068 -0.445362 -0.289154 -0.059169 -0.012851 -0.259143 -0.444357 0.255463 0.324763 0.379008 0.424557 0.475936 0.466275 -0.167215 0.434848 0.433468 0.198058 -0.185622 -0.198959 0.117443 -0.005596 0.024227 0.136555 -0.430984 0.021722 -0.171013 0.189339 -0.410554 0.302847 0.117108 -0.107726 0.129287 0.473183 0.220566 0.090840 0.444926 0.231037 -0.016899 -0.076886 -0.235875 0.197478 -0.400161 0.162146 0.162369 0.137717 -0.114456 -0.293125 0.309400 -0.171744 -0.102711 0.455609 0.223233 0.304273 -0.063377 -0.269230 -0.378294 -0.216023 0.189996 -0.464690 -0.029090 0.372620 0.031308 0.389447 0.185604 -0.439117 -0.187555 0.468839 -0.052586 0.264866 -0.412869 -0.063124 0.152025 -0.459435 -0.091117 0.433139 0.332572 0.239196 0.400267 0.419995 0.093549 0.032994 -0.226328 0.020236 -0.397023 -0.382009 0.372006 -0.165878 0.013971 0.406239 0.213057 -0.073608 0.407800 0.270886 -0.206262 0.138714 0.167785 0.065612 -0.444709 0.151381 0.116826 -0.446396 -0.180417 0.083462 0.403944 -0.104654 -0.461317 -0.481704 -0.419884 0.492493 0.121281 -0.007665 -0.235835 -0.320681 0.203324 -0.347097 0.307797 0.177895 0.156950 0.457230 -0.202085 0.337505 0.154000 0.460100 0.333295 0.475346 0.089019 0.183473 -0.198052 -0.337116 -0.420394 0.259557 0.046810 -0.021720 0.153920 0.137239 -0.088535 0.462699 -0.379776 -0.492312 0.221811 0.015491 0.021908 -0.293885 0.443233 0.124619 -0.222418 0.441336 -0.463749 -0.236669 0.122034 -0.178995 0.477153 0.414406 0.410998 0.021625 -0.329711 -0.352205 0.127154 -0.256111 0.159341 0.486681 0.375185 0.274619 -0.018308 -0.386000 0.199289 -0.436666 0.472856 -0.461109 0.095473 -0.390655 0.271378 0.155103 -0.215586 -0.175492 -0.287697 -0.315451 -0.147357 -0.093203 -0.480757 -0.490572 0.251296 -0.159502 0.109989 -0.429502 0.488933 0.372978 0.259156 0.231176 0.168395 -0.452207 0.087313 0.279522 -0.459337 0.123397 -0.016411 0.027559 -0.292831 -0.178418 -0.470974 0.366086 -0.036437 0.134317 -0.352351 0.025250 0.482252 0.470015 0.136419 0.350642 0.419839 0.276384 -0.491517 -0.163082 0.107980 0.150944 0.379640 -0.014285 -0.381960 0.379610 0.146689 -0.257126 0.039154 -0.054991 -0.155098 0.026553 0.352630 0.449333 -0.338359 0.448673 0.260260 -0.327364 0.139377 0.096161 -0.184463 -0.250367 0.289682 0.012019 0.261763 0.470126 0.358380 0.005776 0.094993 0.433258 0.321158 -0.294080 -0.332225 -0.195054 0.155293 -0.364879 -0.323082 0.034182 0.444290 -0.328142 -0.154627 -0.104279 0.328223 0.334759 -0.100445 -0.166558 0.474735 0.242673 0.315364 0.024228 0.037230 0.226782 0.120439 0.440639 -0.328518 -0.156585 -0.462782 -0.113434 -0.388549 -0.209384 -0.043567 0.264679 0.056359 0.280223 0.436584 -0.382204 0.370126 0.280821 -0.417294 0.253434 -0.165838 -0.209283 -0.449109 0.256255 0.170307 0.395172 0.061533 -0.106347 -0.380216 -0.163343 0.349731 -0.343640 0.491388 -0.231483 0.033073 -0.008811 0.299252 0.422334 -0.467203 0.199734 -0.012655 0.374719 -0.470679 0.099768 0.036765 -0.204856
-0.297465 -0.256147 -0.441252 0.084451 -0.129068 0.379091 -0.325588 0.438501 0.010414 -0.449830 -0.461945 -0.122618 0.389495 0.315765 -0.428175 0.446415 -0.049852 0.360887 -0.019977 0.277542 -0.343708 -0.032960 -0.119412 -0.332384 0.214587 0.285661 0.180309 -0.175216 -0.254437 -0.107235 -0.203119 0.455832 -0.252591 -0.470861 -0.313588 0.427509 0.395141 -0.343458 -0.314566 -0.351528 -0.165054 0.049595 -0.488068 0.005141 0.052187 0.237486 0.244833 0.004897 -0.210390 -0.454266 -0.360983 0.126363 -0.205555 0.350020 -0.065890 0.332273 -0.274602 0.184272 -0.124058 -0.461065 -0.490602 -0.429878 0.464212 -0.161703 -0.154520 0.075682 -0.220524 -0.041951 -0.384470 -0.419419 -0.089361 -0.445889 0.113121 0.413393 -0.097215 0.399281 -0.152421 -0.177657 -0.427507 0.173120 -0.465771 -0.163878 -0.245755 0.347642 -0.335730 0.214541 -0.265841 0.108627 0.203935 0.314328 -0.410610 0.450012 -0.281980 0.255662 -0.103401 0.077279 -0.026455 -0.263849 -0.186896 -0.317138 0.369552 -0.129761 0.146462 -0.253808 -0.258225 0.051558 0.088665 -0.434272 -0.149187 -0.208664 0.418259 0.255300 -0.279360 -0.130876 -0.214686 -0.015774 -0.105960 -0.125218 0.462533 0.094489 -0.432456 -0.222253 0.368082 -0.371865 0.371903 -0.098868 0.256551 0.199025 0.217514 0.465086 0.193701 -0.118710 -0.257774 0.096575 -0.398630 -0.160519 -0.242726 -0.335239 0.130364 -0.485223 -0.328221 -0.418668 -0.303548 -0.235048 -0.032254 -0.223345 -0.194507 -0.383977 -0.112359 0.065238 -0.397761 -0.320511 -0.170529 0.276098 -0.327571 -0.079403 0.287207 -0.067941 -0.230618 -0.314392 -0.203471 0.262241 0.271558 -0.088655 -0.330845 0.116283 0.313775 -0.337712 -0.289176 0.149928 0.485319 0.258747 -0.207530 0.372618 0.448085 -0.025879 0.472930 0.136190 -0.041345 0.471733 0.171639 0.029983 -0.266378 0.315219 -0.402246 0.459218 -0.176347 0.463551 0.175807 -0.109194 0.159274 -0.058232 0.103240 0.111275 0.415398 0.408112 0.417643 0.063518 -0.055736 0.352773 -0.375299 -0.153642 -0.023645 0.189409 0.326665 -0.025692 0.418056 0.136278 -0.302083 -0.281570 -0.438711 -0.127657 -0.034283 0.089207 0.212714 0.470475 0.417726 0.182535 -0.116488 0.291636 0.144734 -0.034721 -0.331279 0.053926 -0.302530 0.176117 -0.181696 0.248848 0.453206 0.067516 0.083579 0.106838 -0.488465 0.460774 0.066011 -0.350872 -0.220677 -0.086595 0.035486 -0.487135 0.077209 -0.474613 0.248106 0.158240 -0.059934 0.147359 0.192443 -0.134154 -0.170785 -0.016956 0.354225 -0.409165 0.047009 0.029794 0.453769 0.129167 0.155392 0.008257 -0.291887 -0.472472 -0.338916 -0.338170 0.197830 -0.008752 0.209952 -0.083312 0.053640 -0.324759 0.254923 -0.300073 0.414101 -0.168144 -0.035989 -0.217440 0.192647 0.300669 0.111868 0.083070 -0.474745 0.342752 -0.147978 0.324088 0.096782 -0.482494 0.050932 0.389357 0.178622 0.020248 -0.357341 0.333957 0.390991 0.228517 -0.089012 0.476460 -0.024829 0.063416 0.153343 -0.196587 -0.170912 0.181504 -0.356557 0.346939 0.077220 0.438422 0.268629 0.158140 -0.437890 0.352669 0.194845 -0.342302 -0.006222 -0.038613 -0.268274 -0.357350 0.353930 0.442337 0.476295 0.414928 -0.224011 -0.402649 0.012442 0.234471 0.214955 0.210620 -0.034438 -0.180618 -0.412344 0.285358 0.341235 -0.486958 -0.132643 -0.394052 0.009072 0.056261 -0.067112 -0.399279 -0.005694 -0.098411 0.289464 0.066361 0.325635 -0.418750 0.088866 0.432730 0.232603 -0.374303 0.293565 0.317113 0.280965 0.049946 -0.107583 -0.156651 -0.186943 0.302988 0.475067 -0.363075 0.491508 0.035843 0.188517 0.226607 -0.197776 0.468234 0.185351 -0.254714 0.170632 -0.278676 0.110380 -0.388930 -0.059184 0.420692 -0.056022 0.483622 0.438428 0.163113 -0.406145 0.183590 0.343960 -0.446140 -0.487381 -0.337134 -0.060284 0.024407 0.261359 0.113388 0.176796 -0.434707 -0.258907 0.318186 -0.152958 -0.030188 -0.222231 0.471809 -0.162679 0.444768 0.121135 -0.408487 0.243174 -0.357250 -0.062207 0.334971 0.101386 0.451332 0.206643 0.259577 0.181900 -0.373745 0.045003 0.254103 0.265816 -0.157033 0.104461 0.331724 0.288633 -0.197330 0.092395 -0.417194 -0.257253 0.451631 0.036761 -0.215642 0.344604 0.229381 -0.132456 0.471285 0.206813 0.046503 -0.262692 0.049763 0.394491 0.178167 0.312048 0.223008 -0.187770 0.147008 0.413256 -0.117299 0.466329 -0.100776 0.006146 -0.388043 0.266786 0.189681 0.059942 -0.451246 -0.262072 -0.478635 0.400633 0.021552 -0.382660 -0.049953 0.282839 -0.209344 -0.125758 -0.084951 -0.137527 -0.117749 0.385114 -0.073741 -0.416198 0.380413 0.441263 -0.250614 -0.456877 0.101190 0.413437 -0.257448 -0.094359 -0.343441 -0.431168 -0.483099 0.150213 0.300842 -0.336853 -0.105288 -0.323781 0.086194 -0.462042 -0.327645 -0.088701 0.427922 0.167238 -0.196804 0.209105 0.305205 -0.184931 -0.357462 0.403628 -0.306883 -0.048533 -0.445079 0.149276 0.260560 0.070073 -0.048867 0.410344 0.409232 -0.437307 -0.296193 -0.367026 0.001269 0.347100
-0.154842 -0.108336 0.464265 -0.117031 -0.368830 -0.409293 -0.176626 -0.087378 0.144884 -0.384984 -0.027390 -0.128602 0.073440 0.194631 -0.032846 0.147694 -0.322779 0.249877 0.465143 0.088153 -0.182413 0.429858 0.040609 0.309752 -0.219922 0.100129 -0.227383 -0.305290 0.200305 -0.285167 -0.444048 -0.083492 -0.486021 -0.087713 -0.462913 -0.015833 0.473166 -0.187193 -0.004675 -0.156251 0.031328 -0.469678 0.284430 -0.334791 0.287035 0.172273 -0.356134 -0.446917 -0.048081 -0.153696 0.461165 -0.343773 0.173049 0.453958 -0.435175 0.183350 -0.310265 -0.255213 -0.134592 -0.181415 0.003702 0.438325 0.039821 -0.220647 0.334679 0.139769 -0.325625 -0.132948 -0.186698 -0.411199 0.095547 0.185961 -0.293966 -0.022996 0.373216 -0.258307 0.356024 0.344236 -0.009218 -0.489194 -0.119692 0.214986 0.368617 0.250599 0.442240 -0.268734 0.484495 -0.328900 -0.398102 0.062491 0.088302 -0.151455 -0.322295 -0.113685 -0.302388 0.279910 0.353748 -0.214308 -0.213567 0.426101 -0.388445 0.218070 0.421075 -0.462865 0.087787 -0.024863 -0.398712 -0.453303 0.098115 -0.464964 0.363280 -0.115000 0.416631 -0.408840 -0.386148 -0.249246 0.050905 0.101246 -0.364116 0.082408 -0.005854 0.084749 -0.418256 -0.038572 -0.029913 0.360686 0.462505 -0.200226 0.426861 0.047171 0.141277 0.434879 -0.341675 -0.213523 0.197052 -0.109517 0.470025 0.447657 0.431623 0.462595 0.472885 0.328241 0.474613 0.135883 0.126860 0.127673 -0.456257 -0.276431 0.109970 -0.444487 -0.470326 -0.445473 -0.064108 -0.277129 -0.491022 0.161619 0.148924 0.207340 0.326148 0.014707 -0.329102 -0.321694 0.413319 -0.269710 -0.362322 0.128931 -0.434755 -0.018456 0.243613 -0.382694 -0.002497 -0.117356 0.158341 -0.311684 0.197159 -0.128158 0.246445 0.434796 0.204603 0.237691 0.094588 -0.339709 0.264795 -0.484791 0.341955 -0.005130 -0.115567 -0.014965 -0.174962 0.175628 -0.336530 0.144258 -0.071536 -0.099377 -0.183718 0.437965 0.421822 -0.381725 -0.007750 0.239341 -0.416130 -0.126267 0.360058 -0.101544 0.162648 0.399568 0.492041 0.285586 0.156547 -0.325280 -0.065769 0.090403 -0.053642 0.298481 -0.290606 -0.148411 0.386284 0.188158 0.092360 0.122156 0.097709 0.263736 0.332700 0.157305 -0.151458 0.408834 0.238040 -0.343590 0.343405 -0.064624 -0.443274 -0.373961 -0.138536 0.381675 -0.483277 0.034434 -0.256907 -0.304847 -0.236568 0.063265 0.018107 0.316886 0.195814 -0.285397 -0.387570 -0.327236 -0.388487 -0.321043 -0.278937 -0.102474 0.338858 0.447246 0.175405 -0.011166 0.400665 0.327903 0.449249 -0.291016 0.034618 0.185931 0.096856 0.354228 0.059235 0.253663 0.212522 0.058420 0.175774 -0.131886 0.025500 -0.370618 -0.430155 -0.252872 0.406846 -0.206830 0.362328 -0.390637 -0.492770 -0.274382 -0.016987 -0.314701 0.416189 -0.145626 -0.138356 0.437430 0.007485 -0.043349 -0.321037 0.444386 0.080137 0.010566 -0.288009 0.026637 -0.428412 0.412688 0.447557 -0.015548 -0.241539 0.068577 0.196324 -0.117819 -0.120680 0.429406 -0.109083 -0.473038 0.320123 -0.313777 -0.203285 0.478924 0.467667 -0.256291 0.371774 0.164322 -0.228122 0.180256 -0.197431 0.019672 0.458604 0.058849 -0.070794 -0.450345 -0.030521 0.116007 -0.315462 -0.064938 0.143628 0.427331 0.385543 -0.068791 0.236226 0.337659 0.443239 0.154624 0.127453 0.228867 0.277480 -0.431603 0.003416 -0.331079 0.319236 -0.442794 -0.059860 -0.215970 -0.463982 0.112250 -0.215531 0.306603 0.032458 0.145241 0.190601 -0.203514 0.286832 -0.026666 0.355302 0.169084 -0.478986 -0.113645 -0.477092 0.022909 -0.218339 0.436956 0.109197 -0.231656 -0.308637 0.256770 -0.119790 -0.443091 -0.392162 0.347485 0.313590 -0.155322 -0.369903 0.325930 0.155928 0.119726 0.475516 0.415390 0.229145 0.371999 0.254930 0.247721 -0.071692 0.072136 -0.189638 0.177462 0.353093 0.180786 0.044785 0.399269 -0.189650 0.044256 -0.292100 -0.492057 -0.146947 0.400116 -0.234581 -0.452900 -0.347060 -0.199005 0.254871 0.025171 -0.390191 -0.195779 -0.480179 -0.265542 -0.166186 -0.477401 0.392984 -0.170905 -0.157460 -0.201218 -0.111331 0.265516 0.280562 0.017647 0.177002 -0.312165 -0.140076 0.422488 0.355705 -0.348781 0.293505 0.373797 -0.333687 -0.329575 0.386638 -0.396283 0.018796 -0.316271 0.296950 0.375869 -0.464952 -0.059387 0.469089 0.129955 0.454636 0.390306 0.068623 0.026085 0.196265 -0.492529 0.116075 -0.419690 0.204703 0.240442 0.014541 0.376734 -0.130940 0.364855 0.288732 -0.338079 -0.029948 0.450094 -0.082088 -0.401279 -0.302039 0.285924 -0.344524 0.077295 -0.111898 0.268875 -0.343410 0.297311 -0.424407 0.094253 -0.465688 0.198508 -0.473980 -0.140522 -0.090336 -0.290926 -0.119224 -0.091021 0.147724 0.413491 -0.425994 -0.142068 -0.372711 0.134406 -0.091638 0.159981 0.467375 -0.295048 -0.391997 0.188370 -0.010833 0.267730 0.198294 -0.270805 0.071671 -0.114568 -0.023688 -0.113401 -0.105405 -0.151701 0.002115 0.362997 0.439906 0.235456 -0.063736 -0.027127 0.050052
-0.102523 -0.068298 0.001833 0.381431 -0.065075 0.148595 -0.138999 0.077042 -0.261721 -0.187470 -0.105444 0.445955 0.054834 0.008619 -0.010909 -0.102274 0.160210 -0.209303 -0.018539 -0.001849 0.110072 -0.010343 0.062759 -0.280820 -0.259592 -0.282850 -0.212061 -0.126846 0.406554 0.049212 0.243344 -0.235811 -0.189901 0.455959 -0.338339 0.218121 -0.199704 -0.151369 0.378416 -0.062522 0.354125 0.208544 0.392876 -0.035679 0.403544 -0.016156 0.172680 0.348233 0.351279 -0.040749 0.369586 -0.181173 -0.130395 0.100793 -0.454795 0.491287 -0.263234 0.069591 -0.220387 -0.304413 -0.020515 -0.342704 -0.031397 -0.144081 0.050618 0.161999 -0.318784 -0.245089 -0.322611 0.267694 -0.353070 0.344829 0.396676 -0.172136 -0.442206 -0.274944 -0.491785 0.404747 -0.395333 -0.338357 0.028608 0.461795 -0.321179 0.400618 0.116634 -0.415338 0.056032 -0.321153 -0.058152 -0.467033 0.084466 -0.442317 0.046599 -0.078560 0.106527 -0.220401 0.334270 -0.477354 -0.427781 -0.437144 -0.355351 0.062667 0.326721 0.074127 -0.004499 -0.150346 -0.370021 -0.349097 -0.267833 -0.248153 -0.406249 0.421371 -0.150965 0.262465 -0.350024 0.008123 -0.147605 -0.461091 0.291069 0.480482 0.042509 -0.475853 -0.026499 0.061308 0.462466 -0.274939 0.385312 -0.035038 0.130615 -0.025433 -0.260707 -0.424871 -0.277764 -0.246816 0.087245 -0.004818 -0.033535 -0.317768 -0.401885 0.236041 -0.063771 0.092104 -0.089980 0.026652 -0.248534 0.272893 0.480291 0.490588 0.096516 0.215101 -0.390331 -0.058581 0.254901 0.296547 0.005994 -0.425787 -0.074936 -0.397463 0.014220 -0.389569 -0.037419 0.204269 0.194139 -0.423841 0.233861 -0.129917 0.456809 0.133075 0.278432 -0.161941 -0.225454 -0.158747 -0.257433 -0.461829 0.238313 0.391149 0.460128 0.457998 -0.461815 -0.290728 0.254124 0.265101 0.139574 0.073621 0.067893 0.484005 0.363968 0.099664 0.248124 0.011274 -0.335375 -0.409216 -0.233309 0.197527 0.360998 -0.409279 0.273995 -0.000655 -0.059282 -0.404605 0.079502 0.394231 -0.115842 0.157100 -0.326640 0.053068 0.389205 -0.027899 0.492062 -0.279470 0.382921 0.163034 -0.157518 -0.079657 -0.479524 0.149730 -0.420716 0.249398 0.446078 0.196434 -0.448621 -0.030691 -0.284560 0.064529 0.305878 -0.398454 0.027159 -0.129835 -0.351741 0.390926 0.302571 0.092846 -0.101243 0.323741 -0.241627 -0.393561 -0.414980 0.354635 0.438128 -0.210486 0.039257 0.317308 -0.085298 0.011260 0.228424 0.022140 -0.243485 -0.319958 0.076486 0.071316 0.188417 0.247444 0.274129 0.128856 -0.320602 0.377579 0.171243 -0.163759 -0.094957 0.407030 0.390773 -0.085115 -0.458482 -0.262320 0.315325 0.047449 0.164983 -0.080502 0.339109 0.244970 -0.490531 0.062161 0.329436 -0.365081 -0.144188 -0.243052 0.317539 0.181528 0.211062 -0.036523 0.085051 0.459496 -0.352917 0.327264 0.296876 -0.374102 0.197651 -0.195206 0.154502 0.267374 0.281781 0.083167 -0.117782 -0.060104 -0.200728 -0.461001 -0.361625 -0.368186 -0.109366 0.461009 0.112959 0.194374 0.469314 0.102507 -0.446942 0.301046 -0.008167 0.112805 -0.450964 0.322234 -0.211420 -0.320515 0.345710 -0.051858 0.288013 -0.182751 0.099027 -0.056562 0.262865 0.385967 0.411057 0.211118 0.148995 -0.306114 0.157578 -0.077095 -0.463781 0.306933 0.126961 -0.121623 -0.226339 0.037799 0.312453 -0.468013 -0.465758 0.275124 0.358033 0.340262 -0.043505 0.055031 -0.002837 -0.030024 0.408074 0.317519 0.365507 -0.092176 -0.194763 0.404958 -0.273935 0.457041 0.007590 0.002977 0.112730 -0.298299 0.273756 0.049346 -0.052226 0.229231 -0.439757 -0.287175 0.408398 0.133558 0.157339 0.256351 -0.165136 -0.018805 0.278113 0.285139 0.456837 -0.402911 0.130391 0.416233 0.445838 -0.139259 -0.128454 -0.360710 0.426702 -0.075187 -0.156149 0.271126 -0.418853 -0.152548 0.144362 0.305940 0.205693 0.406557 -0.099654 -0.347214 0.435369 0.437470 -0.103864 0.281580 -0.252286 0.246290 0.240942 0.271140 -0.261518 -0.447305 0.004877 0.061298 -0.071310 -0.407192 -0.427438 -0.100529 0.034691 -0.397884 0.289825 0.354892 -0.292925 -0.371943 -0.487542 0.111971 0.224599 0.157412 -0.230087 0.259881 -0.327936 0.017156 -0.049513 0.323072 0.214232 0.274027 -0.205637 -0.220924 0.138581 0.141913 -0.023889 -0.066877 -0.110835 0.083682 -0.279792 -0.401360 0.064647 0.316323 0.035189 0.038166 0.101666 0.007316 -0.213406 0.491954 -0.463352 0.374292 -0.377820 0.442995 0.089340 -0.167820 -0.435595 0.471156 -0.115963 -0.007952 0.211101 0.472988 0.358866 0.024868 -0.017928 -0.242180 -0.312057 0.100802 0.271655 0.202819 -0.207814 -0.245608 -0.478404 -0.339804 -0.255149 0.257601 0.234345 -0.417024 0.282268 -0.118589 0.240386 -0.472572 0.453135 -0.015246 -0.391807 -0.178963 -0.313669 -0.399746 0.271890 0.395608 0.114639 0.283016 -0.347865 0.382165 -0.320643 -0.068653 -0.210612 -0.471343 0.033277 0.278946 0.296358 0.243913 -0.378041 0.078572 0.239025 -0.464489 -0.328790 -0.492714 0.209778 -0.052973 -0.312802
